<?xml version="1.0"?>
<MethodSetup Method="BDT::BDT_400_MinNodeSize5of100">
  <GeneralInfo>
    <Info name="TMVA Release" value="4.2.1 [262657]"/>
    <Info name="ROOT Release" value="6.14/09 [396809]"/>
    <Info name="Creator" value="bhoh"/>
    <Info name="Date" value="Mon Nov 16 20:48:31 2020"/>
    <Info name="Host" value="Linux cmsbuilder10.cern.ch 2.6.32-754.12.1.el6.x86_64 #1 SMP Thu Apr 11 11:50:45 CEST 2019 x86_64 x86_64 x86_64 GNU/Linux"/>
    <Info name="Dir" value="/cms/ldap_home/bhoh/latinos/CMSSW_10_6_4/src/SNuAnalytics/MVATool/scripts"/>
    <Info name="Training events" value="244853"/>
    <Info name="TrainingTime" value="4.58307779e+01"/>
    <Info name="AnalysisType" value="Classification"/>
  </GeneralInfo>
  <Options>
    <Option name="V" modified="Yes">False</Option>
    <Option name="VerbosityLevel" modified="No">Default</Option>
    <Option name="VarTransform" modified="Yes">N,D</Option>
    <Option name="H" modified="Yes">False</Option>
    <Option name="CreateMVAPdfs" modified="No">False</Option>
    <Option name="IgnoreNegWeightsInTraining" modified="No">False</Option>
    <Option name="NTrees" modified="Yes">400</Option>
    <Option name="MaxDepth" modified="Yes">2</Option>
    <Option name="MinNodeSize" modified="Yes">5%</Option>
    <Option name="nCuts" modified="Yes">100</Option>
    <Option name="BoostType" modified="Yes">Grad</Option>
    <Option name="AdaBoostR2Loss" modified="No">quadratic</Option>
    <Option name="UseBaggedBoost" modified="No">False</Option>
    <Option name="Shrinkage" modified="No">1.000000e+00</Option>
    <Option name="AdaBoostBeta" modified="No">5.000000e-01</Option>
    <Option name="UseRandomisedTrees" modified="No">False</Option>
    <Option name="UseNvars" modified="No">4</Option>
    <Option name="UsePoissonNvars" modified="No">True</Option>
    <Option name="BaggedSampleFraction" modified="No">6.000000e-01</Option>
    <Option name="UseYesNoLeaf" modified="No">True</Option>
    <Option name="NegWeightTreatment" modified="No">pray</Option>
    <Option name="Css" modified="No">1.000000e+00</Option>
    <Option name="Cts_sb" modified="No">1.000000e+00</Option>
    <Option name="Ctb_ss" modified="No">1.000000e+00</Option>
    <Option name="Cbb" modified="No">1.000000e+00</Option>
    <Option name="NodePurityLimit" modified="No">5.000000e-01</Option>
    <Option name="SeparationType" modified="Yes">giniindex</Option>
    <Option name="RegressionLossFunctionBDTG" modified="No">huber</Option>
    <Option name="HuberQuantile" modified="No">7.000000e-01</Option>
    <Option name="DoBoostMonitor" modified="No">False</Option>
    <Option name="UseFisherCuts" modified="No">False</Option>
    <Option name="MinLinCorrForFisher" modified="No">8.000000e-01</Option>
    <Option name="UseExclusiveVars" modified="No">False</Option>
    <Option name="DoPreselection" modified="No">False</Option>
    <Option name="SigToBkgFraction" modified="No">1.000000e+00</Option>
    <Option name="PruneMethod" modified="Yes">nopruning</Option>
    <Option name="PruneStrength" modified="No">0.000000e+00</Option>
    <Option name="PruningValFraction" modified="No">5.000000e-01</Option>
    <Option name="SkipNormalization" modified="No">False</Option>
    <Option name="nEventsMin" modified="No">0</Option>
    <Option name="UseBaggedGrad" modified="No">False</Option>
    <Option name="GradBaggingFraction" modified="No">6.000000e-01</Option>
    <Option name="UseNTrainEvents" modified="No">0</Option>
    <Option name="NNodesMax" modified="No">0</Option>
  </Options>
  <Variables NVar="15">
    <Variable VarIndex="0" Expression="csv_jet0_mvaCHToCB" Label="csv_jet0_mvaCHToCB" Title="csv_jet0_mvaCHToCB" Unit="" Internal="csv_jet0_mvaCHToCB" Type="F" Min="4.96093750e-01" Max="9.99511719e-01"/>
    <Variable VarIndex="1" Expression="csv_jet1_mvaCHToCB" Label="csv_jet1_mvaCHToCB" Title="csv_jet1_mvaCHToCB" Unit="" Internal="csv_jet1_mvaCHToCB" Type="F" Min="4.94140625e-01" Max="9.99511719e-01"/>
    <Variable VarIndex="2" Expression="csv_jet2_mvaCHToCB" Label="csv_jet2_mvaCHToCB" Title="csv_jet2_mvaCHToCB" Unit="" Internal="csv_jet2_mvaCHToCB" Type="F" Min="-2.00000000e+00" Max="9.97558594e-01"/>
    <Variable VarIndex="3" Expression="(csv_jet0_mvaCHToCB+csv_jet1_mvaCHToCB+csv_jet2_mvaCHToCB)/3" Label="avg_csv_had_top" Title="avg_csv_had_top" Unit="" Internal="avg_csv_had_top" Type="F" Min="-3.28287750e-01" Max="9.98372376e-01"/>
    <Variable VarIndex="4" Expression="(csv_jet0_mvaCHToCB-(csv_jet0_mvaCHToCB+csv_jet1_mvaCHToCB+csv_jet2_mvaCHToCB)/3)*(csv_jet0_mvaCHToCB-(csv_jet0_mvaCHToCB+csv_jet1_mvaCHToCB+csv_jet2_mvaCHToCB)/3)" Label="2nd_moment_csv_jet0_mvaCHToCB" Title="2nd_moment_csv_jet0_mvaCHToCB" Unit="" Internal="2nd_moment_csv_jet0_mvaCHToCB" Type="F" Min="2.64909534e-08" Max="1.36187077e+00"/>
    <Variable VarIndex="5" Expression="(csv_jet1_mvaCHToCB-(csv_jet0_mvaCHToCB+csv_jet1_mvaCHToCB+csv_jet2_mvaCHToCB)/3)*(csv_jet1_mvaCHToCB-(csv_jet0_mvaCHToCB+csv_jet1_mvaCHToCB+csv_jet2_mvaCHToCB)/3)" Label="2nd_moment_csv_jet1_mvaCHToCB" Title="2nd_moment_csv_jet1_mvaCHToCB" Unit="" Internal="2nd_moment_csv_jet1_mvaCHToCB" Type="F" Min="0.00000000e+00" Max="9.98698354e-01"/>
    <Variable VarIndex="6" Expression="(csv_jet2_mvaCHToCB-(csv_jet0_mvaCHToCB+csv_jet1_mvaCHToCB+csv_jet2_mvaCHToCB)/3)*(csv_jet2_mvaCHToCB-(csv_jet0_mvaCHToCB+csv_jet1_mvaCHToCB+csv_jet2_mvaCHToCB)/3)" Label="2nd_moment_csv_jet2_mvaCHToCB" Title="2nd_moment_csv_jet2_mvaCHToCB" Unit="" Internal="2nd_moment_csv_jet2_mvaCHToCB" Type="F" Min="1.05963814e-07" Max="3.99609470e+00"/>
    <Variable VarIndex="7" Expression="dijet_deltaR0_mvaCHToCB" Label="dijet_deltaR0_mvaCHToCB" Title="dijet_deltaR0_mvaCHToCB" Unit="" Internal="dijet_deltaR0_mvaCHToCB" Type="F" Min="4.00911927e-01" Max="4.01756096e+00"/>
    <Variable VarIndex="8" Expression="dijet_deltaR1_mvaCHToCB" Label="dijet_deltaR1_mvaCHToCB" Title="dijet_deltaR1_mvaCHToCB" Unit="" Internal="dijet_deltaR1_mvaCHToCB" Type="F" Min="3.96314323e-01" Max="4.37556124e+00"/>
    <Variable VarIndex="9" Expression="Hplus_b_deltaR0_mvaCHToCB" Label="Hplus_b_deltaR0_mvaCHToCB" Title="Hplus_b_deltaR0_mvaCHToCB" Unit="" Internal="Hplus_b_deltaR0_mvaCHToCB" Type="F" Min="1.56276971e-02" Max="5.59678459e+00"/>
    <Variable VarIndex="10" Expression="Hplus_b_deltaR1_mvaCHToCB" Label="Hplus_b_deltaR1_mvaCHToCB" Title="Hplus_b_deltaR1_mvaCHToCB" Unit="" Internal="Hplus_b_deltaR1_mvaCHToCB" Type="F" Min="7.93977734e-03" Max="7.77072239e+00"/>
    <Variable VarIndex="11" Expression="bb_deltaR_mvaCHToCB" Label="bb_deltaR_mvaCHToCB" Title="bb_deltaR_mvaCHToCB" Unit="" Internal="bb_deltaR_mvaCHToCB" Type="F" Min="3.95335436e-01" Max="4.06411457e+00"/>
    <Variable VarIndex="12" Expression="min_deltaR_bb_event_mvaCHToCB" Label="min_deltaR_bb_event_mvaCHToCB" Title="min_deltaR_bb_event_mvaCHToCB" Unit="" Internal="min_deltaR_bb_event_mvaCHToCB" Type="F" Min="3.95335436e-01" Max="3.39922261e+00"/>
    <Variable VarIndex="13" Expression="HT_btagged_M" Label="HT_btagged_M" Title="HT_btagged_M" Unit="" Internal="HT_btagged_M" Type="F" Min="4.37031250e+01" Max="6.39562500e+02"/>
    <Variable VarIndex="14" Expression="HT_not_btagged_M" Label="HT_not_btagged_M" Title="HT_not_btagged_M" Unit="" Internal="HT_not_btagged_M" Type="F" Min="0.00000000e+00" Max="5.82000000e+02"/>
  </Variables>
  <Spectators NSpec="0"/>
  <Classes NClass="2">
    <Class Name="Signal" Index="0"/>
    <Class Name="Background" Index="1"/>
  </Classes>
  <Transformations NTransformations="2">
    <Transform Name="Normalize">
      <Selection>
        <Input NInputs="15">
          <Input Type="Variable" Label="csv_jet0_mvaCHToCB" Expression="csv_jet0_mvaCHToCB"/>
          <Input Type="Variable" Label="csv_jet1_mvaCHToCB" Expression="csv_jet1_mvaCHToCB"/>
          <Input Type="Variable" Label="csv_jet2_mvaCHToCB" Expression="csv_jet2_mvaCHToCB"/>
          <Input Type="Variable" Label="avg_csv_had_top" Expression="(csv_jet0_mvaCHToCB+csv_jet1_mvaCHToCB+csv_jet2_mvaCHToCB)/3"/>
          <Input Type="Variable" Label="2nd_moment_csv_jet0_mvaCHToCB" Expression="(csv_jet0_mvaCHToCB-(csv_jet0_mvaCHToCB+csv_jet1_mvaCHToCB+csv_jet2_mvaCHToCB)/3)*(csv_jet0_mvaCHToCB-(csv_jet0_mvaCHToCB+csv_jet1_mvaCHToCB+csv_jet2_mvaCHToCB)/3)"/>
          <Input Type="Variable" Label="2nd_moment_csv_jet1_mvaCHToCB" Expression="(csv_jet1_mvaCHToCB-(csv_jet0_mvaCHToCB+csv_jet1_mvaCHToCB+csv_jet2_mvaCHToCB)/3)*(csv_jet1_mvaCHToCB-(csv_jet0_mvaCHToCB+csv_jet1_mvaCHToCB+csv_jet2_mvaCHToCB)/3)"/>
          <Input Type="Variable" Label="2nd_moment_csv_jet2_mvaCHToCB" Expression="(csv_jet2_mvaCHToCB-(csv_jet0_mvaCHToCB+csv_jet1_mvaCHToCB+csv_jet2_mvaCHToCB)/3)*(csv_jet2_mvaCHToCB-(csv_jet0_mvaCHToCB+csv_jet1_mvaCHToCB+csv_jet2_mvaCHToCB)/3)"/>
          <Input Type="Variable" Label="dijet_deltaR0_mvaCHToCB" Expression="dijet_deltaR0_mvaCHToCB"/>
          <Input Type="Variable" Label="dijet_deltaR1_mvaCHToCB" Expression="dijet_deltaR1_mvaCHToCB"/>
          <Input Type="Variable" Label="Hplus_b_deltaR0_mvaCHToCB" Expression="Hplus_b_deltaR0_mvaCHToCB"/>
          <Input Type="Variable" Label="Hplus_b_deltaR1_mvaCHToCB" Expression="Hplus_b_deltaR1_mvaCHToCB"/>
          <Input Type="Variable" Label="bb_deltaR_mvaCHToCB" Expression="bb_deltaR_mvaCHToCB"/>
          <Input Type="Variable" Label="min_deltaR_bb_event_mvaCHToCB" Expression="min_deltaR_bb_event_mvaCHToCB"/>
          <Input Type="Variable" Label="HT_btagged_M" Expression="HT_btagged_M"/>
          <Input Type="Variable" Label="HT_not_btagged_M" Expression="HT_not_btagged_M"/>
        </Input>
        <Output NOutputs="15">
          <Output Type="Variable" Label="csv_jet0_mvaCHToCB" Expression="csv_jet0_mvaCHToCB"/>
          <Output Type="Variable" Label="csv_jet1_mvaCHToCB" Expression="csv_jet1_mvaCHToCB"/>
          <Output Type="Variable" Label="csv_jet2_mvaCHToCB" Expression="csv_jet2_mvaCHToCB"/>
          <Output Type="Variable" Label="avg_csv_had_top" Expression="(csv_jet0_mvaCHToCB+csv_jet1_mvaCHToCB+csv_jet2_mvaCHToCB)/3"/>
          <Output Type="Variable" Label="2nd_moment_csv_jet0_mvaCHToCB" Expression="(csv_jet0_mvaCHToCB-(csv_jet0_mvaCHToCB+csv_jet1_mvaCHToCB+csv_jet2_mvaCHToCB)/3)*(csv_jet0_mvaCHToCB-(csv_jet0_mvaCHToCB+csv_jet1_mvaCHToCB+csv_jet2_mvaCHToCB)/3)"/>
          <Output Type="Variable" Label="2nd_moment_csv_jet1_mvaCHToCB" Expression="(csv_jet1_mvaCHToCB-(csv_jet0_mvaCHToCB+csv_jet1_mvaCHToCB+csv_jet2_mvaCHToCB)/3)*(csv_jet1_mvaCHToCB-(csv_jet0_mvaCHToCB+csv_jet1_mvaCHToCB+csv_jet2_mvaCHToCB)/3)"/>
          <Output Type="Variable" Label="2nd_moment_csv_jet2_mvaCHToCB" Expression="(csv_jet2_mvaCHToCB-(csv_jet0_mvaCHToCB+csv_jet1_mvaCHToCB+csv_jet2_mvaCHToCB)/3)*(csv_jet2_mvaCHToCB-(csv_jet0_mvaCHToCB+csv_jet1_mvaCHToCB+csv_jet2_mvaCHToCB)/3)"/>
          <Output Type="Variable" Label="dijet_deltaR0_mvaCHToCB" Expression="dijet_deltaR0_mvaCHToCB"/>
          <Output Type="Variable" Label="dijet_deltaR1_mvaCHToCB" Expression="dijet_deltaR1_mvaCHToCB"/>
          <Output Type="Variable" Label="Hplus_b_deltaR0_mvaCHToCB" Expression="Hplus_b_deltaR0_mvaCHToCB"/>
          <Output Type="Variable" Label="Hplus_b_deltaR1_mvaCHToCB" Expression="Hplus_b_deltaR1_mvaCHToCB"/>
          <Output Type="Variable" Label="bb_deltaR_mvaCHToCB" Expression="bb_deltaR_mvaCHToCB"/>
          <Output Type="Variable" Label="min_deltaR_bb_event_mvaCHToCB" Expression="min_deltaR_bb_event_mvaCHToCB"/>
          <Output Type="Variable" Label="HT_btagged_M" Expression="HT_btagged_M"/>
          <Output Type="Variable" Label="HT_not_btagged_M" Expression="HT_not_btagged_M"/>
        </Output>
      </Selection>
      <Class ClassIndex="0">
        <Ranges>
          <Range Index="0" Min="5.0146484375000000e-01" Max="9.9951171875000000e-01"/>
          <Range Index="1" Min="4.9414062500000000e-01" Max="9.9951171875000000e-01"/>
          <Range Index="2" Min="-2.0000000000000000e+00" Max="9.9755859375000000e-01"/>
          <Range Index="3" Min="-3.2828775048255920e-01" Max="9.9837237596511841e-01"/>
          <Range Index="4" Min="2.6490953430879927e-08" Max="1.3584539890289307e+00"/>
          <Range Index="5" Min="0.0000000000000000e+00" Max="9.9869835376739502e-01"/>
          <Range Index="6" Min="1.0596381372351971e-07" Max="3.9960947036743164e+00"/>
          <Range Index="7" Min="4.0091192722320557e-01" Max="4.0175609588623047e+00"/>
          <Range Index="8" Min="3.9631432294845581e-01" Max="4.3755612373352051e+00"/>
          <Range Index="9" Min="1.5627697110176086e-02" Max="5.5967845916748047e+00"/>
          <Range Index="10" Min="7.9397773370146751e-03" Max="7.7707223892211914e+00"/>
          <Range Index="11" Min="4.0199103951454163e-01" Max="4.0641145706176758e+00"/>
          <Range Index="12" Min="4.0104100108146667e-01" Max="3.3992226123809814e+00"/>
          <Range Index="13" Min="5.5687500000000000e+01" Max="6.3287500000000000e+02"/>
          <Range Index="14" Min="0.0000000000000000e+00" Max="5.8200000000000000e+02"/>
        </Ranges>
      </Class>
      <Class ClassIndex="1">
        <Ranges>
          <Range Index="0" Min="4.9609375000000000e-01" Max="9.9951171875000000e-01"/>
          <Range Index="1" Min="4.9414062500000000e-01" Max="9.9951171875000000e-01"/>
          <Range Index="2" Min="-2.0000000000000000e+00" Max="9.8291015625000000e-01"/>
          <Range Index="3" Min="-3.0143228173255920e-01" Max="9.9218750000000000e-01"/>
          <Range Index="4" Min="5.3644180297851562e-05" Max="1.3618707656860352e+00"/>
          <Range Index="5" Min="2.3283064365386963e-10" Max="9.9642246961593628e-01"/>
          <Range Index="6" Min="8.6069107055664062e-05" Max="3.9908905029296875e+00"/>
          <Range Index="7" Min="4.0348261594772339e-01" Max="3.8608622550964355e+00"/>
          <Range Index="8" Min="3.9965561032295227e-01" Max="4.2004628181457520e+00"/>
          <Range Index="9" Min="1.6244154423475266e-02" Max="5.4958553314208984e+00"/>
          <Range Index="10" Min="9.5646828413009644e-03" Max="5.1050958633422852e+00"/>
          <Range Index="11" Min="3.9533543586730957e-01" Max="3.8931784629821777e+00"/>
          <Range Index="12" Min="3.9533543586730957e-01" Max="3.2821199893951416e+00"/>
          <Range Index="13" Min="4.3703125000000000e+01" Max="6.3956250000000000e+02"/>
          <Range Index="14" Min="0.0000000000000000e+00" Max="4.2650000000000000e+02"/>
        </Ranges>
      </Class>
      <Class ClassIndex="2">
        <Ranges>
          <Range Index="0" Min="4.9609375000000000e-01" Max="9.9951171875000000e-01"/>
          <Range Index="1" Min="4.9414062500000000e-01" Max="9.9951171875000000e-01"/>
          <Range Index="2" Min="-2.0000000000000000e+00" Max="9.9755859375000000e-01"/>
          <Range Index="3" Min="-3.2828775048255920e-01" Max="9.9837237596511841e-01"/>
          <Range Index="4" Min="2.6490953430879927e-08" Max="1.3618707656860352e+00"/>
          <Range Index="5" Min="0.0000000000000000e+00" Max="9.9869835376739502e-01"/>
          <Range Index="6" Min="1.0596381372351971e-07" Max="3.9960947036743164e+00"/>
          <Range Index="7" Min="4.0091192722320557e-01" Max="4.0175609588623047e+00"/>
          <Range Index="8" Min="3.9631432294845581e-01" Max="4.3755612373352051e+00"/>
          <Range Index="9" Min="1.5627697110176086e-02" Max="5.5967845916748047e+00"/>
          <Range Index="10" Min="7.9397773370146751e-03" Max="7.7707223892211914e+00"/>
          <Range Index="11" Min="3.9533543586730957e-01" Max="4.0641145706176758e+00"/>
          <Range Index="12" Min="3.9533543586730957e-01" Max="3.3992226123809814e+00"/>
          <Range Index="13" Min="4.3703125000000000e+01" Max="6.3956250000000000e+02"/>
          <Range Index="14" Min="0.0000000000000000e+00" Max="5.8200000000000000e+02"/>
        </Ranges>
      </Class>
    </Transform>
    <Transform Name="Decorrelation">
      <Selection>
        <Input NInputs="15">
          <Input Type="Variable" Label="csv_jet0_mvaCHToCB" Expression="csv_jet0_mvaCHToCB"/>
          <Input Type="Variable" Label="csv_jet1_mvaCHToCB" Expression="csv_jet1_mvaCHToCB"/>
          <Input Type="Variable" Label="csv_jet2_mvaCHToCB" Expression="csv_jet2_mvaCHToCB"/>
          <Input Type="Variable" Label="avg_csv_had_top" Expression="(csv_jet0_mvaCHToCB+csv_jet1_mvaCHToCB+csv_jet2_mvaCHToCB)/3"/>
          <Input Type="Variable" Label="2nd_moment_csv_jet0_mvaCHToCB" Expression="(csv_jet0_mvaCHToCB-(csv_jet0_mvaCHToCB+csv_jet1_mvaCHToCB+csv_jet2_mvaCHToCB)/3)*(csv_jet0_mvaCHToCB-(csv_jet0_mvaCHToCB+csv_jet1_mvaCHToCB+csv_jet2_mvaCHToCB)/3)"/>
          <Input Type="Variable" Label="2nd_moment_csv_jet1_mvaCHToCB" Expression="(csv_jet1_mvaCHToCB-(csv_jet0_mvaCHToCB+csv_jet1_mvaCHToCB+csv_jet2_mvaCHToCB)/3)*(csv_jet1_mvaCHToCB-(csv_jet0_mvaCHToCB+csv_jet1_mvaCHToCB+csv_jet2_mvaCHToCB)/3)"/>
          <Input Type="Variable" Label="2nd_moment_csv_jet2_mvaCHToCB" Expression="(csv_jet2_mvaCHToCB-(csv_jet0_mvaCHToCB+csv_jet1_mvaCHToCB+csv_jet2_mvaCHToCB)/3)*(csv_jet2_mvaCHToCB-(csv_jet0_mvaCHToCB+csv_jet1_mvaCHToCB+csv_jet2_mvaCHToCB)/3)"/>
          <Input Type="Variable" Label="dijet_deltaR0_mvaCHToCB" Expression="dijet_deltaR0_mvaCHToCB"/>
          <Input Type="Variable" Label="dijet_deltaR1_mvaCHToCB" Expression="dijet_deltaR1_mvaCHToCB"/>
          <Input Type="Variable" Label="Hplus_b_deltaR0_mvaCHToCB" Expression="Hplus_b_deltaR0_mvaCHToCB"/>
          <Input Type="Variable" Label="Hplus_b_deltaR1_mvaCHToCB" Expression="Hplus_b_deltaR1_mvaCHToCB"/>
          <Input Type="Variable" Label="bb_deltaR_mvaCHToCB" Expression="bb_deltaR_mvaCHToCB"/>
          <Input Type="Variable" Label="min_deltaR_bb_event_mvaCHToCB" Expression="min_deltaR_bb_event_mvaCHToCB"/>
          <Input Type="Variable" Label="HT_btagged_M" Expression="HT_btagged_M"/>
          <Input Type="Variable" Label="HT_not_btagged_M" Expression="HT_not_btagged_M"/>
        </Input>
        <Output NOutputs="15">
          <Output Type="Variable" Label="csv_jet0_mvaCHToCB" Expression="csv_jet0_mvaCHToCB"/>
          <Output Type="Variable" Label="csv_jet1_mvaCHToCB" Expression="csv_jet1_mvaCHToCB"/>
          <Output Type="Variable" Label="csv_jet2_mvaCHToCB" Expression="csv_jet2_mvaCHToCB"/>
          <Output Type="Variable" Label="avg_csv_had_top" Expression="(csv_jet0_mvaCHToCB+csv_jet1_mvaCHToCB+csv_jet2_mvaCHToCB)/3"/>
          <Output Type="Variable" Label="2nd_moment_csv_jet0_mvaCHToCB" Expression="(csv_jet0_mvaCHToCB-(csv_jet0_mvaCHToCB+csv_jet1_mvaCHToCB+csv_jet2_mvaCHToCB)/3)*(csv_jet0_mvaCHToCB-(csv_jet0_mvaCHToCB+csv_jet1_mvaCHToCB+csv_jet2_mvaCHToCB)/3)"/>
          <Output Type="Variable" Label="2nd_moment_csv_jet1_mvaCHToCB" Expression="(csv_jet1_mvaCHToCB-(csv_jet0_mvaCHToCB+csv_jet1_mvaCHToCB+csv_jet2_mvaCHToCB)/3)*(csv_jet1_mvaCHToCB-(csv_jet0_mvaCHToCB+csv_jet1_mvaCHToCB+csv_jet2_mvaCHToCB)/3)"/>
          <Output Type="Variable" Label="2nd_moment_csv_jet2_mvaCHToCB" Expression="(csv_jet2_mvaCHToCB-(csv_jet0_mvaCHToCB+csv_jet1_mvaCHToCB+csv_jet2_mvaCHToCB)/3)*(csv_jet2_mvaCHToCB-(csv_jet0_mvaCHToCB+csv_jet1_mvaCHToCB+csv_jet2_mvaCHToCB)/3)"/>
          <Output Type="Variable" Label="dijet_deltaR0_mvaCHToCB" Expression="dijet_deltaR0_mvaCHToCB"/>
          <Output Type="Variable" Label="dijet_deltaR1_mvaCHToCB" Expression="dijet_deltaR1_mvaCHToCB"/>
          <Output Type="Variable" Label="Hplus_b_deltaR0_mvaCHToCB" Expression="Hplus_b_deltaR0_mvaCHToCB"/>
          <Output Type="Variable" Label="Hplus_b_deltaR1_mvaCHToCB" Expression="Hplus_b_deltaR1_mvaCHToCB"/>
          <Output Type="Variable" Label="bb_deltaR_mvaCHToCB" Expression="bb_deltaR_mvaCHToCB"/>
          <Output Type="Variable" Label="min_deltaR_bb_event_mvaCHToCB" Expression="min_deltaR_bb_event_mvaCHToCB"/>
          <Output Type="Variable" Label="HT_btagged_M" Expression="HT_btagged_M"/>
          <Output Type="Variable" Label="HT_not_btagged_M" Expression="HT_not_btagged_M"/>
        </Output>
      </Selection>
      <Matrix Rows="15" Columns="15">
        7.049956732524262e+04 7.076771618257352e+04 4.197571261468170e+05 -5.573306145116853e+05 -6.063795132168039e+00 -7.798505522998274e-01 4.311186883639515e+00 1.347176498990470e-02 -2.291246926226941e-02 3.383806421369542e-02 -1.150638460550369e-02 1.050167134462911e-02 -2.859654499036516e-02 1.378044572454924e-01 -1.568241625026264e-01 7.076771618257349e+04 7.104569540922796e+04 4.213862904046885e+05 -5.594925962637205e+05 4.755866779199311e+00 2.001806152885788e-01 -4.726794975501774e+00 -3.220947991330778e-03 7.596987659661330e-03 -2.188154764310904e-02 -7.836630179606494e-03 6.571020399970087e-03 -2.362049228794012e-02 -2.846501922292884e-03 -6.820329412834210e-02 4.197571261468169e+05 4.213862904046886e+05 2.499419880379922e+06 -3.318569537770999e+06 3.286774252698860e+00 5.707380650472456e-01 3.189099079661787e+00 5.523074956483503e-02 7.588811255912700e-02 -8.889012258108722e-02 5.756099749622910e-02 -1.052514024399336e-01 2.333916797799507e-01 -4.856322028107165e-01 9.242408041103111e-01 -5.573306145116851e+05 -5.594925962637203e+05 -3.318569537770999e+06 4.406207975634603e+06 2.711551212967047e+00 7.324594313894192e-01 1.697761570286140e+00 5.082831648201658e-02 3.271429382876814e-02 -2.649227014211815e-02 2.509369523376175e-02 -8.193971189065345e-02 1.788231296067032e-01 -3.064461635063960e-01 6.484738210460150e-01 -6.063795132243828e+00 4.755866779123220e+00 3.286774252247535e+00 2.711551213566276e+00 5.583403214670484e+01 1.951665618155410e+01 -5.687005400284796e+01 -4.797262635264008e-02 4.435878981845706e-02 -8.254271069403545e-02 8.350164846794345e-02 -7.259006261105633e-02 8.507611036146187e-02 -1.853585562656854e-01 4.483461431984633e-01 -7.798505524314493e-01 2.001806151564443e-01 5.707380642634881e-01 7.324594324300250e-01 1.951665618155410e+01 3.405247378915602e+01 -4.261118421076407e+01 4.596752519814172e-02 2.982838840495412e-02 -1.171196610512178e-02 -1.252765031931495e-02 2.842312839466035e-02 3.991757326527425e-02 1.915775633876007e-02 2.800152417696702e-01 4.311186883804179e+00 -4.726794975336466e+00 3.189099080642300e+00 1.697761568984285e+00 -5.687005400284794e+01 -4.261118421076408e+01 9.060180203297060e+01 -3.216507857128854e-03 -5.572768466309070e-03 -9.668654021210917e-03 -2.618012465293813e-02 -5.168873957669644e-02 1.029604466781309e-01 -3.737376902534080e-01 5.611374357398994e-01 1.347176499334658e-02 -3.220947987875507e-03 5.523074958532951e-02 5.082831645480515e-02 -4.797262635263988e-02 4.596752519814190e-02 -3.216507857129208e-03 3.200758307739847e+00 1.110782229569644e-01 -2.693210589701872e-02 -1.944628787144527e+00 6.069567086858942e-01 1.463962267064960e-01 1.055929081990171e+00 9.963845294144246e-01 -2.291246926404720e-02 7.596987657876582e-03 7.588811254854108e-02 3.271429384282341e-02 4.435878981845669e-02 2.982838840495387e-02 -5.572768466308636e-03 1.110782229569647e-01 3.252425092486989e+00 -1.476452307617649e+00 -2.221172244084784e-01 6.660890874502163e-01 6.468427438818222e-02 7.485729315062336e-01 8.593288975340972e-01 3.383806421433216e-02 -2.188154764246963e-02 -8.889012257729514e-02 -2.649227014715300e-02 -8.254271069403456e-02 -1.171196610512142e-02 -9.668654021211807e-03 -2.693210589701865e-02 -1.476452307617650e+00 6.786564400844251e+00 -7.788283417070271e-01 -2.303179570260967e+00 -1.024852428569660e-01 2.017549110636255e-01 -7.649561035043801e-03 -1.150638461273657e-02 -7.836630186867510e-03 5.756099745316150e-02 2.509369529094456e-02 8.350164846794288e-02 -1.252765031931538e-02 -2.618012465293714e-02 -1.944628787144527e+00 -2.221172244084783e-01 -7.788283417070266e-01 8.006420675777122e+00 -1.260481670267861e+00 -5.481731292449082e-02 1.292701262574416e-01 1.697973590730653e-01 1.050167135319436e-02 6.571020408568527e-03 -1.052514023889329e-01 -8.193971195836949e-02 -7.259006261105662e-02 2.842312839466015e-02 -5.168873957669620e-02 6.069567086858940e-01 6.660890874502164e-01 -2.303179570260967e+00 -1.260481670267861e+00 4.155089725623428e+00 -7.398344671911906e-01 8.924410141590871e-01 6.503118824047706e-01 -2.859654499233681e-02 -2.362049228991932e-02 2.333916797682110e-01 1.788231296222905e-01 8.507611036146269e-02 3.991757326527496e-02 1.029604466781296e-01 1.463962267064959e-01 6.468427438818226e-02 -1.024852428569663e-01 -5.481731292449062e-02 -7.398344671911905e-01 3.480423921601817e+00 5.439753787242770e-01 -2.831602989544415e-03 1.378044572476392e-01 -2.846501920137422e-03 -4.856322027979326e-01 -3.064461635233701e-01 -1.853585562656841e-01 1.915775633876082e-02 -3.737376902534100e-01 1.055929081990171e+00 7.485729315062331e-01 2.017549110636262e-01 1.292701262574419e-01 8.924410141590868e-01 5.439753787242768e-01 7.329310350652822e+00 2.318127744799335e+00 -1.568241625023459e-01 -6.820329412806050e-02 9.242408041119807e-01 6.484738210437975e-01 4.483461431984643e-01 2.800152417696717e-01 5.611374357398972e-01 9.963845294144245e-01 8.593288975340969e-01 -7.649561035043412e-03 1.697973590730656e-01 6.503118824047707e-01 -2.831602989544491e-03 2.318127744799335e+00 8.816761336541603e+00 
      </Matrix>
      <Matrix Rows="15" Columns="15">
        1.389846302896232e+05 1.395195949823653e+05 8.275502775684866e+05 -1.098775452873528e+06 -6.083799576060391e+00 -5.926412998730921e-01 3.543741557945571e+00 -1.527634714358734e-02 -1.241312454178938e-02 -5.134772594156326e-02 9.729300362884401e-03 -1.934079564567289e-02 -9.233445301666431e-03 5.028126755404660e-02 -1.062999942809327e-01 1.395195949823654e+05 1.400643807101349e+05 8.307619597964707e+05 -1.103037888666007e+06 4.770408449339629e+00 1.305126737104492e-01 -5.267697533437136e+00 -3.025803696025200e-02 -4.228981008662548e-02 -3.895468652173962e-02 -5.309139618757642e-02 5.398140323418211e-02 1.904960102675772e-02 3.020246582476954e-02 -1.987641410601391e-02 8.275502775684869e+05 8.307619597964701e+05 4.927595506903554e+06 -6.542550513983957e+06 5.359850646985269e+00 1.376908690629204e+00 4.508420353822880e+00 4.118505233858517e-02 3.325347582704438e-02 -6.935526124945134e-02 -6.074895872731182e-02 -2.119676382714549e-02 9.662806934273321e-02 -1.585118140063620e-01 3.632484351527475e-01 -1.098775452873529e+06 -1.103037888666007e+06 -6.542550513983957e+06 8.686823143592728e+06 2.847426889491740e+00 6.629303568593330e-01 4.430506987736033e+00 -6.480169941013607e-02 5.592197749781523e-02 5.205886522687114e-02 1.017890698001166e-01 -9.211650139805977e-02 9.401164396621477e-02 -9.824784868527993e-02 3.496755824841791e-01 -6.083799576016168e+00 4.770408449384021e+00 5.359850647248594e+00 2.847426889142125e+00 5.076975470438180e+01 1.788948569842050e+01 -5.081895125466539e+01 -7.441288173220610e-02 1.221654740245096e-02 9.193374814891582e-02 3.027176851420346e-02 -1.039841027089141e-01 2.374397537212788e-02 -1.053583901032570e-01 3.139235685788828e-01 -5.926412998989997e-01 1.305126736844391e-01 1.376908690474927e+00 6.629303570641658e-01 1.788948569842050e+01 3.318556594759862e+01 -3.886163947126175e+01 -6.602598007583838e-02 -2.102025879422045e-02 -3.441287270380822e-02 6.361198179167210e-02 -1.102278799601514e-02 2.758719983017230e-02 -3.232415775789548e-02 1.023605877668506e-01 3.543741557481039e+00 -5.267697533903471e+00 4.508420351056840e+00 4.430506991408593e+00 -5.081895125466540e+01 -3.886163947126177e+01 8.480202938783694e+01 2.606482701851827e-02 5.172697766385583e-02 -1.117332967022359e-01 -5.033197814206986e-02 5.399314023222355e-02 2.878420896324446e-02 -7.920752027755616e-02 3.738311721528709e-01 -1.527634714476858e-02 -3.025803696143777e-02 4.118505233155212e-02 -6.480169940079777e-02 -7.441288173220589e-02 -6.602598007583825e-02 2.606482701851808e-02 3.256458171123850e+00 6.649818586168510e-02 7.528006498044013e-02 -2.075791273808534e+00 5.436173965629869e-01 1.570708477276014e-01 1.090917577824057e+00 8.567689171001313e-01 -1.241312453158333e-02 -4.228981007637982e-02 3.325347588781535e-02 5.592197741712716e-02 1.221654740245098e-02 -2.102025879422031e-02 5.172697766385569e-02 6.649818586168504e-02 3.302205499906869e+00 -1.561186049178230e+00 -1.477866843743696e-01 5.832758876961265e-01 1.077545252110731e-01 6.556173086533851e-01 7.995377569745248e-01 -5.134772594937484e-02 -3.895468652958147e-02 -6.935526129596432e-02 5.205886528862872e-02 9.193374814891618e-02 -3.441287270380812e-02 -1.117332967022360e-01 7.528006498043968e-02 -1.561186049178231e+00 6.892056244221674e+00 -7.246818440426471e-01 -2.301965185797895e+00 -1.340715540541415e-01 1.476006146863938e-01 1.373236904111508e-01 9.729300371952260e-03 -5.309139617847338e-02 -6.074895867331834e-02 1.017890697284271e-01 3.027176851420367e-02 6.361198179167230e-02 -5.033197814207027e-02 -2.075791273808535e+00 -1.477866843743696e-01 -7.246818440426477e-01 8.304176410950314e+00 -1.250416367458920e+00 -1.129332054691326e-01 7.857465028422782e-02 3.957899818980942e-01 -1.934079564059598e-02 5.398140323927899e-02 -2.119676379691472e-02 -9.211650143819865e-02 -1.039841027089130e-01 -1.102278799601465e-02 5.399314023222206e-02 5.436173965629876e-01 5.832758876961266e-01 -2.301965185797894e+00 -1.250416367458920e+00 4.226544572688896e+00 -7.253994332309573e-01 9.687886072146061e-01 3.814975634100335e-01 -9.233445301737650e-03 1.904960102668615e-02 9.662806934230873e-02 9.401164396677822e-02 2.374397537212738e-02 2.758719983017197e-02 2.878420896324505e-02 1.570708477276013e-01 1.077545252110733e-01 -1.340715540541420e-01 -1.129332054691325e-01 -7.253994332309572e-01 3.311908082975604e+00 4.474904173502723e-01 1.101786965944422e-01 5.028126756049994e-02 3.020246583124807e-02 -1.585118139679360e-01 -9.824784873629996e-02 -1.053583901032559e-01 -3.232415775789478e-02 -7.920752027755788e-02 1.090917577824057e+00 6.556173086533851e-01 1.476006146863942e-01 7.857465028422755e-02 9.687886072146056e-01 4.474904173502726e-01 7.275869141654189e+00 2.060899420484836e+00 -1.062999942859903e-01 -1.987641411109119e-02 3.632484351226321e-01 3.496755825241646e-01 3.139235685788828e-01 1.023605877668508e-01 3.738311721528706e-01 8.567689171001315e-01 7.995377569745244e-01 1.373236904111514e-01 3.957899818980944e-01 3.814975634100333e-01 1.101786965944423e-01 2.060899420484838e+00 9.606334920243055e+00 
      </Matrix>
      <Matrix Rows="15" Columns="15">
        5.301498557486435e+04 5.321606747594679e+04 3.156504117309390e+05 -4.191042612787521e+05 -5.855388254655361e+00 -6.650731277551756e-01 3.913076988661141e+00 -1.263479627991267e-02 -1.894337700153681e-02 -1.259964103642704e-02 1.277431457465383e-03 -2.669398237779059e-03 -1.604612401773709e-02 9.880724934891957e-02 -1.576922701557233e-01 5.321606747594676e+04 5.342584232794894e+04 3.168756637347293e+05 -4.207299478649894e+05 4.562896399845682e+00 1.053110715095311e-01 -4.779007215713229e+00 -2.283895890359917e-02 -1.385104095424804e-02 -2.497645811201591e-02 -2.756326423687729e-02 3.764949310563391e-02 2.001559467509950e-02 2.321954372039966e-02 -4.135538153858086e-02 3.156504117309387e+05 3.168756637347295e+05 1.879527155889466e+06 -2.495511235880633e+06 3.653967303010588e+00 8.451009329159069e-01 3.536517635530323e+00 3.339552238535672e-02 6.859180743566456e-02 -6.055394218240400e-02 3.868507119445980e-02 -7.985235580443258e-02 2.113448667029888e-01 -3.321555688999343e-01 7.891100265208761e-01 -4.191042612787520e+05 -4.207299478649895e+05 -2.495511235880635e+06 3.313401153987953e+06 2.597762924842662e+00 6.827863888761649e-01 2.463565050698447e+00 7.294549825568968e-03 4.546491593406506e-02 -1.384092298376613e-02 4.471998590921743e-02 -7.101759111403518e-02 1.675209766836363e-01 -2.145904115988862e-01 5.752034118333412e-01 -5.855388254800453e+00 4.562896399700029e+00 3.653967302146697e+00 2.597762925989724e+00 5.108611961137215e+01 1.822533859584270e+01 -5.230351353502156e+01 -5.341864973436493e-02 3.981341841479558e-02 1.275348600623867e-02 7.423818955793557e-02 -1.076996893188569e-01 5.739375475439094e-02 -1.779640603541680e-01 4.608086301309596e-01 -6.650731277913826e-01 1.053110714731779e-01 8.451009327003195e-01 6.827863891624252e-01 1.822533859584268e+01 3.283765213120029e+01 -3.974295149734965e+01 -1.006451440013316e-02 5.257688374557744e-03 -1.436483478128187e-02 2.052244806250873e-02 9.266385267023496e-03 5.295392374704064e-02 -2.266126355601292e-03 1.951125256925281e-01 3.913076988628245e+00 -4.779007215746251e+00 3.536517635334413e+00 2.463565050958530e+00 -5.230351353502157e+01 -3.974295149734967e+01 8.492167450051734e+01 6.812230454509266e-03 2.473036817368681e-02 -7.571909066428406e-02 -2.906287879797408e-02 1.130241903292763e-02 9.267677624027007e-02 -2.164287967674999e-01 5.564668752769789e-01 -1.263479628171281e-02 -2.283895890540633e-02 3.339552237463782e-02 7.294549839800758e-03 -5.341864973436508e-02 -1.006451440013301e-02 6.812230454509155e-03 3.223751600465466e+00 8.829727855826569e-02 2.360874821031282e-02 -2.005566978587377e+00 5.756292459140184e-01 1.548070613225668e-01 1.073440745288038e+00 9.302367821366819e-01 -1.894337700101468e-02 -1.385104095372389e-02 6.859180743877355e-02 4.546491592993708e-02 3.981341841479528e-02 5.257688374557624e-03 2.473036817368712e-02 8.829727855826557e-02 3.274287953574823e+00 -1.517015675335871e+00 -1.850483116568252e-01 6.256577604489206e-01 8.586421467796843e-02 7.031747763629623e-01 8.255704109026134e-01 -1.259964103685202e-02 -2.497645811244237e-02 -6.055394218493402e-02 -1.384092298040695e-02 1.275348600623965e-02 -1.436483478128135e-02 -7.571909066428537e-02 2.360874821031284e-02 -1.517015675335871e+00 6.830666077251397e+00 -7.532569280460634e-01 -2.298653133860315e+00 -1.173659943677863e-01 1.748685858066512e-01 6.082063108315260e-02 1.277431458972619e-03 -2.756326423536427e-02 3.868507120343387e-02 4.471998589730196e-02 7.423818955793543e-02 2.052244806250839e-02 -2.906287879797393e-02 -2.005566978587378e+00 -1.850483116568251e-01 -7.532569280460641e-01 8.141862642626931e+00 -1.251184622372265e+00 -8.441228039814666e-02 1.098914542923297e-01 2.694809064282386e-01 -2.669398231610738e-03 3.764949311182587e-02 -7.985235576770475e-02 -7.101759116280025e-02 -1.076996893188586e-01 9.266385267022552e-03 1.130241903292989e-02 5.756292459140187e-01 6.256577604489204e-01 -2.298653133860315e+00 -1.251184622372266e+00 4.181037988140156e+00 -7.339923341912237e-01 9.222811724088056e-01 5.275322787276031e-01 -1.604612402025568e-02 2.001559467257115e-02 2.113448666879917e-01 1.675209767035481e-01 5.739375475439104e-02 5.295392374704080e-02 9.267677624026958e-02 1.548070613225670e-01 8.586421467796861e-02 -1.173659943677863e-01 -8.441228039814667e-02 -7.339923341912237e-01 3.381114189916959e+00 4.916809747966354e-01 4.503845070584163e-02 9.880724935428277e-02 2.321954372578371e-02 -3.321555688680000e-01 -2.145904116412871e-01 -1.779640603541678e-01 -2.266126355601167e-03 -2.164287967675007e-01 1.073440745288039e+00 7.031747763629624e-01 1.748685858066509e-01 1.098914542923291e-01 9.222811724088058e-01 4.916809747966350e-01 7.283849216738908e+00 2.206839860948701e+00 -1.576922701717430e-01 -4.135538155466310e-02 7.891100264254861e-01 5.752034119599937e-01 4.608086301309582e-01 1.951125256925278e-01 5.564668752769798e-01 9.302367821366819e-01 8.255704109026134e-01 6.082063108315267e-02 2.694809064282384e-01 5.275322787276031e-01 4.503845070584145e-02 2.206839860948701e+00 9.140512856451315e+00 
      </Matrix>
    </Transform>
  </Transformations>
  <MVAPdfs/>
  <Weights NTrees="400" AnalysisType="1">
    <BinaryTree type="DecisionTree" boostWeight="1.0000000000000000e+00" itree="0">
      <Node pos="s" depth="0" NCoef="0" IVar="1" Cut="2.4773913574218750e+03" cType="1" res="-6.4580170367183748e-14" rms="5.0000000000000000e-01" purity="5.0000000000000000e-01" nType="0">
        <Node pos="l" depth="1" NCoef="0" IVar="3" Cut="-1.9514236328125000e+04" cType="1" res="-1.0598953813314438e-01" rms="4.8863708972930908e-01" purity="3.9401042461395264e-01" nType="0">
          <Node pos="l" depth="2" NCoef="0" IVar="-1" Cut="0.0000000000000000e+00" cType="1" res="-3.3890011906623840e-01" rms="4.7041118144989014e-01" purity="3.3054989576339722e-01" nType="-99"/>
          <Node pos="r" depth="2" NCoef="0" IVar="-1" Cut="0.0000000000000000e+00" cType="1" res="3.2989034056663513e-01" rms="4.7200962901115417e-01" purity="6.6494512557983398e-01" nType="-99"/>
        </Node>
        <Node pos="r" depth="1" NCoef="0" IVar="2" Cut="1.4691808593750000e+04" cType="1" res="2.3028068244457245e-01" rms="4.4381392002105713e-01" purity="7.3028069734573364e-01" nType="0">
          <Node pos="l" depth="2" NCoef="0" IVar="-1" Cut="0.0000000000000000e+00" cType="1" res="3.1797978281974792e-01" rms="4.7404873371124268e-01" purity="6.5898990631103516e-01" nType="-99"/>
          <Node pos="r" depth="2" NCoef="0" IVar="-1" Cut="0.0000000000000000e+00" cType="1" res="7.2272300720214844e-01" rms="3.4556889533996582e-01" purity="8.6136150360107422e-01" nType="-99"/>
        </Node>
      </Node>
    </BinaryTree>
    <BinaryTree type="DecisionTree" boostWeight="1.0000000000000000e+00" itree="1">
      <Node pos="s" depth="0" NCoef="0" IVar="1" Cut="2.4763259277343750e+03" cType="1" res="4.1362470947206020e-03" rms="4.5955172181129456e-01" purity="5.0000000000000000e-01" nType="0">
        <Node pos="l" depth="1" NCoef="0" IVar="2" Cut="1.4692026367187500e+04" cType="1" res="-5.5099103599786758e-02" rms="4.5528948307037354e-01" purity="3.4266924858093262e-01" nType="0">
          <Node pos="l" depth="2" NCoef="0" IVar="-1" Cut="0.0000000000000000e+00" cType="1" res="-1.9525049626827240e-01" rms="4.3653064966201782e-01" purity="2.5833258032798767e-01" nType="-99"/>
          <Node pos="r" depth="2" NCoef="0" IVar="-1" Cut="0.0000000000000000e+00" cType="1" res="4.5472219586372375e-02" rms="4.8832631111145020e-01" purity="5.4077059030532837e-01" nType="-99"/>
        </Node>
        <Node pos="r" depth="1" NCoef="0" IVar="0" Cut="2.4717775878906250e+03" cType="1" res="4.2488373816013336e-02" rms="4.5822450518608093e-01" purity="6.0186433792114258e-01" nType="0">
          <Node pos="l" depth="2" NCoef="0" IVar="-1" Cut="0.0000000000000000e+00" cType="1" res="-6.5709143877029419e-02" rms="4.6190088987350464e-01" purity="4.6863108873367310e-01" nType="-99"/>
          <Node pos="r" depth="2" NCoef="0" IVar="-1" Cut="0.0000000000000000e+00" cType="1" res="1.5326045453548431e-01" rms="4.5476981997489929e-01" purity="6.4424532651901245e-01" nType="-99"/>
        </Node>
      </Node>
    </BinaryTree>
    <BinaryTree type="DecisionTree" boostWeight="1.0000000000000000e+00" itree="2">
      <Node pos="s" depth="0" NCoef="0" IVar="12" Cut="-1.2689032554626465e+00" cType="1" res="-9.0184621512889862e-04" rms="4.5486769080162048e-01" purity="5.0000000000000000e-01" nType="0">
        <Node pos="l" depth="1" NCoef="0" IVar="2" Cut="1.4691673828125000e+04" cType="1" res="3.0537316575646400e-02" rms="4.5531859993934631e-01" purity="5.3565526008605957e-01" nType="0">
          <Node pos="l" depth="2" NCoef="0" IVar="-1" Cut="0.0000000000000000e+00" cType="1" res="-4.2647449299693108e-03" rms="4.6712991595268250e-01" purity="4.5223861932754517e-01" nType="-99"/>
          <Node pos="r" depth="2" NCoef="0" IVar="-1" Cut="0.0000000000000000e+00" cType="1" res="1.7285631597042084e-01" rms="4.3876579403877258e-01" purity="6.2976163625717163e-01" nType="-99"/>
        </Node>
        <Node pos="r" depth="1" NCoef="0" IVar="3" Cut="-1.9514710937500000e+04" cType="1" res="-4.5218311250209808e-02" rms="4.5052069425582886e-01" purity="4.4974064826965332e-01" nType="0">
          <Node pos="l" depth="2" NCoef="0" IVar="-1" Cut="0.0000000000000000e+00" cType="1" res="-1.9018641114234924e-01" rms="4.4316846132278442e-01" purity="3.2822757959365845e-01" nType="-99"/>
          <Node pos="r" depth="2" NCoef="0" IVar="-1" Cut="0.0000000000000000e+00" cType="1" res="-4.8317957669496536e-02" rms="4.5443814992904663e-01" purity="5.4386490583419800e-01" nType="-99"/>
        </Node>
      </Node>
    </BinaryTree>
    <BinaryTree type="DecisionTree" boostWeight="1.0000000000000000e+00" itree="3">
      <Node pos="s" depth="0" NCoef="0" IVar="14" Cut="-9.7435750961303711e+00" cType="1" res="-2.5130237918347120e-04" rms="4.5201569795608521e-01" purity="5.0000000000000000e-01" nType="0">
        <Node pos="l" depth="1" NCoef="0" IVar="6" Cut="1.1579916000366211e+01" cType="1" res="1.7175281420350075e-02" rms="4.4850727915763855e-01" purity="5.0654363632202148e-01" nType="0">
          <Node pos="l" depth="2" NCoef="0" IVar="-1" Cut="0.0000000000000000e+00" cType="1" res="1.0800253599882126e-02" rms="4.4189956784248352e-01" purity="4.8274117708206177e-01" nType="-99"/>
          <Node pos="r" depth="2" NCoef="0" IVar="-1" Cut="0.0000000000000000e+00" cType="1" res="1.4651677012443542e-01" rms="4.6768766641616821e-01" purity="5.8800017833709717e-01" nType="-99"/>
        </Node>
        <Node pos="r" depth="1" NCoef="0" IVar="1" Cut="2.4758728027343750e+03" cType="1" res="-4.5085523277521133e-02" rms="4.5788109302520752e-01" purity="4.8316472768783569e-01" nType="0">
          <Node pos="l" depth="2" NCoef="0" IVar="-1" Cut="0.0000000000000000e+00" cType="1" res="-2.0670999586582184e-01" rms="4.4404274225234985e-01" purity="3.2404580712318420e-01" nType="-99"/>
          <Node pos="r" depth="2" NCoef="0" IVar="-1" Cut="0.0000000000000000e+00" cType="1" res="-8.1391640007495880e-02" rms="4.6160742640495300e-01" purity="5.3587383031845093e-01" nType="-99"/>
        </Node>
      </Node>
    </BinaryTree>
    <BinaryTree type="DecisionTree" boostWeight="1.0000000000000000e+00" itree="4">
      <Node pos="s" depth="0" NCoef="0" IVar="3" Cut="-1.9514808593750000e+04" cType="1" res="-1.4618641580455005e-04" rms="4.5036476850509644e-01" purity="5.0000000000000000e-01" nType="0">
        <Node pos="l" depth="1" NCoef="0" IVar="7" Cut="-1.9580125808715820e+00" cType="1" res="-2.1719584241509438e-02" rms="4.5230376720428467e-01" purity="3.6153310537338257e-01" nType="0">
          <Node pos="l" depth="2" NCoef="0" IVar="-1" Cut="0.0000000000000000e+00" cType="1" res="-1.6213637590408325e-01" rms="4.3056735396385193e-01" purity="3.0964681506156921e-01" nType="-99"/>
          <Node pos="r" depth="2" NCoef="0" IVar="-1" Cut="0.0000000000000000e+00" cType="1" res="1.9631473347544670e-02" rms="4.6416965126991272e-01" purity="3.9681917428970337e-01" nType="-99"/>
        </Node>
        <Node pos="r" depth="1" NCoef="0" IVar="12" Cut="-3.4663981199264526e-01" cType="1" res="1.2536440044641495e-02" rms="4.4873711466789246e-01" purity="5.8140230178833008e-01" nType="0">
          <Node pos="l" depth="2" NCoef="0" IVar="-1" Cut="0.0000000000000000e+00" cType="1" res="6.0238327831029892e-02" rms="4.4646063446998596e-01" purity="6.0209918022155762e-01" nType="-99"/>
          <Node pos="r" depth="2" NCoef="0" IVar="-1" Cut="0.0000000000000000e+00" cType="1" res="-1.1170392483472824e-01" rms="4.5675572752952576e-01" purity="4.6859952807426453e-01" nType="-99"/>
        </Node>
      </Node>
    </BinaryTree>
    <BinaryTree type="DecisionTree" boostWeight="1.0000000000000000e+00" itree="5">
      <Node pos="s" depth="0" NCoef="0" IVar="1" Cut="2.4782592773437500e+03" cType="1" res="-3.0948818312026560e-04" rms="4.4895440340042114e-01" purity="5.0000000000000000e-01" nType="0">
        <Node pos="l" depth="1" NCoef="0" IVar="1" Cut="2.4773964843750000e+03" cType="1" res="-4.6945493668317795e-03" rms="4.5236045122146606e-01" purity="4.7887891530990601e-01" nType="0">
          <Node pos="l" depth="2" NCoef="0" IVar="-1" Cut="0.0000000000000000e+00" cType="1" res="1.8380226567387581e-02" rms="4.5847812294960022e-01" purity="3.9439260959625244e-01" nType="-99"/>
          <Node pos="r" depth="2" NCoef="0" IVar="-1" Cut="0.0000000000000000e+00" cType="1" res="-1.0728475451469421e-01" rms="4.3330016732215881e-01" purity="7.1216362714767456e-01" nType="-99"/>
        </Node>
        <Node pos="r" depth="1" NCoef="0" IVar="-1" Cut="0.0000000000000000e+00" cType="1" res="1.6748377680778503e-01" rms="3.9218500256538391e-01" purity="7.9996567964553833e-01" nType="-99"/>
      </Node>
    </BinaryTree>
    <BinaryTree type="DecisionTree" boostWeight="1.0000000000000000e+00" itree="6">
      <Node pos="s" depth="0" NCoef="0" IVar="1" Cut="2.4756948242187500e+03" cType="1" res="7.1600324008613825e-04" rms="4.4808715581893921e-01" purity="5.0000000000000000e-01" nType="0">
        <Node pos="l" depth="1" NCoef="0" IVar="3" Cut="-1.9514378906250000e+04" cType="1" res="-3.3971797674894333e-02" rms="4.4338494539260864e-01" purity="3.3646899461746216e-01" nType="0">
          <Node pos="l" depth="2" NCoef="0" IVar="-1" Cut="0.0000000000000000e+00" cType="1" res="-5.1041960716247559e-02" rms="4.2327970266342163e-01" purity="2.4593126773834229e-01" nType="-99"/>
          <Node pos="r" depth="2" NCoef="0" IVar="-1" Cut="0.0000000000000000e+00" cType="1" res="-1.6775186359882355e-01" rms="4.8463055491447449e-01" purity="5.4387736320495605e-01" nType="-99"/>
        </Node>
        <Node pos="r" depth="1" NCoef="0" IVar="6" Cut="9.9774999618530273e+00" cType="1" res="8.4362383931875229e-03" rms="4.4876235723495483e-01" purity="5.3639602661132812e-01" nType="0">
          <Node pos="l" depth="2" NCoef="0" IVar="-1" Cut="0.0000000000000000e+00" cType="1" res="-1.6915565729141235e-01" rms="4.4561448693275452e-01" purity="4.8976984620094299e-01" nType="-99"/>
          <Node pos="r" depth="2" NCoef="0" IVar="-1" Cut="0.0000000000000000e+00" cType="1" res="3.4765411168336868e-02" rms="4.4851967692375183e-01" purity="5.3964495658874512e-01" nType="-99"/>
        </Node>
      </Node>
    </BinaryTree>
    <BinaryTree type="DecisionTree" boostWeight="1.0000000000000000e+00" itree="7">
      <Node pos="s" depth="0" NCoef="0" IVar="1" Cut="2.4780620117187500e+03" cType="1" res="1.0772590030683205e-04" rms="4.4726178050041199e-01" purity="5.0000000000000000e-01" nType="0">
        <Node pos="l" depth="1" NCoef="0" IVar="2" Cut="1.4691518554687500e+04" cType="1" res="-5.8592408895492554e-03" rms="4.5527580380439758e-01" purity="4.5083245635032654e-01" nType="0">
          <Node pos="l" depth="2" NCoef="0" IVar="-1" Cut="0.0000000000000000e+00" cType="1" res="-6.5126456320285797e-02" rms="4.6357613801956177e-01" purity="3.8492834568023682e-01" nType="-99"/>
          <Node pos="r" depth="2" NCoef="0" IVar="-1" Cut="0.0000000000000000e+00" cType="1" res="1.4401846565306187e-02" rms="4.5051732659339905e-01" purity="4.8481309413909912e-01" nType="-99"/>
        </Node>
        <Node pos="r" depth="1" NCoef="0" IVar="5" Cut="-1.0445501327514648e+01" cType="1" res="3.5214073956012726e-02" rms="3.9502719044685364e-01" purity="7.8927463293075562e-01" nType="0">
          <Node pos="l" depth="2" NCoef="0" IVar="-1" Cut="0.0000000000000000e+00" cType="1" res="2.5924962759017944e-01" rms="3.2900545001029968e-01" purity="8.7491941452026367e-01" nType="-99"/>
          <Node pos="r" depth="2" NCoef="0" IVar="-1" Cut="0.0000000000000000e+00" cType="1" res="2.2544994950294495e-02" rms="4.2857214808464050e-01" purity="7.3642873764038086e-01" nType="-99"/>
        </Node>
      </Node>
    </BinaryTree>
    <BinaryTree type="DecisionTree" boostWeight="1.0000000000000000e+00" itree="8">
      <Node pos="s" depth="0" NCoef="0" IVar="3" Cut="-1.9514246093750000e+04" cType="1" res="5.0058215856552124e-04" rms="4.4646275043487549e-01" purity="5.0000000000000000e-01" nType="0">
        <Node pos="l" depth="1" NCoef="0" IVar="3" Cut="-1.9514435546875000e+04" cType="1" res="7.9768840223550797e-03" rms="4.5448908209800720e-01" purity="4.2991918325424194e-01" nType="0">
          <Node pos="l" depth="2" NCoef="0" IVar="-1" Cut="0.0000000000000000e+00" cType="1" res="-1.2747524306178093e-03" rms="4.5437130331993103e-01" purity="4.1001942753791809e-01" nType="-99"/>
          <Node pos="r" depth="2" NCoef="0" IVar="-1" Cut="0.0000000000000000e+00" cType="1" res="1.8476575613021851e-01" rms="4.5017752051353455e-01" purity="5.8126229047775269e-01" nType="-99"/>
        </Node>
        <Node pos="r" depth="1" NCoef="0" IVar="1" Cut="2.4772673339843750e+03" cType="1" res="-2.6028096675872803e-02" rms="4.1565296053886414e-01" purity="7.4867254495620728e-01" nType="0">
          <Node pos="l" depth="2" NCoef="0" IVar="-1" Cut="0.0000000000000000e+00" cType="1" res="-1.8539914488792419e-01" rms="4.6819168329238892e-01" purity="6.4915722608566284e-01" nType="-99"/>
          <Node pos="r" depth="2" NCoef="0" IVar="-1" Cut="0.0000000000000000e+00" cType="1" res="1.2911954522132874e-01" rms="3.2550537586212158e-01" purity="8.7932169437408447e-01" nType="-99"/>
        </Node>
      </Node>
    </BinaryTree>
    <BinaryTree type="DecisionTree" boostWeight="1.0000000000000000e+00" itree="9">
      <Node pos="s" depth="0" NCoef="0" IVar="5" Cut="-9.9925136566162109e+00" cType="1" res="8.4227829938754439e-04" rms="4.4505280256271362e-01" purity="5.0000000000000000e-01" nType="0">
        <Node pos="l" depth="1" NCoef="0" IVar="1" Cut="2.4773818359375000e+03" cType="1" res="-4.2956322431564331e-03" rms="4.4262778759002686e-01" purity="4.9722787737846375e-01" nType="0">
          <Node pos="l" depth="2" NCoef="0" IVar="-1" Cut="0.0000000000000000e+00" cType="1" res="1.2849548831582069e-02" rms="4.5272725820541382e-01" purity="3.7931659817695618e-01" nType="-99"/>
          <Node pos="r" depth="2" NCoef="0" IVar="-1" Cut="0.0000000000000000e+00" cType="1" res="-6.8658553063869476e-02" rms="4.2137134075164795e-01" purity="7.2984421253204346e-01" nType="-99"/>
        </Node>
        <Node pos="r" depth="1" NCoef="0" IVar="-1" Cut="0.0000000000000000e+00" cType="1" res="1.8700362741947174e-01" rms="4.7494769096374512e-01" purity="5.4487830400466919e-01" nType="-99"/>
      </Node>
    </BinaryTree>
    <BinaryTree type="DecisionTree" boostWeight="1.0000000000000000e+00" itree="10">
      <Node pos="s" depth="0" NCoef="0" IVar="11" Cut="-1.1431398391723633e+00" cType="1" res="1.7402930825483054e-04" rms="4.4436445832252502e-01" purity="5.0000000000000000e-01" nType="0">
        <Node pos="l" depth="1" NCoef="0" IVar="8" Cut="-1.0018578767776489e+00" cType="1" res="1.9241699948906898e-02" rms="4.4595399498939514e-01" purity="5.5008220672607422e-01" nType="0">
          <Node pos="l" depth="2" NCoef="0" IVar="-1" Cut="0.0000000000000000e+00" cType="1" res="2.3109583184123039e-02" rms="4.4109782576560974e-01" purity="5.3170663118362427e-01" nType="-99"/>
          <Node pos="r" depth="2" NCoef="0" IVar="-1" Cut="0.0000000000000000e+00" cType="1" res="1.2454603612422943e-01" rms="4.5869833230972290e-01" purity="6.0446339845657349e-01" nType="-99"/>
        </Node>
        <Node pos="r" depth="1" NCoef="0" IVar="7" Cut="-2.6964337825775146e+00" cType="1" res="-8.6116846650838852e-03" rms="4.4335421919822693e-01" purity="4.7692391276359558e-01" nType="0">
          <Node pos="l" depth="2" NCoef="0" IVar="-1" Cut="0.0000000000000000e+00" cType="1" res="9.9550060927867889e-02" rms="4.4971969723701477e-01" purity="5.1871168613433838e-01" nType="-99"/>
          <Node pos="r" depth="2" NCoef="0" IVar="-1" Cut="0.0000000000000000e+00" cType="1" res="-3.2906483858823776e-02" rms="4.4251644611358643e-01" purity="4.7305455803871155e-01" nType="-99"/>
        </Node>
      </Node>
    </BinaryTree>
    <BinaryTree type="DecisionTree" boostWeight="1.0000000000000000e+00" itree="11">
      <Node pos="s" depth="0" NCoef="0" IVar="0" Cut="2.4704233398437500e+03" cType="1" res="1.3093823326926213e-05" rms="4.4380277395248413e-01" purity="5.0000000000000000e-01" nType="0">
        <Node pos="l" depth="1" NCoef="0" IVar="-1" Cut="0.0000000000000000e+00" cType="1" res="-8.6263209581375122e-02" rms="4.3328616023063660e-01" purity="2.9572507739067078e-01" nType="-99"/>
        <Node pos="r" depth="1" NCoef="0" IVar="1" Cut="2.4753791503906250e+03" cType="1" res="3.4772066865116358e-03" rms="4.4473385810852051e-01" purity="5.2115309238433838e-01" nType="0">
          <Node pos="l" depth="2" NCoef="0" IVar="-1" Cut="0.0000000000000000e+00" cType="1" res="-8.2835644483566284e-02" rms="4.4752636551856995e-01" purity="3.7284359335899353e-01" nType="-99"/>
          <Node pos="r" depth="2" NCoef="0" IVar="-1" Cut="0.0000000000000000e+00" cType="1" res="1.7969766631722450e-02" rms="4.4431096315383911e-01" purity="5.3503161668777466e-01" nType="-99"/>
        </Node>
      </Node>
    </BinaryTree>
    <BinaryTree type="DecisionTree" boostWeight="1.0000000000000000e+00" itree="12">
      <Node pos="s" depth="0" NCoef="0" IVar="5" Cut="-1.1728005409240723e+01" cType="1" res="-1.1785973038058728e-04" rms="4.4350263476371765e-01" purity="5.0000000000000000e-01" nType="0">
        <Node pos="l" depth="1" NCoef="0" IVar="-1" Cut="0.0000000000000000e+00" cType="1" res="-8.1371352076530457e-02" rms="4.7677797079086304e-01" purity="3.9174714684486389e-01" nType="-99"/>
        <Node pos="r" depth="1" NCoef="0" IVar="8" Cut="-2.9654049873352051e+00" cType="1" res="2.6637990958988667e-03" rms="4.4085666537284851e-01" purity="5.0786834955215454e-01" nType="0">
          <Node pos="l" depth="2" NCoef="0" IVar="-1" Cut="0.0000000000000000e+00" cType="1" res="1.1521713435649872e-01" rms="4.5826691389083862e-01" purity="5.3687804937362671e-01" nType="-99"/>
          <Node pos="r" depth="2" NCoef="0" IVar="-1" Cut="0.0000000000000000e+00" cType="1" res="-5.7869782904163003e-04" rms="4.3948161602020264e-01" purity="5.0586342811584473e-01" nType="-99"/>
        </Node>
      </Node>
    </BinaryTree>
    <BinaryTree type="DecisionTree" boostWeight="1.0000000000000000e+00" itree="13">
      <Node pos="s" depth="0" NCoef="0" IVar="3" Cut="-1.9513472656250000e+04" cType="1" res="-3.7815720133949071e-05" rms="4.4324937462806702e-01" purity="5.0000000000000000e-01" nType="0">
        <Node pos="l" depth="1" NCoef="0" IVar="2" Cut="1.4691289062500000e+04" cType="1" res="-2.4076553527265787e-03" rms="4.4819477200508118e-01" purity="4.7561195492744446e-01" nType="0">
          <Node pos="l" depth="2" NCoef="0" IVar="-1" Cut="0.0000000000000000e+00" cType="1" res="-5.6866813451051712e-02" rms="4.6734544634819031e-01" purity="4.7209998965263367e-01" nType="-99"/>
          <Node pos="r" depth="2" NCoef="0" IVar="-1" Cut="0.0000000000000000e+00" cType="1" res="5.0150328315794468e-03" rms="4.4421690702438354e-01" purity="4.7629997134208679e-01" nType="-99"/>
        </Node>
        <Node pos="r" depth="1" NCoef="0" IVar="-1" Cut="0.0000000000000000e+00" cType="1" res="1.0956179350614548e-01" rms="3.6819157004356384e-01" purity="8.3078807592391968e-01" nType="-99"/>
      </Node>
    </BinaryTree>
    <BinaryTree type="DecisionTree" boostWeight="1.0000000000000000e+00" itree="14">
      <Node pos="s" depth="0" NCoef="0" IVar="14" Cut="-1.0250710487365723e+01" cType="1" res="1.1815674224635586e-04" rms="4.4301238656044006e-01" purity="5.0000000000000000e-01" nType="0">
        <Node pos="l" depth="1" NCoef="0" IVar="5" Cut="-1.0349743843078613e+01" cType="1" res="9.9417259916663170e-03" rms="4.3690833449363708e-01" purity="5.1255255937576294e-01" nType="0">
          <Node pos="l" depth="2" NCoef="0" IVar="-1" Cut="0.0000000000000000e+00" cType="1" res="7.7847195789217949e-03" rms="4.3571323156356812e-01" purity="4.9230617284774780e-01" nType="-99"/>
          <Node pos="r" depth="2" NCoef="0" IVar="-1" Cut="0.0000000000000000e+00" cType="1" res="1.1401464790105820e-01" rms="4.4121199846267700e-01" purity="6.1596983671188354e-01" nType="-99"/>
        </Node>
        <Node pos="r" depth="1" NCoef="0" IVar="1" Cut="2.4773955078125000e+03" cType="1" res="-8.2454318180680275e-03" rms="4.4797402620315552e-01" purity="4.8931300640106201e-01" nType="0">
          <Node pos="l" depth="2" NCoef="0" IVar="-1" Cut="0.0000000000000000e+00" cType="1" res="3.2215660903602839e-03" rms="4.5558163523674011e-01" purity="3.8485869765281677e-01" nType="-99"/>
          <Node pos="r" depth="2" NCoef="0" IVar="-1" Cut="0.0000000000000000e+00" cType="1" res="-8.0464839935302734e-02" rms="4.3110343813896179e-01" purity="7.0582777261734009e-01" nType="-99"/>
        </Node>
      </Node>
    </BinaryTree>
    <BinaryTree type="DecisionTree" boostWeight="1.0000000000000000e+00" itree="15">
      <Node pos="s" depth="0" NCoef="0" IVar="1" Cut="2.4767600097656250e+03" cType="1" res="1.9938182958867401e-04" rms="4.4268080592155457e-01" purity="5.0000000000000000e-01" nType="0">
        <Node pos="l" depth="1" NCoef="0" IVar="7" Cut="-1.6600160598754883e+00" cType="1" res="-1.0269843041896820e-02" rms="4.4594311714172363e-01" purity="3.5929223895072937e-01" nType="0">
          <Node pos="l" depth="2" NCoef="0" IVar="-1" Cut="0.0000000000000000e+00" cType="1" res="-6.8015828728675842e-02" rms="4.3229398131370544e-01" purity="3.3129209280014038e-01" nType="-99"/>
          <Node pos="r" depth="2" NCoef="0" IVar="-1" Cut="0.0000000000000000e+00" cType="1" res="1.8135083839297295e-02" rms="4.5998993515968323e-01" purity="3.9039808511734009e-01" nType="-99"/>
        </Node>
        <Node pos="r" depth="1" NCoef="0" IVar="11" Cut="-1.6183913946151733e+00" cType="1" res="1.1563230305910110e-02" rms="4.3882969021797180e-01" purity="6.5273159742355347e-01" nType="0">
          <Node pos="l" depth="2" NCoef="0" IVar="-1" Cut="0.0000000000000000e+00" cType="1" res="-8.1506900489330292e-02" rms="4.5181649923324585e-01" purity="6.7750424146652222e-01" nType="-99"/>
          <Node pos="r" depth="2" NCoef="0" IVar="-1" Cut="0.0000000000000000e+00" cType="1" res="4.3864950537681580e-02" rms="4.3689244985580444e-01" purity="6.4959597587585449e-01" nType="-99"/>
        </Node>
      </Node>
    </BinaryTree>
    <BinaryTree type="DecisionTree" boostWeight="1.0000000000000000e+00" itree="16">
      <Node pos="s" depth="0" NCoef="0" IVar="11" Cut="-1.3884197473526001e+00" cType="1" res="-3.9375841879518703e-05" rms="4.4226452708244324e-01" purity="5.0000000000000000e-01" nType="0">
        <Node pos="l" depth="1" NCoef="0" IVar="13" Cut="-7.3975143432617188e+00" cType="1" res="1.9837463274598122e-02" rms="4.5368805527687073e-01" purity="5.7580220699310303e-01" nType="0">
          <Node pos="l" depth="2" NCoef="0" IVar="-1" Cut="0.0000000000000000e+00" cType="1" res="-8.6008543148636818e-03" rms="4.6286681294441223e-01" purity="5.6828230619430542e-01" nType="-99"/>
          <Node pos="r" depth="2" NCoef="0" IVar="-1" Cut="0.0000000000000000e+00" cType="1" res="1.5279255807399750e-01" rms="4.3557825684547424e-01" purity="5.8811569213867188e-01" nType="-99"/>
        </Node>
        <Node pos="r" depth="1" NCoef="0" IVar="13" Cut="-7.3964481353759766e+00" cType="1" res="-4.5941737480461597e-03" rms="4.3947842717170715e-01" purity="4.8262986540794373e-01" nType="0">
          <Node pos="l" depth="2" NCoef="0" IVar="-1" Cut="0.0000000000000000e+00" cType="1" res="1.9104445353150368e-02" rms="4.4563272595405579e-01" purity="4.9740159511566162e-01" nType="-99"/>
          <Node pos="r" depth="2" NCoef="0" IVar="-1" Cut="0.0000000000000000e+00" cType="1" res="-4.0784854441881180e-02" rms="4.3365350365638733e-01" purity="4.6949273347854614e-01" nType="-99"/>
        </Node>
      </Node>
    </BinaryTree>
    <BinaryTree type="DecisionTree" boostWeight="1.0000000000000000e+00" itree="17">
      <Node pos="s" depth="0" NCoef="0" IVar="9" Cut="-2.6108005046844482e+00" cType="1" res="-1.9760186660278123e-06" rms="4.4186565279960632e-01" purity="5.0000000000000000e-01" nType="0">
        <Node pos="l" depth="1" NCoef="0" IVar="-1" Cut="0.0000000000000000e+00" cType="1" res="-8.1350833177566528e-02" rms="4.4989734888076782e-01" purity="4.9338275194168091e-01" nType="-99"/>
        <Node pos="r" depth="1" NCoef="0" IVar="7" Cut="-3.1173044443130493e-01" cType="1" res="2.0951204933226109e-03" rms="4.4125437736511230e-01" purity="5.0043249130249023e-01" nType="0">
          <Node pos="l" depth="2" NCoef="0" IVar="-1" Cut="0.0000000000000000e+00" cType="1" res="-2.9234294779598713e-03" rms="4.3737784028053284e-01" purity="4.9490541219711304e-01" nType="-99"/>
          <Node pos="r" depth="2" NCoef="0" IVar="-1" Cut="0.0000000000000000e+00" cType="1" res="5.9410233050584793e-02" rms="4.6565726399421692e-01" purity="5.3719031810760498e-01" nType="-99"/>
        </Node>
      </Node>
    </BinaryTree>
    <BinaryTree type="DecisionTree" boostWeight="1.0000000000000000e+00" itree="18">
      <Node pos="s" depth="0" NCoef="0" IVar="10" Cut="-2.4373803138732910e+00" cType="1" res="-3.0710921237186994e-06" rms="4.4172427058219910e-01" purity="5.0000000000000000e-01" nType="0">
        <Node pos="l" depth="1" NCoef="0" IVar="10" Cut="-3.5628685951232910e+00" cType="1" res="-2.5992002338171005e-03" rms="4.4079744815826416e-01" purity="4.9746549129486084e-01" nType="0">
          <Node pos="l" depth="2" NCoef="0" IVar="-1" Cut="0.0000000000000000e+00" cType="1" res="1.4240152202546597e-02" rms="4.3816399574279785e-01" purity="5.0594949722290039e-01" nType="-99"/>
          <Node pos="r" depth="2" NCoef="0" IVar="-1" Cut="0.0000000000000000e+00" cType="1" res="-3.7420585751533508e-02" rms="4.4439205527305603e-01" purity="4.8495340347290039e-01" nType="-99"/>
        </Node>
        <Node pos="r" depth="1" NCoef="0" IVar="-1" Cut="0.0000000000000000e+00" cType="1" res="6.5968170762062073e-02" rms="4.4995364546775818e-01" purity="5.2497100830078125e-01" nType="-99"/>
      </Node>
    </BinaryTree>
    <BinaryTree type="DecisionTree" boostWeight="1.0000000000000000e+00" itree="19">
      <Node pos="s" depth="0" NCoef="0" IVar="0" Cut="2.4727644042968750e+03" cType="1" res="-1.2372292985673994e-05" rms="4.4153946638107300e-01" purity="5.0000000000000000e-01" nType="0">
        <Node pos="l" depth="1" NCoef="0" IVar="8" Cut="-2.1852636337280273e+00" cType="1" res="-3.3918279223144054e-03" rms="4.4020268321037292e-01" purity="5.2618020772933960e-01" nType="0">
          <Node pos="l" depth="2" NCoef="0" IVar="-1" Cut="0.0000000000000000e+00" cType="1" res="3.5759862512350082e-02" rms="4.3867525458335876e-01" purity="5.4026144742965698e-01" nType="-99"/>
          <Node pos="r" depth="2" NCoef="0" IVar="-1" Cut="0.0000000000000000e+00" cType="1" res="-2.7193784713745117e-02" rms="4.4064044952392578e-01" purity="5.2042138576507568e-01" nType="-99"/>
        </Node>
        <Node pos="r" depth="1" NCoef="0" IVar="6" Cut="1.0398938179016113e+01" cType="1" res="1.7649410292506218e-02" rms="4.4804647564888000e-01" purity="3.6317622661590576e-01" nType="0">
          <Node pos="l" depth="2" NCoef="0" IVar="-1" Cut="0.0000000000000000e+00" cType="1" res="-3.9353694766759872e-02" rms="4.3404328823089600e-01" purity="2.9840111732482910e-01" nType="-99"/>
          <Node pos="r" depth="2" NCoef="0" IVar="-1" Cut="0.0000000000000000e+00" cType="1" res="1.3689538836479187e-01" rms="4.6098348498344421e-01" purity="4.3914991617202759e-01" nType="-99"/>
        </Node>
      </Node>
    </BinaryTree>
    <BinaryTree type="DecisionTree" boostWeight="1.0000000000000000e+00" itree="20">
      <Node pos="s" depth="0" NCoef="0" IVar="8" Cut="-9.3408972024917603e-01" cType="1" res="-1.1730515689123422e-04" rms="4.4111299514770508e-01" purity="5.0000000000000000e-01" nType="0">
        <Node pos="l" depth="1" NCoef="0" IVar="7" Cut="-2.4732582569122314e+00" cType="1" res="-4.9605905078351498e-03" rms="4.3726244568824768e-01" purity="4.9439135193824768e-01" nType="0">
          <Node pos="l" depth="2" NCoef="0" IVar="-1" Cut="0.0000000000000000e+00" cType="1" res="-8.2972325384616852e-02" rms="4.2784455418586731e-01" purity="4.4672003388404846e-01" nType="-99"/>
          <Node pos="r" depth="2" NCoef="0" IVar="-1" Cut="0.0000000000000000e+00" cType="1" res="-4.0210882434621453e-04" rms="4.3884545564651489e-01" purity="5.0335997343063354e-01" nType="-99"/>
        </Node>
        <Node pos="r" depth="1" NCoef="0" IVar="9" Cut="-4.2166110873222351e-01" cType="1" res="1.2544010765850544e-02" rms="4.5077809691429138e-01" purity="5.1466202735900879e-01" nType="0">
          <Node pos="l" depth="2" NCoef="0" IVar="-1" Cut="0.0000000000000000e+00" cType="1" res="5.5340949445962906e-02" rms="4.5097193121910095e-01" purity="5.2242130041122437e-01" nType="-99"/>
          <Node pos="r" depth="2" NCoef="0" IVar="-1" Cut="0.0000000000000000e+00" cType="1" res="-6.2345579266548157e-02" rms="4.4811743497848511e-01" purity="4.8169189691543579e-01" nType="-99"/>
        </Node>
      </Node>
    </BinaryTree>
    <BinaryTree type="DecisionTree" boostWeight="1.0000000000000000e+00" itree="21">
      <Node pos="s" depth="0" NCoef="0" IVar="7" Cut="-1.0403897762298584e+00" cType="1" res="-2.8020900572300889e-05" rms="4.4077089428901672e-01" purity="5.0000000000000000e-01" nType="0">
        <Node pos="l" depth="1" NCoef="0" IVar="1" Cut="2.4776638183593750e+03" cType="1" res="5.3215199150145054e-03" rms="4.3244752287864685e-01" purity="4.9503085017204285e-01" nType="0">
          <Node pos="l" depth="2" NCoef="0" IVar="-1" Cut="0.0000000000000000e+00" cType="1" res="-4.8091467469930649e-03" rms="4.4355577230453491e-01" purity="4.0297421813011169e-01" nType="-99"/>
          <Node pos="r" depth="2" NCoef="0" IVar="-1" Cut="0.0000000000000000e+00" cType="1" res="7.9955928027629852e-02" rms="3.9657646417617798e-01" purity="7.7051979303359985e-01" nType="-99"/>
        </Node>
        <Node pos="r" depth="1" NCoef="0" IVar="3" Cut="-1.9514298828125000e+04" cType="1" res="-1.2500897981226444e-02" rms="4.5935052633285522e-01" purity="5.1158607006072998e-01" nType="0">
          <Node pos="l" depth="2" NCoef="0" IVar="-1" Cut="0.0000000000000000e+00" cType="1" res="-3.2637028489261866e-03" rms="4.6702808141708374e-01" purity="4.5149466395378113e-01" nType="-99"/>
          <Node pos="r" depth="2" NCoef="0" IVar="-1" Cut="0.0000000000000000e+00" cType="1" res="-1.5502174198627472e-01" rms="4.3137478828430176e-01" purity="7.0754891633987427e-01" nType="-99"/>
        </Node>
      </Node>
    </BinaryTree>
    <BinaryTree type="DecisionTree" boostWeight="1.0000000000000000e+00" itree="22">
      <Node pos="s" depth="0" NCoef="0" IVar="1" Cut="2.4773913574218750e+03" cType="1" res="3.4982289071194828e-04" rms="4.4042536616325378e-01" purity="5.0000000000000000e-01" nType="0">
        <Node pos="l" depth="1" NCoef="0" IVar="11" Cut="-1.6739158630371094e+00" cType="1" res="6.8510547280311584e-03" rms="4.5065850019454956e-01" purity="3.9401042461395264e-01" nType="0">
          <Node pos="l" depth="2" NCoef="0" IVar="-1" Cut="0.0000000000000000e+00" cType="1" res="1.1598417162895203e-01" rms="4.7820344567298889e-01" purity="5.2735137939453125e-01" nType="-99"/>
          <Node pos="r" depth="2" NCoef="0" IVar="-1" Cut="0.0000000000000000e+00" cType="1" res="7.4443737976253033e-03" rms="4.4783318042755127e-01" purity="3.8172450661659241e-01" nType="-99"/>
        </Node>
        <Node pos="r" depth="1" NCoef="0" IVar="8" Cut="-1.4444501399993896e+00" cType="1" res="-1.3775233179330826e-02" rms="4.1697889566421509e-01" purity="7.3028069734573364e-01" nType="0">
          <Node pos="l" depth="2" NCoef="0" IVar="-1" Cut="0.0000000000000000e+00" cType="1" res="2.1094189956784248e-02" rms="4.0513706207275391e-01" purity="7.5449150800704956e-01" nType="-99"/>
          <Node pos="r" depth="2" NCoef="0" IVar="-1" Cut="0.0000000000000000e+00" cType="1" res="-1.1953999847173691e-01" rms="4.3028834462165833e-01" purity="6.9903773069381714e-01" nType="-99"/>
        </Node>
      </Node>
    </BinaryTree>
    <BinaryTree type="DecisionTree" boostWeight="1.0000000000000000e+00" itree="23">
      <Node pos="s" depth="0" NCoef="0" IVar="12" Cut="-1.2689032554626465e+00" cType="1" res="2.3623225570190698e-04" rms="4.3995368480682373e-01" purity="5.0000000000000000e-01" nType="0">
        <Node pos="l" depth="1" NCoef="0" IVar="12" Cut="-1.8858122825622559e+00" cType="1" res="-5.8354218490421772e-03" rms="4.4053784012794495e-01" purity="5.3565526008605957e-01" nType="0">
          <Node pos="l" depth="2" NCoef="0" IVar="-1" Cut="0.0000000000000000e+00" cType="1" res="1.3100131414830685e-02" rms="4.4270685315132141e-01" purity="5.4950857162475586e-01" nType="-99"/>
          <Node pos="r" depth="2" NCoef="0" IVar="-1" Cut="0.0000000000000000e+00" cType="1" res="-5.8099810034036636e-02" rms="4.3671444058418274e-01" purity="5.1465195417404175e-01" nType="-99"/>
        </Node>
        <Node pos="r" depth="1" NCoef="0" IVar="2" Cut="1.4691622070312500e+04" cType="1" res="8.7948013097047806e-03" rms="4.3898633122444153e-01" purity="4.4974064826965332e-01" nType="0">
          <Node pos="l" depth="2" NCoef="0" IVar="-1" Cut="0.0000000000000000e+00" cType="1" res="-2.7844360098242760e-02" rms="4.4489118456840515e-01" purity="4.0286934375762939e-01" nType="-99"/>
          <Node pos="r" depth="2" NCoef="0" IVar="-1" Cut="0.0000000000000000e+00" cType="1" res="6.3978329300880432e-02" rms="4.3401479721069336e-01" purity="4.8415479063987732e-01" nType="-99"/>
        </Node>
      </Node>
    </BinaryTree>
    <BinaryTree type="DecisionTree" boostWeight="1.0000000000000000e+00" itree="24">
      <Node pos="s" depth="0" NCoef="0" IVar="1" Cut="2.4766811523437500e+03" cType="1" res="-3.0528473871527240e-05" rms="4.3962618708610535e-01" purity="5.0000000000000000e-01" nType="0">
        <Node pos="l" depth="1" NCoef="0" IVar="14" Cut="-1.0660097122192383e+01" cType="1" res="-7.5428597629070282e-03" rms="4.4177293777465820e-01" purity="3.5600319504737854e-01" nType="0">
          <Node pos="l" depth="2" NCoef="0" IVar="-1" Cut="0.0000000000000000e+00" cType="1" res="4.9257501959800720e-02" rms="4.3284606933593750e-01" purity="4.0017974376678467e-01" nType="-99"/>
          <Node pos="r" depth="2" NCoef="0" IVar="-1" Cut="0.0000000000000000e+00" cType="1" res="-3.8372535258531570e-02" rms="4.4411921501159668e-01" purity="3.4280732274055481e-01" nType="-99"/>
        </Node>
        <Node pos="r" depth="1" NCoef="0" IVar="8" Cut="-2.5136091709136963e+00" cType="1" res="7.4114222079515457e-03" rms="4.3736195564270020e-01" purity="6.4264774322509766e-01" nType="0">
          <Node pos="l" depth="2" NCoef="0" IVar="-1" Cut="0.0000000000000000e+00" cType="1" res="-4.5557819306850433e-02" rms="4.4572469592094421e-01" purity="6.4123708009719849e-01" nType="-99"/>
          <Node pos="r" depth="2" NCoef="0" IVar="-1" Cut="0.0000000000000000e+00" cType="1" res="3.3355243504047394e-02" rms="4.3534409999847412e-01" purity="6.4295482635498047e-01" nType="-99"/>
        </Node>
      </Node>
    </BinaryTree>
    <BinaryTree type="DecisionTree" boostWeight="1.0000000000000000e+00" itree="25">
      <Node pos="s" depth="0" NCoef="0" IVar="11" Cut="-1.7154598236083984e+00" cType="1" res="-3.1313316867453977e-05" rms="4.3934822082519531e-01" purity="5.0000000000000000e-01" nType="0">
        <Node pos="l" depth="1" NCoef="0" IVar="-1" Cut="0.0000000000000000e+00" cType="1" res="-6.4777240157127380e-02" rms="4.6642079949378967e-01" purity="5.8008432388305664e-01" nType="-99"/>
        <Node pos="r" depth="1" NCoef="0" IVar="12" Cut="-9.5195816829800606e-03" cType="1" res="2.2626924328505993e-03" rms="4.3675458431243896e-01" purity="4.9278694391250610e-01" nType="0">
          <Node pos="l" depth="2" NCoef="0" IVar="-1" Cut="0.0000000000000000e+00" cType="1" res="1.2768678367137909e-02" rms="4.3645754456520081e-01" purity="5.0037014484405518e-01" nType="-99"/>
          <Node pos="r" depth="2" NCoef="0" IVar="-1" Cut="0.0000000000000000e+00" cType="1" res="-6.5888211131095886e-02" rms="4.3898600339889526e-01" purity="4.1163751482963562e-01" nType="-99"/>
        </Node>
      </Node>
    </BinaryTree>
    <BinaryTree type="DecisionTree" boostWeight="1.0000000000000000e+00" itree="26">
      <Node pos="s" depth="0" NCoef="0" IVar="9" Cut="2.6807728409767151e-01" cType="1" res="-1.1035710940632271e-06" rms="4.3922165036201477e-01" purity="5.0000000000000000e-01" nType="0">
        <Node pos="l" depth="1" NCoef="0" IVar="8" Cut="-1.1797252893447876e+00" cType="1" res="-2.1532771643251181e-03" rms="4.3769589066505432e-01" purity="4.9669873714447021e-01" nType="0">
          <Node pos="l" depth="2" NCoef="0" IVar="-1" Cut="0.0000000000000000e+00" cType="1" res="-1.8066747114062309e-02" rms="4.3200188875198364e-01" purity="4.9060755968093872e-01" nType="-99"/>
          <Node pos="r" depth="2" NCoef="0" IVar="-1" Cut="0.0000000000000000e+00" cType="1" res="1.6593717038631439e-02" rms="4.4797387719154358e-01" purity="5.0803434848785400e-01" nType="-99"/>
        </Node>
        <Node pos="r" depth="1" NCoef="0" IVar="-1" Cut="0.0000000000000000e+00" cType="1" res="7.4079215526580811e-02" rms="4.5859277248382568e-01" purity="5.4521155357360840e-01" nType="-99"/>
      </Node>
    </BinaryTree>
    <BinaryTree type="DecisionTree" boostWeight="1.0000000000000000e+00" itree="27">
      <Node pos="s" depth="0" NCoef="0" IVar="3" Cut="-1.9515160156250000e+04" cType="1" res="-1.7355338286506594e-06" rms="4.3913075327873230e-01" purity="5.0000000000000000e-01" nType="0">
        <Node pos="l" depth="1" NCoef="0" IVar="-1" Cut="0.0000000000000000e+00" cType="1" res="-4.9572225660085678e-02" rms="4.3394193053245544e-01" purity="3.1112807989120483e-01" nType="-99"/>
        <Node pos="r" depth="1" NCoef="0" IVar="6" Cut="1.1567486763000488e+01" cType="1" res="2.1412568166851997e-03" rms="4.3965727090835571e-01" purity="5.2118855714797974e-01" nType="0">
          <Node pos="l" depth="2" NCoef="0" IVar="-1" Cut="0.0000000000000000e+00" cType="1" res="1.8153633922338486e-02" rms="4.3317863345146179e-01" purity="5.0458407402038574e-01" nType="-99"/>
          <Node pos="r" depth="2" NCoef="0" IVar="-1" Cut="0.0000000000000000e+00" cType="1" res="-2.9743216931819916e-02" rms="4.5888587832450867e-01" purity="5.7270526885986328e-01" nType="-99"/>
        </Node>
      </Node>
    </BinaryTree>
    <BinaryTree type="DecisionTree" boostWeight="1.0000000000000000e+00" itree="28">
      <Node pos="s" depth="0" NCoef="0" IVar="6" Cut="1.2023460388183594e+01" cType="1" res="-2.3108748791855760e-05" rms="4.3902167677879333e-01" purity="5.0000000000000000e-01" nType="0">
        <Node pos="l" depth="1" NCoef="0" IVar="7" Cut="1.5196190774440765e-01" cType="1" res="-1.8381129484623671e-03" rms="4.3870100378990173e-01" purity="4.8902627825737000e-01" nType="0">
          <Node pos="l" depth="2" NCoef="0" IVar="-1" Cut="0.0000000000000000e+00" cType="1" res="-9.8644495010375977e-03" rms="4.3630039691925049e-01" purity="4.8640891909599304e-01" nType="-99"/>
          <Node pos="r" depth="2" NCoef="0" IVar="-1" Cut="0.0000000000000000e+00" cType="1" res="4.7965209931135178e-02" rms="4.6431595087051392e-01" purity="5.1845765113830566e-01" nType="-99"/>
        </Node>
        <Node pos="r" depth="1" NCoef="0" IVar="-1" Cut="0.0000000000000000e+00" cType="1" res="6.4581044018268585e-02" rms="4.4254955649375916e-01" purity="6.4557641744613647e-01" nType="-99"/>
      </Node>
    </BinaryTree>
    <BinaryTree type="DecisionTree" boostWeight="1.0000000000000000e+00" itree="29">
      <Node pos="s" depth="0" NCoef="0" IVar="13" Cut="-7.7300786972045898e+00" cType="1" res="1.8007976905209944e-05" rms="4.3890726566314697e-01" purity="5.0000000000000000e-01" nType="0">
        <Node pos="l" depth="1" NCoef="0" IVar="1" Cut="2.4773916015625000e+03" cType="1" res="8.3133270964026451e-03" rms="4.4715860486030579e-01" purity="5.2313286066055298e-01" nType="0">
          <Node pos="l" depth="2" NCoef="0" IVar="-1" Cut="0.0000000000000000e+00" cType="1" res="4.5106176286935806e-02" rms="4.5938569307327271e-01" purity="4.2457157373428345e-01" nType="-99"/>
          <Node pos="r" depth="2" NCoef="0" IVar="-1" Cut="0.0000000000000000e+00" cType="1" res="-4.1487000882625580e-02" rms="4.1855287551879883e-01" purity="7.3692148923873901e-01" nType="-99"/>
        </Node>
        <Node pos="r" depth="1" NCoef="0" IVar="13" Cut="-5.7090563774108887e+00" cType="1" res="-3.9862277917563915e-03" rms="4.3481162190437317e-01" purity="4.8883348703384399e-01" nType="0">
          <Node pos="l" depth="2" NCoef="0" IVar="-1" Cut="0.0000000000000000e+00" cType="1" res="-1.6656922176480293e-02" rms="4.3625310063362122e-01" purity="4.8762670159339905e-01" nType="-99"/>
          <Node pos="r" depth="2" NCoef="0" IVar="-1" Cut="0.0000000000000000e+00" cType="1" res="5.9143982827663422e-02" rms="4.1812974214553833e-01" purity="5.0187349319458008e-01" nType="-99"/>
        </Node>
      </Node>
    </BinaryTree>
    <BinaryTree type="DecisionTree" boostWeight="1.0000000000000000e+00" itree="30">
      <Node pos="s" depth="0" NCoef="0" IVar="3" Cut="-1.9514246093750000e+04" cType="1" res="-1.2186406820546836e-05" rms="4.3872544169425964e-01" purity="5.0000000000000000e-01" nType="0">
        <Node pos="l" depth="1" NCoef="0" IVar="6" Cut="1.1702098846435547e+01" cType="1" res="2.3109277244657278e-03" rms="4.4712617993354797e-01" purity="4.2991918325424194e-01" nType="0">
          <Node pos="l" depth="2" NCoef="0" IVar="-1" Cut="0.0000000000000000e+00" cType="1" res="-2.4972010869532824e-03" rms="4.4304934144020081e-01" purity="4.2392584681510925e-01" nType="-99"/>
          <Node pos="r" depth="2" NCoef="0" IVar="-1" Cut="0.0000000000000000e+00" cType="1" res="6.4183995127677917e-02" rms="4.7824606299400330e-01" purity="4.7881025075912476e-01" nType="-99"/>
        </Node>
        <Node pos="r" depth="1" NCoef="0" IVar="14" Cut="-9.7435750961303711e+00" cType="1" res="-8.2554537802934647e-03" rms="4.0741449594497681e-01" purity="7.4867254495620728e-01" nType="0">
          <Node pos="l" depth="2" NCoef="0" IVar="-1" Cut="0.0000000000000000e+00" cType="1" res="-7.7727951109409332e-02" rms="3.9497590065002441e-01" purity="7.6908236742019653e-01" nType="-99"/>
          <Node pos="r" depth="2" NCoef="0" IVar="-1" Cut="0.0000000000000000e+00" cType="1" res="5.9729881584644318e-02" rms="4.3064191937446594e-01" purity="7.0608472824096680e-01" nType="-99"/>
        </Node>
      </Node>
    </BinaryTree>
    <BinaryTree type="DecisionTree" boostWeight="1.0000000000000000e+00" itree="31">
      <Node pos="s" depth="0" NCoef="0" IVar="5" Cut="-1.1294133186340332e+01" cType="1" res="1.3927153486292809e-04" rms="4.3846866488456726e-01" purity="5.0000000000000000e-01" nType="0">
        <Node pos="l" depth="1" NCoef="0" IVar="0" Cut="2.4720498046875000e+03" cType="1" res="-9.7821345552802086e-03" rms="4.6350058913230896e-01" purity="4.1068655252456665e-01" nType="0">
          <Node pos="l" depth="2" NCoef="0" IVar="-1" Cut="0.0000000000000000e+00" cType="1" res="5.1488343626260757e-02" rms="4.5007008314132690e-01" purity="3.2916057109832764e-01" nType="-99"/>
          <Node pos="r" depth="2" NCoef="0" IVar="-1" Cut="0.0000000000000000e+00" cType="1" res="-4.3654564768075943e-02" rms="4.6717435121536255e-01" purity="4.3579745292663574e-01" nType="-99"/>
        </Node>
        <Node pos="r" depth="1" NCoef="0" IVar="4" Cut="-1.4957622528076172e+01" cType="1" res="4.3598338961601257e-03" rms="4.2730599641799927e-01" purity="5.3799384832382202e-01" nType="0">
          <Node pos="l" depth="2" NCoef="0" IVar="-1" Cut="0.0000000000000000e+00" cType="1" res="2.4698359891772270e-02" rms="4.4015997648239136e-01" purity="5.5612641572952271e-01" nType="-99"/>
          <Node pos="r" depth="2" NCoef="0" IVar="-1" Cut="0.0000000000000000e+00" cType="1" res="-2.4733657017350197e-02" rms="3.9560008049011230e-01" purity="4.9590542912483215e-01" nType="-99"/>
        </Node>
      </Node>
    </BinaryTree>
    <BinaryTree type="DecisionTree" boostWeight="1.0000000000000000e+00" itree="32">
      <Node pos="s" depth="0" NCoef="0" IVar="0" Cut="2.4722961425781250e+03" cType="1" res="-3.6742279917234555e-05" rms="4.3826171755790710e-01" purity="5.0000000000000000e-01" nType="0">
        <Node pos="l" depth="1" NCoef="0" IVar="6" Cut="1.1615231513977051e+01" cType="1" res="-7.0307911373674870e-03" rms="4.2701160907745361e-01" purity="5.2926158905029297e-01" nType="0">
          <Node pos="l" depth="2" NCoef="0" IVar="-1" Cut="0.0000000000000000e+00" cType="1" res="-2.3498835507780313e-03" rms="4.2106214165687561e-01" purity="5.2233219146728516e-01" nType="-99"/>
          <Node pos="r" depth="2" NCoef="0" IVar="-1" Cut="0.0000000000000000e+00" cType="1" res="-9.3040458858013153e-02" rms="4.5266664028167725e-01" purity="5.6165552139282227e-01" nType="-99"/>
        </Node>
        <Node pos="r" depth="1" NCoef="0" IVar="9" Cut="-2.2825102508068085e-01" cType="1" res="7.7878520824015141e-03" rms="4.5038622617721558e-01" purity="4.6726360917091370e-01" nType="0">
          <Node pos="l" depth="2" NCoef="0" IVar="-1" Cut="0.0000000000000000e+00" cType="1" res="3.0674351379275322e-02" rms="4.4773599505424500e-01" purity="4.7107228636741638e-01" nType="-99"/>
          <Node pos="r" depth="2" NCoef="0" IVar="-1" Cut="0.0000000000000000e+00" cType="1" res="-5.9569679200649261e-02" rms="4.6738183498382568e-01" purity="4.4037204980850220e-01" nType="-99"/>
        </Node>
      </Node>
    </BinaryTree>
    <BinaryTree type="DecisionTree" boostWeight="1.0000000000000000e+00" itree="33">
      <Node pos="s" depth="0" NCoef="0" IVar="2" Cut="1.4693077148437500e+04" cType="1" res="1.8993712728843093e-05" rms="4.3795642256736755e-01" purity="5.0000000000000000e-01" nType="0">
        <Node pos="l" depth="1" NCoef="0" IVar="7" Cut="-2.6964337825775146e+00" cType="1" res="-2.5599503424018621e-03" rms="4.4278129935264587e-01" purity="4.7073382139205933e-01" nType="0">
          <Node pos="l" depth="2" NCoef="0" IVar="-1" Cut="0.0000000000000000e+00" cType="1" res="6.1054300516843796e-02" rms="4.4103139638900757e-01" purity="4.9153205752372742e-01" nType="-99"/>
          <Node pos="r" depth="2" NCoef="0" IVar="-1" Cut="0.0000000000000000e+00" cType="1" res="-1.1740991845726967e-02" rms="4.4285914301872253e-01" purity="4.6906411647796631e-01" nType="-99"/>
        </Node>
        <Node pos="r" depth="1" NCoef="0" IVar="-1" Cut="0.0000000000000000e+00" cType="1" res="8.1567525863647461e-02" rms="3.8526597619056702e-01" purity="7.9366159439086914e-01" nType="-99"/>
      </Node>
    </BinaryTree>
    <BinaryTree type="DecisionTree" boostWeight="1.0000000000000000e+00" itree="34">
      <Node pos="s" depth="0" NCoef="0" IVar="9" Cut="-5.5445927381515503e-01" cType="1" res="7.5608040788210928e-05" rms="4.3779239058494568e-01" purity="5.0000000000000000e-01" nType="0">
        <Node pos="l" depth="1" NCoef="0" IVar="10" Cut="-3.2871699333190918e+00" cType="1" res="-3.1515210866928101e-03" rms="4.3552541732788086e-01" purity="4.9822664260864258e-01" nType="0">
          <Node pos="l" depth="2" NCoef="0" IVar="-1" Cut="0.0000000000000000e+00" cType="1" res="3.7391469813883305e-03" rms="4.3274897336959839e-01" purity="5.0216305255889893e-01" nType="-99"/>
          <Node pos="r" depth="2" NCoef="0" IVar="-1" Cut="0.0000000000000000e+00" cType="1" res="-4.6560067683458328e-02" rms="4.4414836168289185e-01" purity="4.8536834120750427e-01" nType="-99"/>
        </Node>
        <Node pos="r" depth="1" NCoef="0" IVar="10" Cut="-2.7593076229095459e+00" cType="1" res="1.4208142645657063e-02" rms="4.4731071591377258e-01" purity="5.0776606798171997e-01" nType="0">
          <Node pos="l" depth="2" NCoef="0" IVar="-1" Cut="0.0000000000000000e+00" cType="1" res="3.5238671116530895e-03" rms="4.4717082381248474e-01" purity="4.9242195487022400e-01" nType="-99"/>
          <Node pos="r" depth="2" NCoef="0" IVar="-1" Cut="0.0000000000000000e+00" cType="1" res="1.2275329232215881e-01" rms="4.4591143727302551e-01" purity="5.4820162057876587e-01" nType="-99"/>
        </Node>
      </Node>
    </BinaryTree>
    <BinaryTree type="DecisionTree" boostWeight="1.0000000000000000e+00" itree="35">
      <Node pos="s" depth="0" NCoef="0" IVar="10" Cut="-3.8988523483276367e+00" cType="1" res="-6.6613029048312455e-06" rms="4.3759170174598694e-01" purity="5.0000000000000000e-01" nType="0">
        <Node pos="l" depth="1" NCoef="0" IVar="12" Cut="-1.5802183151245117e+00" cType="1" res="-7.6124886982142925e-03" rms="4.3709245324134827e-01" purity="5.0347214937210083e-01" nType="0">
          <Node pos="l" depth="2" NCoef="0" IVar="-1" Cut="0.0000000000000000e+00" cType="1" res="2.7373984456062317e-02" rms="4.3286430835723877e-01" purity="5.5826991796493530e-01" nType="-99"/>
          <Node pos="r" depth="2" NCoef="0" IVar="-1" Cut="0.0000000000000000e+00" cType="1" res="-6.3472986221313477e-02" rms="4.4032350182533264e-01" purity="4.5275083184242249e-01" nType="-99"/>
        </Node>
        <Node pos="r" depth="1" NCoef="0" IVar="12" Cut="-1.7328866720199585e+00" cType="1" res="3.9332672022283077e-03" rms="4.3779814243316650e-01" purity="4.9820140004158020e-01" nType="0">
          <Node pos="l" depth="2" NCoef="0" IVar="-1" Cut="0.0000000000000000e+00" cType="1" res="-1.9904272630810738e-02" rms="4.4373729825019836e-01" purity="5.3477495908737183e-01" nType="-99"/>
          <Node pos="r" depth="2" NCoef="0" IVar="-1" Cut="0.0000000000000000e+00" cType="1" res="3.1465146690607071e-02" rms="4.3344879150390625e-01" purity="4.7282710671424866e-01" nType="-99"/>
        </Node>
      </Node>
    </BinaryTree>
    <BinaryTree type="DecisionTree" boostWeight="1.0000000000000000e+00" itree="36">
      <Node pos="s" depth="0" NCoef="0" IVar="1" Cut="2.4760498046875000e+03" cType="1" res="-2.4900480639189482e-05" rms="4.3731966614723206e-01" purity="5.0000000000000000e-01" nType="0">
        <Node pos="l" depth="1" NCoef="0" IVar="9" Cut="-1.5221648216247559e+00" cType="1" res="-7.8835226595401764e-03" rms="4.3372967839241028e-01" purity="3.3746755123138428e-01" nType="0">
          <Node pos="l" depth="2" NCoef="0" IVar="-1" Cut="0.0000000000000000e+00" cType="1" res="-6.4975500106811523e-02" rms="4.3695539236068726e-01" purity="3.4538331627845764e-01" nType="-99"/>
          <Node pos="r" depth="2" NCoef="0" IVar="-1" Cut="0.0000000000000000e+00" cType="1" res="-9.5877377316355705e-04" rms="4.3214297294616699e-01" purity="3.3413451910018921e-01" nType="-99"/>
        </Node>
        <Node pos="r" depth="1" NCoef="0" IVar="1" Cut="2.4762880859375000e+03" cType="1" res="3.3718161284923553e-03" rms="4.3881872296333313e-01" purity="5.7025110721588135e-01" nType="0">
          <Node pos="l" depth="2" NCoef="0" IVar="-1" Cut="0.0000000000000000e+00" cType="1" res="6.9600440561771393e-02" rms="4.4183969497680664e-01" purity="3.6618697643280029e-01" nType="-99"/>
          <Node pos="r" depth="2" NCoef="0" IVar="-1" Cut="0.0000000000000000e+00" cType="1" res="1.2831874191761017e-03" rms="4.3835055828094482e-01" purity="5.9607714414596558e-01" nType="-99"/>
        </Node>
      </Node>
    </BinaryTree>
    <BinaryTree type="DecisionTree" boostWeight="1.0000000000000000e+00" itree="37">
      <Node pos="s" depth="0" NCoef="0" IVar="3" Cut="-1.9514878906250000e+04" cType="1" res="-7.3320974479429424e-05" rms="4.3718174099922180e-01" purity="5.0000000000000000e-01" nType="0">
        <Node pos="l" depth="1" NCoef="0" IVar="8" Cut="-2.4737603664398193e+00" cType="1" res="-8.5329543799161911e-03" rms="4.3891707062721252e-01" purity="3.5029110312461853e-01" nType="0">
          <Node pos="l" depth="2" NCoef="0" IVar="-1" Cut="0.0000000000000000e+00" cType="1" res="9.8914563655853271e-02" rms="4.5270481705665588e-01" purity="4.0649023652076721e-01" nType="-99"/>
          <Node pos="r" depth="2" NCoef="0" IVar="-1" Cut="0.0000000000000000e+00" cType="1" res="-5.0847526639699936e-02" rms="4.3483716249465942e-01" purity="3.3695271611213684e-01" nType="-99"/>
        </Node>
        <Node pos="r" depth="1" NCoef="0" IVar="8" Cut="-2.6377735137939453e+00" cType="1" res="3.6104421596974134e-03" rms="4.3637266755104065e-01" purity="5.6519103050231934e-01" nType="0">
          <Node pos="l" depth="2" NCoef="0" IVar="-1" Cut="0.0000000000000000e+00" cType="1" res="-7.0045545697212219e-02" rms="4.5103001594543457e-01" purity="5.4657560586929321e-01" nType="-99"/>
          <Node pos="r" depth="2" NCoef="0" IVar="-1" Cut="0.0000000000000000e+00" cType="1" res="2.2402083501219749e-02" rms="4.3378531932830811e-01" purity="5.6817173957824707e-01" nType="-99"/>
        </Node>
      </Node>
    </BinaryTree>
    <BinaryTree type="DecisionTree" boostWeight="1.0000000000000000e+00" itree="38">
      <Node pos="s" depth="0" NCoef="0" IVar="9" Cut="-2.4737112522125244e+00" cType="1" res="-8.6359868873842061e-05" rms="4.3677431344985962e-01" purity="5.0000000000000000e-01" nType="0">
        <Node pos="l" depth="1" NCoef="0" IVar="-1" Cut="0.0000000000000000e+00" cType="1" res="5.0108112394809723e-02" rms="4.4391769170761108e-01" purity="5.0199586153030396e-01" nType="-99"/>
        <Node pos="r" depth="1" NCoef="0" IVar="14" Cut="-1.1095935821533203e+01" cType="1" res="-1.6732158837839961e-03" rms="4.3616005778312683e-01" purity="4.9984067678451538e-01" nType="0">
          <Node pos="l" depth="2" NCoef="0" IVar="-1" Cut="0.0000000000000000e+00" cType="1" res="-5.8573629707098007e-02" rms="4.1682961583137512e-01" purity="5.9251415729522705e-01" nType="-99"/>
          <Node pos="r" depth="2" NCoef="0" IVar="-1" Cut="0.0000000000000000e+00" cType="1" res="-1.9606816931627691e-04" rms="4.3786981701850891e-01" purity="4.9127200245857239e-01" nType="-99"/>
        </Node>
      </Node>
    </BinaryTree>
    <BinaryTree type="DecisionTree" boostWeight="1.0000000000000000e+00" itree="39">
      <Node pos="s" depth="0" NCoef="0" IVar="10" Cut="-2.9245376586914062e+00" cType="1" res="5.5747914302628487e-06" rms="4.3668898940086365e-01" purity="5.0000000000000000e-01" nType="0">
        <Node pos="l" depth="1" NCoef="0" IVar="1" Cut="2.4764443359375000e+03" cType="1" res="2.3867283016443253e-03" rms="4.3413117527961731e-01" purity="4.9818289279937744e-01" nType="0">
          <Node pos="l" depth="2" NCoef="0" IVar="-1" Cut="0.0000000000000000e+00" cType="1" res="-1.1088790372014046e-02" rms="4.3449661135673523e-01" purity="3.4105974435806274e-01" nType="-99"/>
          <Node pos="r" depth="2" NCoef="0" IVar="-1" Cut="0.0000000000000000e+00" cType="1" res="1.9592463970184326e-02" rms="4.3378686904907227e-01" purity="6.1752372980117798e-01" nType="-99"/>
        </Node>
        <Node pos="r" depth="1" NCoef="0" IVar="14" Cut="-9.8522472381591797e+00" cType="1" res="-1.2405349873006344e-02" rms="4.4958120584487915e-01" purity="5.0947099924087524e-01" nType="0">
          <Node pos="l" depth="2" NCoef="0" IVar="-1" Cut="0.0000000000000000e+00" cType="1" res="4.5876321382820606e-03" rms="4.4227817654609680e-01" purity="5.1922869682312012e-01" nType="-99"/>
          <Node pos="r" depth="2" NCoef="0" IVar="-1" Cut="0.0000000000000000e+00" cType="1" res="-9.8148383200168610e-02" rms="4.6170380711555481e-01" purity="4.9132299423217773e-01" nType="-99"/>
        </Node>
      </Node>
    </BinaryTree>
    <BinaryTree type="DecisionTree" boostWeight="1.0000000000000000e+00" itree="40">
      <Node pos="s" depth="0" NCoef="0" IVar="1" Cut="2.4757736816406250e+03" cType="1" res="7.7749273259541951e-06" rms="4.3657428026199341e-01" purity="5.0000000000000000e-01" nType="0">
        <Node pos="l" depth="1" NCoef="0" IVar="1" Cut="2.4753610839843750e+03" cType="1" res="1.0642521083354950e-02" rms="4.3260902166366577e-01" purity="3.3875858783721924e-01" nType="0">
          <Node pos="l" depth="2" NCoef="0" IVar="-1" Cut="0.0000000000000000e+00" cType="1" res="-1.4911826699972153e-02" rms="4.4085666537284851e-01" purity="3.7690791487693787e-01" nType="-99"/>
          <Node pos="r" depth="2" NCoef="0" IVar="-1" Cut="0.0000000000000000e+00" cType="1" res="5.5049732327461243e-02" rms="4.2777490615844727e-01" purity="3.1793662905693054e-01" nType="-99"/>
        </Node>
        <Node pos="r" depth="1" NCoef="0" IVar="8" Cut="-9.9961602687835693e-01" cType="1" res="-2.7804097626358271e-03" rms="4.3756514787673950e-01" purity="5.4227375984191895e-01" nType="0">
          <Node pos="l" depth="2" NCoef="0" IVar="-1" Cut="0.0000000000000000e+00" cType="1" res="-1.7366804182529449e-02" rms="4.3411165475845337e-01" purity="5.3584510087966919e-01" nType="-99"/>
          <Node pos="r" depth="2" NCoef="0" IVar="-1" Cut="0.0000000000000000e+00" cType="1" res="1.6547918319702148e-02" rms="4.4571158289909363e-01" purity="5.5789268016815186e-01" nType="-99"/>
        </Node>
      </Node>
    </BinaryTree>
    <BinaryTree type="DecisionTree" boostWeight="1.0000000000000000e+00" itree="41">
      <Node pos="s" depth="0" NCoef="0" IVar="11" Cut="-5.7081979513168335e-01" cType="1" res="-4.6998968173284084e-05" rms="4.3646854162216187e-01" purity="5.0000000000000000e-01" nType="0">
        <Node pos="l" depth="1" NCoef="0" IVar="11" Cut="-7.2636389732360840e-01" cType="1" res="3.9171450771391392e-03" rms="4.3590348958969116e-01" purity="5.1505440473556519e-01" nType="0">
          <Node pos="l" depth="2" NCoef="0" IVar="-1" Cut="0.0000000000000000e+00" cType="1" res="2.4304636754095554e-03" rms="4.3614989519119263e-01" purity="5.1808434724807739e-01" nType="-99"/>
          <Node pos="r" depth="2" NCoef="0" IVar="-1" Cut="0.0000000000000000e+00" cType="1" res="7.9534314572811127e-02" rms="4.3290317058563232e-01" purity="4.8883035778999329e-01" nType="-99"/>
        </Node>
        <Node pos="r" depth="1" NCoef="0" IVar="7" Cut="-1.1179991066455841e-01" cType="1" res="-5.6594801135361195e-03" rms="4.3720582127571106e-01" purity="4.7868576645851135e-01" nType="0">
          <Node pos="l" depth="2" NCoef="0" IVar="-1" Cut="0.0000000000000000e+00" cType="1" res="-2.9704190790653229e-02" rms="4.3440243601799011e-01" purity="4.7180101275444031e-01" nType="-99"/>
          <Node pos="r" depth="2" NCoef="0" IVar="-1" Cut="0.0000000000000000e+00" cType="1" res="8.0668434500694275e-02" rms="4.5442369580268860e-01" purity="5.2647340297698975e-01" nType="-99"/>
        </Node>
      </Node>
    </BinaryTree>
    <BinaryTree type="DecisionTree" boostWeight="1.0000000000000000e+00" itree="42">
      <Node pos="s" depth="0" NCoef="0" IVar="7" Cut="-7.0918101072311401e-01" cType="1" res="-2.0118835891480558e-05" rms="4.3629929423332214e-01" purity="5.0000000000000000e-01" nType="0">
        <Node pos="l" depth="1" NCoef="0" IVar="9" Cut="-2.0253486633300781e+00" cType="1" res="2.7824293356388807e-03" rms="4.3063339591026306e-01" purity="4.9703213572502136e-01" nType="0">
          <Node pos="l" depth="2" NCoef="0" IVar="-1" Cut="0.0000000000000000e+00" cType="1" res="6.2723025679588318e-02" rms="4.3596622347831726e-01" purity="5.6144386529922485e-01" nType="-99"/>
          <Node pos="r" depth="2" NCoef="0" IVar="-1" Cut="0.0000000000000000e+00" cType="1" res="1.9411868415772915e-03" rms="4.3005782365798950e-01" purity="4.9079981446266174e-01" nType="-99"/>
        </Node>
        <Node pos="r" depth="1" NCoef="0" IVar="11" Cut="-1.1431398391723633e+00" cType="1" res="-9.6345571801066399e-03" rms="4.5506995916366577e-01" purity="5.1018160581588745e-01" nType="0">
          <Node pos="l" depth="2" NCoef="0" IVar="-1" Cut="0.0000000000000000e+00" cType="1" res="-9.4261392951011658e-02" rms="4.5573490858078003e-01" purity="5.4466515779495239e-01" nType="-99"/>
          <Node pos="r" depth="2" NCoef="0" IVar="-1" Cut="0.0000000000000000e+00" cType="1" res="4.6591553837060928e-03" rms="4.5429676771163940e-01" purity="4.9611005187034607e-01" nType="-99"/>
        </Node>
      </Node>
    </BinaryTree>
    <BinaryTree type="DecisionTree" boostWeight="1.0000000000000000e+00" itree="43">
      <Node pos="s" depth="0" NCoef="0" IVar="9" Cut="-2.0624427795410156e+00" cType="1" res="2.1987651052768342e-05" rms="4.3612888455390930e-01" purity="5.0000000000000000e-01" nType="0">
        <Node pos="l" depth="1" NCoef="0" IVar="10" Cut="-3.5416350364685059e+00" cType="1" res="-1.5117752365767956e-02" rms="4.4209262728691101e-01" purity="5.0943750143051147e-01" nType="0">
          <Node pos="l" depth="2" NCoef="0" IVar="-1" Cut="0.0000000000000000e+00" cType="1" res="-8.9894853532314301e-02" rms="4.4227194786071777e-01" purity="5.1716035604476929e-01" nType="-99"/>
          <Node pos="r" depth="2" NCoef="0" IVar="-1" Cut="0.0000000000000000e+00" cType="1" res="-7.3174694553017616e-03" rms="4.4153922796249390e-01" purity="5.0464785099029541e-01" nType="-99"/>
        </Node>
        <Node pos="r" depth="1" NCoef="0" IVar="7" Cut="-4.6856784820556641e-01" cType="1" res="2.3191198706626892e-03" rms="4.3517082929611206e-01" purity="4.9856802821159363e-01" nType="0">
          <Node pos="l" depth="2" NCoef="0" IVar="-1" Cut="0.0000000000000000e+00" cType="1" res="-1.3096368638798594e-03" rms="4.3138065934181213e-01" purity="4.9101901054382324e-01" nType="-99"/>
          <Node pos="r" depth="2" NCoef="0" IVar="-1" Cut="0.0000000000000000e+00" cType="1" res="4.8116732388734818e-02" rms="4.5703476667404175e-01" purity="5.4417473077774048e-01" nType="-99"/>
        </Node>
      </Node>
    </BinaryTree>
    <BinaryTree type="DecisionTree" boostWeight="1.0000000000000000e+00" itree="44">
      <Node pos="s" depth="0" NCoef="0" IVar="12" Cut="-7.3863643407821655e-01" cType="1" res="5.5112700465542730e-06" rms="4.3600127100944519e-01" purity="5.0000000000000000e-01" nType="0">
        <Node pos="l" depth="1" NCoef="0" IVar="3" Cut="-1.9514148437500000e+04" cType="1" res="3.3079599961638451e-03" rms="4.3475052714347839e-01" purity="5.2038943767547607e-01" nType="0">
          <Node pos="l" depth="2" NCoef="0" IVar="-1" Cut="0.0000000000000000e+00" cType="1" res="1.6334841027855873e-02" rms="4.4499370455741882e-01" purity="4.5706546306610107e-01" nType="-99"/>
          <Node pos="r" depth="2" NCoef="0" IVar="-1" Cut="0.0000000000000000e+00" cType="1" res="-3.2421149313449860e-02" rms="3.8972160220146179e-01" purity="7.7979552745819092e-01" nType="-99"/>
        </Node>
        <Node pos="r" depth="1" NCoef="0" IVar="0" Cut="2.4718444824218750e+03" cType="1" res="-1.0629496537148952e-02" rms="4.3983644247055054e-01" purity="4.3433907628059387e-01" nType="0">
          <Node pos="l" depth="2" NCoef="0" IVar="-1" Cut="0.0000000000000000e+00" cType="1" res="6.5717369318008423e-02" rms="4.2681199312210083e-01" purity="3.5350117087364197e-01" nType="-99"/>
          <Node pos="r" depth="2" NCoef="0" IVar="-1" Cut="0.0000000000000000e+00" cType="1" res="-5.9670239686965942e-02" rms="4.4384545087814331e-01" purity="4.6393579244613647e-01" nType="-99"/>
        </Node>
      </Node>
    </BinaryTree>
    <BinaryTree type="DecisionTree" boostWeight="1.0000000000000000e+00" itree="45">
      <Node pos="s" depth="0" NCoef="0" IVar="2" Cut="1.4691258789062500e+04" cType="1" res="-2.0659001165768132e-05" rms="4.3576562404632568e-01" purity="5.0000000000000000e-01" nType="0">
        <Node pos="l" depth="1" NCoef="0" IVar="8" Cut="-1.4034402370452881e+00" cType="1" res="-1.4593013562262058e-02" rms="4.5621004700660706e-01" purity="4.7668629884719849e-01" nType="0">
          <Node pos="l" depth="2" NCoef="0" IVar="-1" Cut="0.0000000000000000e+00" cType="1" res="-7.0104032754898071e-02" rms="4.5156070590019226e-01" purity="4.5711803436279297e-01" nType="-99"/>
          <Node pos="r" depth="2" NCoef="0" IVar="-1" Cut="0.0000000000000000e+00" cType="1" res="1.9338797777891159e-02" rms="4.6243035793304443e-01" purity="5.0716108083724976e-01" nType="-99"/>
        </Node>
        <Node pos="r" depth="1" NCoef="0" IVar="3" Cut="-1.9515117187500000e+04" cType="1" res="2.1921996958553791e-03" rms="4.3253365159034729e-01" purity="5.0354027748107910e-01" nType="0">
          <Node pos="l" depth="2" NCoef="0" IVar="-1" Cut="0.0000000000000000e+00" cType="1" res="-5.8427553623914719e-02" rms="4.1826337575912476e-01" purity="2.8513959050178528e-01" nType="-99"/>
          <Node pos="r" depth="2" NCoef="0" IVar="-1" Cut="0.0000000000000000e+00" cType="1" res="1.3525001704692841e-02" rms="4.3414899706840515e-01" purity="5.3010600805282593e-01" nType="-99"/>
        </Node>
      </Node>
    </BinaryTree>
    <BinaryTree type="DecisionTree" boostWeight="1.0000000000000000e+00" itree="46">
      <Node pos="s" depth="0" NCoef="0" IVar="14" Cut="-1.0926891326904297e+01" cType="1" res="-4.5459360990207642e-05" rms="4.3557569384574890e-01" purity="5.0000000000000000e-01" nType="0">
