<?xml version="1.0"?>
<MethodSetup Method="BDT::BDT_800_MinNodeSize2of10">
  <GeneralInfo>
    <Info name="TMVA Release" value="4.2.1 [262657]"/>
    <Info name="ROOT Release" value="6.14/09 [396809]"/>
    <Info name="Creator" value="bhoh"/>
    <Info name="Date" value="Mon Nov 16 19:01:27 2020"/>
    <Info name="Host" value="Linux cmsbuilder10.cern.ch 2.6.32-754.12.1.el6.x86_64 #1 SMP Thu Apr 11 11:50:45 CEST 2019 x86_64 x86_64 x86_64 GNU/Linux"/>
    <Info name="Dir" value="/cms/ldap_home/bhoh/latinos/CMSSW_10_6_4/src/SNuAnalytics/MVATool/scripts"/>
    <Info name="Training events" value="117185"/>
    <Info name="TrainingTime" value="4.76846988e+01"/>
    <Info name="AnalysisType" value="Classification"/>
  </GeneralInfo>
  <Options>
    <Option name="V" modified="Yes">False</Option>
    <Option name="VerbosityLevel" modified="No">Default</Option>
    <Option name="VarTransform" modified="Yes">N,D</Option>
    <Option name="H" modified="Yes">False</Option>
    <Option name="CreateMVAPdfs" modified="No">False</Option>
    <Option name="IgnoreNegWeightsInTraining" modified="No">False</Option>
    <Option name="NTrees" modified="Yes">800</Option>
    <Option name="MaxDepth" modified="Yes">3</Option>
    <Option name="MinNodeSize" modified="Yes">20%</Option>
    <Option name="nCuts" modified="Yes">100</Option>
    <Option name="BoostType" modified="Yes">Grad</Option>
    <Option name="AdaBoostR2Loss" modified="No">quadratic</Option>
    <Option name="UseBaggedBoost" modified="No">False</Option>
    <Option name="Shrinkage" modified="No">1.000000e+00</Option>
    <Option name="AdaBoostBeta" modified="No">5.000000e-01</Option>
    <Option name="UseRandomisedTrees" modified="No">False</Option>
    <Option name="UseNvars" modified="No">4</Option>
    <Option name="UsePoissonNvars" modified="No">True</Option>
    <Option name="BaggedSampleFraction" modified="No">6.000000e-01</Option>
    <Option name="UseYesNoLeaf" modified="No">True</Option>
    <Option name="NegWeightTreatment" modified="No">pray</Option>
    <Option name="Css" modified="No">1.000000e+00</Option>
    <Option name="Cts_sb" modified="No">1.000000e+00</Option>
    <Option name="Ctb_ss" modified="No">1.000000e+00</Option>
    <Option name="Cbb" modified="No">1.000000e+00</Option>
    <Option name="NodePurityLimit" modified="No">5.000000e-01</Option>
    <Option name="SeparationType" modified="Yes">giniindex</Option>
    <Option name="RegressionLossFunctionBDTG" modified="No">huber</Option>
    <Option name="HuberQuantile" modified="No">7.000000e-01</Option>
    <Option name="DoBoostMonitor" modified="No">False</Option>
    <Option name="UseFisherCuts" modified="No">False</Option>
    <Option name="MinLinCorrForFisher" modified="No">8.000000e-01</Option>
    <Option name="UseExclusiveVars" modified="No">False</Option>
    <Option name="DoPreselection" modified="No">False</Option>
    <Option name="SigToBkgFraction" modified="No">1.000000e+00</Option>
    <Option name="PruneMethod" modified="Yes">nopruning</Option>
    <Option name="PruneStrength" modified="No">0.000000e+00</Option>
    <Option name="PruningValFraction" modified="No">5.000000e-01</Option>
    <Option name="SkipNormalization" modified="No">False</Option>
    <Option name="nEventsMin" modified="No">0</Option>
    <Option name="UseBaggedGrad" modified="No">False</Option>
    <Option name="GradBaggingFraction" modified="No">6.000000e-01</Option>
    <Option name="UseNTrainEvents" modified="No">0</Option>
    <Option name="NNodesMax" modified="No">0</Option>
  </Options>
  <Variables NVar="15">
    <Variable VarIndex="0" Expression="csv_jet0_mvaCHToCB" Label="csv_jet0_mvaCHToCB" Title="csv_jet0_mvaCHToCB" Unit="" Internal="csv_jet0_mvaCHToCB" Type="F" Min="6.45507812e-01" Max="9.99511719e-01"/>
    <Variable VarIndex="1" Expression="csv_jet1_mvaCHToCB" Label="csv_jet1_mvaCHToCB" Title="csv_jet1_mvaCHToCB" Unit="" Internal="csv_jet1_mvaCHToCB" Type="F" Min="6.32324219e-01" Max="9.99511719e-01"/>
    <Variable VarIndex="2" Expression="csv_jet2_mvaCHToCB" Label="csv_jet2_mvaCHToCB" Title="csv_jet2_mvaCHToCB" Unit="" Internal="csv_jet2_mvaCHToCB" Type="F" Min="-2.00000000e+00" Max="9.99023438e-01"/>
    <Variable VarIndex="3" Expression="(csv_jet0_mvaCHToCB+csv_jet1_mvaCHToCB+csv_jet2_mvaCHToCB)/3" Label="avg_csv_had_top" Title="avg_csv_had_top" Unit="" Internal="avg_csv_had_top" Type="F" Min="-2.38281250e-01" Max="9.99348938e-01"/>
    <Variable VarIndex="4" Expression="(csv_jet0_mvaCHToCB-(csv_jet0_mvaCHToCB+csv_jet1_mvaCHToCB+csv_jet2_mvaCHToCB)/3)*(csv_jet0_mvaCHToCB-(csv_jet0_mvaCHToCB+csv_jet1_mvaCHToCB+csv_jet2_mvaCHToCB)/3)" Label="2nd_moment_csv_jet0_mvaCHToCB" Title="2nd_moment_csv_jet0_mvaCHToCB" Unit="" Internal="2nd_moment_csv_jet0_mvaCHToCB" Type="F" Min="2.64909534e-08" Max="1.25612140e+00"/>
    <Variable VarIndex="5" Expression="(csv_jet1_mvaCHToCB-(csv_jet0_mvaCHToCB+csv_jet1_mvaCHToCB+csv_jet2_mvaCHToCB)/3)*(csv_jet1_mvaCHToCB-(csv_jet0_mvaCHToCB+csv_jet1_mvaCHToCB+csv_jet2_mvaCHToCB)/3)" Label="2nd_moment_csv_jet1_mvaCHToCB" Title="2nd_moment_csv_jet1_mvaCHToCB" Unit="" Internal="2nd_moment_csv_jet1_mvaCHToCB" Type="F" Min="0.00000000e+00" Max="9.99674499e-01"/>
    <Variable VarIndex="6" Expression="(csv_jet2_mvaCHToCB-(csv_jet0_mvaCHToCB+csv_jet1_mvaCHToCB+csv_jet2_mvaCHToCB)/3)*(csv_jet2_mvaCHToCB-(csv_jet0_mvaCHToCB+csv_jet1_mvaCHToCB+csv_jet2_mvaCHToCB)/3)" Label="2nd_moment_csv_jet2_mvaCHToCB" Title="2nd_moment_csv_jet2_mvaCHToCB" Unit="" Internal="2nd_moment_csv_jet2_mvaCHToCB" Type="F" Min="1.05963814e-07" Max="3.99869800e+00"/>
    <Variable VarIndex="7" Expression="dijet_deltaR0_mvaCHToCB" Label="dijet_deltaR0_mvaCHToCB" Title="dijet_deltaR0_mvaCHToCB" Unit="" Internal="dijet_deltaR0_mvaCHToCB" Type="F" Min="4.01153088e-01" Max="4.03128862e+00"/>
    <Variable VarIndex="8" Expression="dijet_deltaR1_mvaCHToCB" Label="dijet_deltaR1_mvaCHToCB" Title="dijet_deltaR1_mvaCHToCB" Unit="" Internal="dijet_deltaR1_mvaCHToCB" Type="F" Min="3.93819720e-01" Max="4.12124300e+00"/>
    <Variable VarIndex="9" Expression="Hplus_b_deltaR0_mvaCHToCB" Label="Hplus_b_deltaR0_mvaCHToCB" Title="Hplus_b_deltaR0_mvaCHToCB" Unit="" Internal="Hplus_b_deltaR0_mvaCHToCB" Type="F" Min="1.30773252e-02" Max="5.54840517e+00"/>
    <Variable VarIndex="10" Expression="Hplus_b_deltaR1_mvaCHToCB" Label="Hplus_b_deltaR1_mvaCHToCB" Title="Hplus_b_deltaR1_mvaCHToCB" Unit="" Internal="Hplus_b_deltaR1_mvaCHToCB" Type="F" Min="5.62552363e-03" Max="6.37099218e+00"/>
    <Variable VarIndex="11" Expression="bb_deltaR_mvaCHToCB" Label="bb_deltaR_mvaCHToCB" Title="bb_deltaR_mvaCHToCB" Unit="" Internal="bb_deltaR_mvaCHToCB" Type="F" Min="3.98529798e-01" Max="4.19434214e+00"/>
    <Variable VarIndex="12" Expression="min_deltaR_bb_event_mvaCHToCB" Label="min_deltaR_bb_event_mvaCHToCB" Title="min_deltaR_bb_event_mvaCHToCB" Unit="" Internal="min_deltaR_bb_event_mvaCHToCB" Type="F" Min="3.98529798e-01" Max="3.35280657e+00"/>
    <Variable VarIndex="13" Expression="HT_btagged_M" Label="HT_btagged_M" Title="HT_btagged_M" Unit="" Internal="HT_btagged_M" Type="F" Min="5.94062500e+01" Max="5.99125000e+02"/>
    <Variable VarIndex="14" Expression="HT_not_btagged_M" Label="HT_not_btagged_M" Title="HT_not_btagged_M" Unit="" Internal="HT_not_btagged_M" Type="F" Min="0.00000000e+00" Max="7.83500000e+02"/>
  </Variables>
  <Spectators NSpec="0"/>
  <Classes NClass="2">
    <Class Name="Signal" Index="0"/>
    <Class Name="Background" Index="1"/>
  </Classes>
  <Transformations NTransformations="2">
    <Transform Name="Normalize">
      <Selection>
        <Input NInputs="15">
          <Input Type="Variable" Label="csv_jet0_mvaCHToCB" Expression="csv_jet0_mvaCHToCB"/>
          <Input Type="Variable" Label="csv_jet1_mvaCHToCB" Expression="csv_jet1_mvaCHToCB"/>
          <Input Type="Variable" Label="csv_jet2_mvaCHToCB" Expression="csv_jet2_mvaCHToCB"/>
          <Input Type="Variable" Label="avg_csv_had_top" Expression="(csv_jet0_mvaCHToCB+csv_jet1_mvaCHToCB+csv_jet2_mvaCHToCB)/3"/>
          <Input Type="Variable" Label="2nd_moment_csv_jet0_mvaCHToCB" Expression="(csv_jet0_mvaCHToCB-(csv_jet0_mvaCHToCB+csv_jet1_mvaCHToCB+csv_jet2_mvaCHToCB)/3)*(csv_jet0_mvaCHToCB-(csv_jet0_mvaCHToCB+csv_jet1_mvaCHToCB+csv_jet2_mvaCHToCB)/3)"/>
          <Input Type="Variable" Label="2nd_moment_csv_jet1_mvaCHToCB" Expression="(csv_jet1_mvaCHToCB-(csv_jet0_mvaCHToCB+csv_jet1_mvaCHToCB+csv_jet2_mvaCHToCB)/3)*(csv_jet1_mvaCHToCB-(csv_jet0_mvaCHToCB+csv_jet1_mvaCHToCB+csv_jet2_mvaCHToCB)/3)"/>
          <Input Type="Variable" Label="2nd_moment_csv_jet2_mvaCHToCB" Expression="(csv_jet2_mvaCHToCB-(csv_jet0_mvaCHToCB+csv_jet1_mvaCHToCB+csv_jet2_mvaCHToCB)/3)*(csv_jet2_mvaCHToCB-(csv_jet0_mvaCHToCB+csv_jet1_mvaCHToCB+csv_jet2_mvaCHToCB)/3)"/>
          <Input Type="Variable" Label="dijet_deltaR0_mvaCHToCB" Expression="dijet_deltaR0_mvaCHToCB"/>
          <Input Type="Variable" Label="dijet_deltaR1_mvaCHToCB" Expression="dijet_deltaR1_mvaCHToCB"/>
          <Input Type="Variable" Label="Hplus_b_deltaR0_mvaCHToCB" Expression="Hplus_b_deltaR0_mvaCHToCB"/>
          <Input Type="Variable" Label="Hplus_b_deltaR1_mvaCHToCB" Expression="Hplus_b_deltaR1_mvaCHToCB"/>
          <Input Type="Variable" Label="bb_deltaR_mvaCHToCB" Expression="bb_deltaR_mvaCHToCB"/>
          <Input Type="Variable" Label="min_deltaR_bb_event_mvaCHToCB" Expression="min_deltaR_bb_event_mvaCHToCB"/>
          <Input Type="Variable" Label="HT_btagged_M" Expression="HT_btagged_M"/>
          <Input Type="Variable" Label="HT_not_btagged_M" Expression="HT_not_btagged_M"/>
        </Input>
        <Output NOutputs="15">
          <Output Type="Variable" Label="csv_jet0_mvaCHToCB" Expression="csv_jet0_mvaCHToCB"/>
          <Output Type="Variable" Label="csv_jet1_mvaCHToCB" Expression="csv_jet1_mvaCHToCB"/>
          <Output Type="Variable" Label="csv_jet2_mvaCHToCB" Expression="csv_jet2_mvaCHToCB"/>
          <Output Type="Variable" Label="avg_csv_had_top" Expression="(csv_jet0_mvaCHToCB+csv_jet1_mvaCHToCB+csv_jet2_mvaCHToCB)/3"/>
          <Output Type="Variable" Label="2nd_moment_csv_jet0_mvaCHToCB" Expression="(csv_jet0_mvaCHToCB-(csv_jet0_mvaCHToCB+csv_jet1_mvaCHToCB+csv_jet2_mvaCHToCB)/3)*(csv_jet0_mvaCHToCB-(csv_jet0_mvaCHToCB+csv_jet1_mvaCHToCB+csv_jet2_mvaCHToCB)/3)"/>
          <Output Type="Variable" Label="2nd_moment_csv_jet1_mvaCHToCB" Expression="(csv_jet1_mvaCHToCB-(csv_jet0_mvaCHToCB+csv_jet1_mvaCHToCB+csv_jet2_mvaCHToCB)/3)*(csv_jet1_mvaCHToCB-(csv_jet0_mvaCHToCB+csv_jet1_mvaCHToCB+csv_jet2_mvaCHToCB)/3)"/>
          <Output Type="Variable" Label="2nd_moment_csv_jet2_mvaCHToCB" Expression="(csv_jet2_mvaCHToCB-(csv_jet0_mvaCHToCB+csv_jet1_mvaCHToCB+csv_jet2_mvaCHToCB)/3)*(csv_jet2_mvaCHToCB-(csv_jet0_mvaCHToCB+csv_jet1_mvaCHToCB+csv_jet2_mvaCHToCB)/3)"/>
          <Output Type="Variable" Label="dijet_deltaR0_mvaCHToCB" Expression="dijet_deltaR0_mvaCHToCB"/>
          <Output Type="Variable" Label="dijet_deltaR1_mvaCHToCB" Expression="dijet_deltaR1_mvaCHToCB"/>
          <Output Type="Variable" Label="Hplus_b_deltaR0_mvaCHToCB" Expression="Hplus_b_deltaR0_mvaCHToCB"/>
          <Output Type="Variable" Label="Hplus_b_deltaR1_mvaCHToCB" Expression="Hplus_b_deltaR1_mvaCHToCB"/>
          <Output Type="Variable" Label="bb_deltaR_mvaCHToCB" Expression="bb_deltaR_mvaCHToCB"/>
          <Output Type="Variable" Label="min_deltaR_bb_event_mvaCHToCB" Expression="min_deltaR_bb_event_mvaCHToCB"/>
          <Output Type="Variable" Label="HT_btagged_M" Expression="HT_btagged_M"/>
          <Output Type="Variable" Label="HT_not_btagged_M" Expression="HT_not_btagged_M"/>
        </Output>
      </Selection>
      <Class ClassIndex="0">
        <Ranges>
          <Range Index="0" Min="6.4843750000000000e-01" Max="9.9951171875000000e-01"/>
          <Range Index="1" Min="6.3232421875000000e-01" Max="9.9951171875000000e-01"/>
          <Range Index="2" Min="-2.0000000000000000e+00" Max="9.9902343750000000e-01"/>
          <Range Index="3" Min="-2.3828125000000000e-01" Max="9.9934893846511841e-01"/>
          <Range Index="4" Min="2.6490953430879927e-08" Max="1.2499269247055054e+00"/>
          <Range Index="5" Min="0.0000000000000000e+00" Max="9.9967449903488159e-01"/>
          <Range Index="6" Min="1.0596381372351971e-07" Max="3.9986979961395264e+00"/>
          <Range Index="7" Min="4.0115308761596680e-01" Max="3.9394667148590088e+00"/>
          <Range Index="8" Min="4.0362772345542908e-01" Max="4.1212430000305176e+00"/>
          <Range Index="9" Min="1.3077325187623501e-02" Max="5.3453021049499512e+00"/>
          <Range Index="10" Min="5.6255236268043518e-03" Max="6.3709921836853027e+00"/>
          <Range Index="11" Min="4.0240934491157532e-01" Max="4.1943421363830566e+00"/>
          <Range Index="12" Min="4.0115308761596680e-01" Max="3.1679246425628662e+00"/>
          <Range Index="13" Min="5.9406250000000000e+01" Max="5.7528125000000000e+02"/>
          <Range Index="14" Min="0.0000000000000000e+00" Max="6.0450000000000000e+02"/>
        </Ranges>
      </Class>
      <Class ClassIndex="1">
        <Ranges>
          <Range Index="0" Min="6.4550781250000000e-01" Max="9.9951171875000000e-01"/>
          <Range Index="1" Min="6.3232421875000000e-01" Max="9.9951171875000000e-01"/>
          <Range Index="2" Min="-2.0000000000000000e+00" Max="9.5605468750000000e-01"/>
          <Range Index="3" Min="-2.0882160961627960e-01" Max="9.8307293653488159e-01"/>
          <Range Index="4" Min="2.7023421716876328e-04" Max="1.2561213970184326e+00"/>
          <Range Index="5" Min="0.0000000000000000e+00" Max="9.9934905767440796e-01"/>
          <Range Index="6" Min="7.2998472023755312e-04" Max="3.9973962306976318e+00"/>
          <Range Index="7" Min="4.0419521927833557e-01" Max="4.0312886238098145e+00"/>
          <Range Index="8" Min="3.9381971955299377e-01" Max="4.1101760864257812e+00"/>
          <Range Index="9" Min="3.2711233943700790e-02" Max="5.5484051704406738e+00"/>
          <Range Index="10" Min="2.4772113189101219e-02" Max="5.7532329559326172e+00"/>
          <Range Index="11" Min="3.9852979779243469e-01" Max="4.0813412666320801e+00"/>
          <Range Index="12" Min="3.9852979779243469e-01" Max="3.3528065681457520e+00"/>
          <Range Index="13" Min="6.1718750000000000e+01" Max="5.9912500000000000e+02"/>
          <Range Index="14" Min="0.0000000000000000e+00" Max="7.8350000000000000e+02"/>
        </Ranges>
      </Class>
      <Class ClassIndex="2">
        <Ranges>
          <Range Index="0" Min="6.4550781250000000e-01" Max="9.9951171875000000e-01"/>
          <Range Index="1" Min="6.3232421875000000e-01" Max="9.9951171875000000e-01"/>
          <Range Index="2" Min="-2.0000000000000000e+00" Max="9.9902343750000000e-01"/>
          <Range Index="3" Min="-2.3828125000000000e-01" Max="9.9934893846511841e-01"/>
          <Range Index="4" Min="2.6490953430879927e-08" Max="1.2561213970184326e+00"/>
          <Range Index="5" Min="0.0000000000000000e+00" Max="9.9967449903488159e-01"/>
          <Range Index="6" Min="1.0596381372351971e-07" Max="3.9986979961395264e+00"/>
          <Range Index="7" Min="4.0115308761596680e-01" Max="4.0312886238098145e+00"/>
          <Range Index="8" Min="3.9381971955299377e-01" Max="4.1212430000305176e+00"/>
          <Range Index="9" Min="1.3077325187623501e-02" Max="5.5484051704406738e+00"/>
          <Range Index="10" Min="5.6255236268043518e-03" Max="6.3709921836853027e+00"/>
          <Range Index="11" Min="3.9852979779243469e-01" Max="4.1943421363830566e+00"/>
          <Range Index="12" Min="3.9852979779243469e-01" Max="3.3528065681457520e+00"/>
          <Range Index="13" Min="5.9406250000000000e+01" Max="5.9912500000000000e+02"/>
          <Range Index="14" Min="0.0000000000000000e+00" Max="7.8350000000000000e+02"/>
        </Ranges>
      </Class>
    </Transform>
    <Transform Name="Decorrelation">
      <Selection>
        <Input NInputs="15">
          <Input Type="Variable" Label="csv_jet0_mvaCHToCB" Expression="csv_jet0_mvaCHToCB"/>
          <Input Type="Variable" Label="csv_jet1_mvaCHToCB" Expression="csv_jet1_mvaCHToCB"/>
          <Input Type="Variable" Label="csv_jet2_mvaCHToCB" Expression="csv_jet2_mvaCHToCB"/>
          <Input Type="Variable" Label="avg_csv_had_top" Expression="(csv_jet0_mvaCHToCB+csv_jet1_mvaCHToCB+csv_jet2_mvaCHToCB)/3"/>
          <Input Type="Variable" Label="2nd_moment_csv_jet0_mvaCHToCB" Expression="(csv_jet0_mvaCHToCB-(csv_jet0_mvaCHToCB+csv_jet1_mvaCHToCB+csv_jet2_mvaCHToCB)/3)*(csv_jet0_mvaCHToCB-(csv_jet0_mvaCHToCB+csv_jet1_mvaCHToCB+csv_jet2_mvaCHToCB)/3)"/>
          <Input Type="Variable" Label="2nd_moment_csv_jet1_mvaCHToCB" Expression="(csv_jet1_mvaCHToCB-(csv_jet0_mvaCHToCB+csv_jet1_mvaCHToCB+csv_jet2_mvaCHToCB)/3)*(csv_jet1_mvaCHToCB-(csv_jet0_mvaCHToCB+csv_jet1_mvaCHToCB+csv_jet2_mvaCHToCB)/3)"/>
          <Input Type="Variable" Label="2nd_moment_csv_jet2_mvaCHToCB" Expression="(csv_jet2_mvaCHToCB-(csv_jet0_mvaCHToCB+csv_jet1_mvaCHToCB+csv_jet2_mvaCHToCB)/3)*(csv_jet2_mvaCHToCB-(csv_jet0_mvaCHToCB+csv_jet1_mvaCHToCB+csv_jet2_mvaCHToCB)/3)"/>
          <Input Type="Variable" Label="dijet_deltaR0_mvaCHToCB" Expression="dijet_deltaR0_mvaCHToCB"/>
          <Input Type="Variable" Label="dijet_deltaR1_mvaCHToCB" Expression="dijet_deltaR1_mvaCHToCB"/>
          <Input Type="Variable" Label="Hplus_b_deltaR0_mvaCHToCB" Expression="Hplus_b_deltaR0_mvaCHToCB"/>
          <Input Type="Variable" Label="Hplus_b_deltaR1_mvaCHToCB" Expression="Hplus_b_deltaR1_mvaCHToCB"/>
          <Input Type="Variable" Label="bb_deltaR_mvaCHToCB" Expression="bb_deltaR_mvaCHToCB"/>
          <Input Type="Variable" Label="min_deltaR_bb_event_mvaCHToCB" Expression="min_deltaR_bb_event_mvaCHToCB"/>
          <Input Type="Variable" Label="HT_btagged_M" Expression="HT_btagged_M"/>
          <Input Type="Variable" Label="HT_not_btagged_M" Expression="HT_not_btagged_M"/>
        </Input>
        <Output NOutputs="15">
          <Output Type="Variable" Label="csv_jet0_mvaCHToCB" Expression="csv_jet0_mvaCHToCB"/>
          <Output Type="Variable" Label="csv_jet1_mvaCHToCB" Expression="csv_jet1_mvaCHToCB"/>
          <Output Type="Variable" Label="csv_jet2_mvaCHToCB" Expression="csv_jet2_mvaCHToCB"/>
          <Output Type="Variable" Label="avg_csv_had_top" Expression="(csv_jet0_mvaCHToCB+csv_jet1_mvaCHToCB+csv_jet2_mvaCHToCB)/3"/>
          <Output Type="Variable" Label="2nd_moment_csv_jet0_mvaCHToCB" Expression="(csv_jet0_mvaCHToCB-(csv_jet0_mvaCHToCB+csv_jet1_mvaCHToCB+csv_jet2_mvaCHToCB)/3)*(csv_jet0_mvaCHToCB-(csv_jet0_mvaCHToCB+csv_jet1_mvaCHToCB+csv_jet2_mvaCHToCB)/3)"/>
          <Output Type="Variable" Label="2nd_moment_csv_jet1_mvaCHToCB" Expression="(csv_jet1_mvaCHToCB-(csv_jet0_mvaCHToCB+csv_jet1_mvaCHToCB+csv_jet2_mvaCHToCB)/3)*(csv_jet1_mvaCHToCB-(csv_jet0_mvaCHToCB+csv_jet1_mvaCHToCB+csv_jet2_mvaCHToCB)/3)"/>
          <Output Type="Variable" Label="2nd_moment_csv_jet2_mvaCHToCB" Expression="(csv_jet2_mvaCHToCB-(csv_jet0_mvaCHToCB+csv_jet1_mvaCHToCB+csv_jet2_mvaCHToCB)/3)*(csv_jet2_mvaCHToCB-(csv_jet0_mvaCHToCB+csv_jet1_mvaCHToCB+csv_jet2_mvaCHToCB)/3)"/>
          <Output Type="Variable" Label="dijet_deltaR0_mvaCHToCB" Expression="dijet_deltaR0_mvaCHToCB"/>
          <Output Type="Variable" Label="dijet_deltaR1_mvaCHToCB" Expression="dijet_deltaR1_mvaCHToCB"/>
          <Output Type="Variable" Label="Hplus_b_deltaR0_mvaCHToCB" Expression="Hplus_b_deltaR0_mvaCHToCB"/>
          <Output Type="Variable" Label="Hplus_b_deltaR1_mvaCHToCB" Expression="Hplus_b_deltaR1_mvaCHToCB"/>
          <Output Type="Variable" Label="bb_deltaR_mvaCHToCB" Expression="bb_deltaR_mvaCHToCB"/>
          <Output Type="Variable" Label="min_deltaR_bb_event_mvaCHToCB" Expression="min_deltaR_bb_event_mvaCHToCB"/>
          <Output Type="Variable" Label="HT_btagged_M" Expression="HT_btagged_M"/>
          <Output Type="Variable" Label="HT_not_btagged_M" Expression="HT_not_btagged_M"/>
        </Output>
      </Selection>
      <Matrix Rows="15" Columns="15">
        3.900463007227566e+04 4.045203268057053e+04 3.304009687573452e+05 -4.090485406251801e+05 -5.431644913866873e+00 -4.755099248505488e-01 4.257671707782679e+00 -1.805379885338039e-02 1.565448000155017e-02 3.674693312781043e-02 6.462873940802240e-02 -2.254527915324280e-02 -2.526164699876683e-02 5.093641207569607e-02 -1.303045484157646e-01 4.045203268057060e+04 4.196167423622718e+04 3.427059559052738e+05 -4.242820820457410e+05 4.753960925223581e+00 6.252501061307747e-02 -4.706887806485295e+00 -2.621580057140363e-02 -9.573624062003966e-03 3.455416245568387e-02 -2.091780736699008e-02 5.716453860871808e-02 7.033532004475879e-02 6.451079753221881e-02 -1.359382498768301e-01 3.304009687573456e+05 3.427059559052737e+05 2.799076731256547e+06 -3.465340813885639e+06 3.165594842037793e+00 7.161029180789472e-01 1.727763893764034e+00 9.445280930237502e-03 7.663438175311570e-02 5.800550989782565e-03 2.316862660449191e-02 -1.552626771027184e-01 2.535197793491314e-01 -4.257071329476856e-01 7.943357050577408e-01 -4.090485406251805e+05 -4.242820820457409e+05 -3.465340813885640e+06 4.290213931303805e+06 1.870311311208278e+00 6.338464584183390e-02 2.395453159689513e+00 -4.875516128082747e-03 4.799797450523227e-02 -2.231093262088707e-03 5.248198419723724e-02 -1.082983635212201e-01 2.359415417931266e-01 -2.497372354996896e-01 6.130685189882907e-01 -5.431644913503555e+00 4.753960925600428e+00 3.165594845115736e+00 1.870311307397713e+00 8.432583348655049e+01 3.789525155887357e+01 -1.017226975851720e+02 -6.703188714763643e-03 7.589669032804763e-02 -2.934284446425198e-02 1.303386768679441e-02 -2.290185099328406e-02 7.231170670285725e-02 -7.726688452087097e-02 5.017549857952637e-01 -4.755099247112154e-01 6.252501075759523e-02 7.161029192593223e-01 6.338464438049889e-02 3.789525155887355e+01 5.821367515777723e+01 -8.270030497099103e+01 -1.030803400390891e-01 -3.625110748829971e-02 7.704751944736679e-02 1.702541236978007e-01 -1.178707353848275e-01 1.271718963839560e-01 5.184631078985032e-03 8.593533906533428e-02 4.257671707292271e+00 -4.706887806993961e+00 1.727763889609440e+00 2.395453164833024e+00 -1.017226975851720e+02 -8.270030497099104e+01 1.691484265464078e+02 1.408247267194509e-02 3.107872393669745e-02 -1.967602063376694e-02 -6.927403314686079e-02 -5.514938373646215e-02 6.294307949984727e-02 -3.915482606544093e-01 5.015421772155189e-01 -1.805379884863238e-02 -2.621580056647878e-02 9.445280970461475e-03 -4.875516177881394e-03 -6.703188714762803e-03 -1.030803400390887e-01 1.408247267194399e-02 3.463629666642430e+00 1.569681105285795e-02 2.387888738248389e-01 -2.229397823762070e+00 5.937018527219727e-01 6.452831557155059e-02 9.365514782359095e-01 1.218021551105034e+00 1.565448000500969e-02 -9.573624058415633e-03 7.663438178242359e-02 4.799797446894813e-02 7.589669032804765e-02 -3.625110748829986e-02 3.107872393669758e-02 1.569681105285783e-02 3.023652215996827e+00 -1.596377108315609e+00 -3.259718759521690e-03 6.106677980954466e-01 1.605575896348167e-01 6.388252300403298e-01 9.917904482230743e-01 3.674693312865728e-02 3.455416245656247e-02 5.800550996958202e-03 -2.231093270972340e-03 -2.934284446425162e-02 7.704751944736736e-02 -1.967602063376779e-02 2.387888738248388e-01 -1.596377108315609e+00 6.024173132457621e+00 -5.728363920783303e-01 -2.045482556363141e+00 -1.193349929030635e-01 1.242284891606147e-01 -7.464085478735860e-02 6.462873940486116e-02 -2.091780737026885e-02 2.316862657771162e-02 5.248198423039219e-02 1.303386768679447e-02 1.702541236978005e-01 -6.927403314686062e-02 -2.229397823762072e+00 -3.259718759521826e-03 -5.728363920783314e-01 7.261685176151442e+00 -1.316361956523110e+00 -1.501563140169010e-02 1.697502001285993e-01 1.187922304646741e-01 -2.254527914916838e-02 5.716453861294420e-02 -1.552626770682015e-01 -1.082983635639531e-01 -2.290185099328382e-02 -1.178707353848275e-01 -5.514938373646239e-02 5.937018527219731e-01 6.106677980954464e-01 -2.045482556363139e+00 -1.316361956523111e+00 4.163400522631204e+00 -8.525780411923783e-01 7.258201657067163e-01 8.497333983962432e-01 -2.526164699356678e-02 7.033532005015265e-02 2.535197793931856e-01 2.359415417385861e-01 7.231170670285764e-02 1.271718963839561e-01 6.294307949984690e-02 6.452831557155062e-02 1.605575896348167e-01 -1.193349929030639e-01 -1.501563140168997e-02 -8.525780411923779e-01 3.721609639765957e+00 5.495778681906314e-01 5.299819535293827e-02 5.093641209687198e-02 6.451079755418360e-02 -4.257071327682881e-01 -2.497372357217899e-01 -7.726688452086838e-02 5.184631078986562e-03 -3.915482606544132e-01 9.365514782359090e-01 6.388252300403298e-01 1.242284891606142e-01 1.697502001286001e-01 7.258201657067163e-01 5.495778681906309e-01 5.981567246430017e+00 2.739676532327766e+00 -1.303045483903826e-01 -1.359382498505030e-01 7.943357052727694e-01 6.130685187220779e-01 5.017549857952610e-01 8.593533906533135e-02 5.015421772155237e-01 1.218021551105033e+00 9.917904482230743e-01 -7.464085478735902e-02 1.187922304646747e-01 8.497333983962432e-01 5.299819535293768e-02 2.739676532327765e+00 1.095228099313665e+01 
      </Matrix>
      <Matrix Rows="15" Columns="15">
         -nan  -nan  -nan  -nan  -nan  -nan  -nan  -nan  -nan  -nan  -nan  -nan  -nan  -nan  -nan  -nan  -nan  -nan  -nan  -nan  -nan  -nan  -nan  -nan  -nan  -nan  -nan  -nan  -nan  -nan  -nan  -nan  -nan  -nan  -nan  -nan  -nan  -nan  -nan  -nan  -nan  -nan  -nan  -nan  -nan  -nan  -nan  -nan  -nan  -nan  -nan  -nan  -nan  -nan  -nan  -nan  -nan  -nan  -nan  -nan  -nan  -nan  -nan  -nan  -nan  -nan  -nan  -nan  -nan  -nan  -nan  -nan  -nan  -nan  -nan  -nan  -nan  -nan  -nan  -nan  -nan  -nan  -nan  -nan  -nan  -nan  -nan  -nan  -nan  -nan  -nan  -nan  -nan  -nan  -nan  -nan  -nan  -nan  -nan  -nan  -nan  -nan  -nan  -nan  -nan  -nan  -nan  -nan  -nan  -nan  -nan  -nan  -nan  -nan  -nan  -nan  -nan  -nan  -nan  -nan  -nan  -nan  -nan  -nan  -nan  -nan  -nan  -nan  -nan  -nan  -nan  -nan  -nan  -nan  -nan  -nan  -nan  -nan  -nan  -nan  -nan  -nan  -nan  -nan  -nan  -nan  -nan  -nan  -nan  -nan  -nan  -nan  -nan  -nan  -nan  -nan  -nan  -nan  -nan  -nan  -nan  -nan  -nan  -nan  -nan  -nan  -nan  -nan  -nan  -nan  -nan  -nan  -nan  -nan  -nan  -nan  -nan  -nan  -nan  -nan  -nan  -nan  -nan  -nan  -nan  -nan  -nan  -nan  -nan  -nan  -nan  -nan  -nan  -nan  -nan  -nan  -nan  -nan  -nan  -nan  -nan  -nan  -nan  -nan  -nan  -nan  -nan  -nan  -nan  -nan  -nan  -nan  -nan  -nan  -nan  -nan  -nan  -nan  -nan  -nan  -nan  -nan  -nan  -nan  -nan 
      </Matrix>
      <Matrix Rows="15" Columns="15">
        2.832047017883637e+04 2.937064510394583e+04 2.398925612448723e+05 -2.969963406450670e+05 -5.524894048750202e+00 -3.007526108539846e-01 4.127583874341135e+00 -5.775568830362088e-03 8.759946755690414e-03 8.612185053993394e-03 2.310991510375168e-02 -7.432370425972726e-03 -8.147828450997666e-03 4.322907275571578e-02 -9.790277284216589e-02 2.937064510394579e+04 3.046752003595953e+04 2.488268331952265e+05 -3.080567668306184e+05 4.690343990484568e+00 -1.005552624363393e-01 -4.653717185973174e+00 -4.702799577689615e-02 1.659787765157593e-03 4.566281727054288e-02 -3.125739625969938e-02 6.902109364942755e-02 8.336391400997938e-02 7.272730943259617e-02 -8.745748322781628e-02 2.398925612448724e+05 2.488268331952269e+05 2.032315392308849e+06 -2.516063763140192e+06 3.000661153975841e+00 5.454827428954185e-01 2.644512959161825e+00 -2.215683794793489e-02 8.144725677750747e-02 1.189760950480790e-02 4.488547428088201e-02 -9.387799523789944e-02 2.560360558340418e-01 -2.805296126623057e-01 6.719712080522348e-01 -2.969963406450669e+05 -3.080567668306186e+05 -2.516063763140191e+06 3.114978296627562e+06 2.505337270282679e+00 4.154975209424938e-01 1.972636341040641e+00 -8.424637021341837e-03 6.432621080528317e-02 2.592081644908480e-02 1.753130259170954e-02 -6.533633783906939e-02 2.341249590636463e-01 -1.754981836193097e-01 5.379053891391982e-01 -5.524894049208534e+00 4.690343990009162e+00 3.000661150092950e+00 2.505337275089810e+00 7.935292237627553e+01 3.524298868288123e+01 -9.528843217695666e+01 -6.087010712459778e-02 5.952074359952596e-02 -7.576908288264129e-02 7.304943651153588e-02 8.458521302186679e-03 7.785322018262231e-02 -7.959632590821872e-02 4.190009702487522e-01 -3.007526113507897e-01 -1.005552629516519e-01 5.454827386865878e-01 4.154975261531516e-01 3.524298868288117e+01 5.595824685730783e+01 -7.789136418588706e+01 -6.815178864929891e-02 -1.144193987613383e-02 -2.483574218575647e-02 1.001977813877764e-01 -3.260922340971322e-02 1.395452890684732e-01 3.027447597671643e-02 2.462127227859942e-02 4.127583875263189e+00 -4.653717185016773e+00 2.644512966973252e+00 1.972636331369841e+00 -9.528843217695660e+01 -7.789136418588708e+01 1.594882890507097e+02 3.931792533726713e-02 4.920204788246625e-02 5.511771704304876e-02 -1.127509351546366e-01 -9.184968826919104e-02 6.465830891832784e-02 -2.988946615135535e-01 5.472608695943221e-01 -5.775568831739422e-03 -4.702799577832462e-02 -2.215683795960243e-02 -8.424637006896937e-03 -6.087010712459742e-02 -6.815178864929908e-02 3.931792533726698e-02 3.368214158746769e+00 1.010318977473371e-01 9.500112549077434e-02 -2.028764155608615e+00 6.610659030614400e-01 1.607271015030088e-01 1.012856350175898e+00 1.147693491178300e+00 8.759946755391991e-03 1.659787764848025e-03 8.144725677497924e-02 6.432621080841321e-02 5.952074359952625e-02 -1.144193987613370e-02 4.920204788246586e-02 1.010318977473369e-01 2.997361931548714e+00 -1.506213440247782e+00 -1.577390000870498e-01 5.954691999672164e-01 7.277328215859291e-02 6.114416471093160e-01 9.638675954374819e-01 8.612185052700110e-03 4.566281726920154e-02 1.189760949385144e-02 2.592081646264921e-02 -7.576908288264241e-02 -2.483574218575729e-02 5.511771704305055e-02 9.500112549077452e-02 -1.506213440247782e+00 6.245507980943126e+00 -5.448048911504151e-01 -2.195341405240301e+00 -1.032124826504466e-01 1.252877818892335e-01 -5.048338084559049e-02 2.310991510614919e-02 -3.125739625721307e-02 4.488547430119091e-02 1.753130256656629e-02 7.304943651153380e-02 1.001977813877753e-01 -1.127509351546339e-01 -2.028764155608615e+00 -1.577390000870496e-01 -5.448048911504150e-01 6.835207868530832e+00 -1.259114341146739e+00 -7.714731256858134e-02 1.300939037083814e-01 1.917357665690348e-01 -7.432370425464459e-03 6.902109364995480e-02 -9.387799523359261e-02 -6.533633784440092e-02 8.458521302187660e-03 -3.260922340971261e-02 -9.184968826919229e-02 6.610659030614400e-01 5.954691999672161e-01 -2.195341405240302e+00 -1.259114341146739e+00 4.263088866228393e+00 -7.993516364725811e-01 8.448915151547437e-01 7.917436586716676e-01 -8.147828451067644e-03 8.336391400990668e-02 2.560360558334486e-01 2.341249590643807e-01 7.785322018262109e-02 1.395452890684721e-01 6.465830891832991e-02 1.607271015030087e-01 7.277328215859297e-02 -1.032124826504468e-01 -7.714731256858116e-02 -7.993516364725812e-01 3.425623050835380e+00 4.539709395006977e-01 9.256119908104761e-02 4.322907274860315e-02 7.272730942521850e-02 -2.805296127225625e-01 -1.754981835447099e-01 -7.959632590821986e-02 3.027447597671550e-02 -2.988946615135518e-01 1.012856350175897e+00 6.114416471093161e-01 1.252877818892330e-01 1.300939037083810e-01 8.448915151547443e-01 4.539709395006977e-01 6.230996322391131e+00 2.544102260693515e+00 -9.790277283748408e-02 -8.745748322296021e-02 6.719712080918976e-01 5.379053890900942e-01 4.190009702487525e-01 2.462127227859962e-02 5.472608695943215e-01 1.147693491178300e+00 9.638675954374820e-01 -5.048338084559101e-02 1.917357665690345e-01 7.917436586716680e-01 9.256119908104751e-02 2.544102260693515e+00 1.134167239624486e+01 
      </Matrix>
    </Transform>
  </Transformations>
  <MVAPdfs/>
  <Weights NTrees="800" AnalysisType="1">
    <BinaryTree type="DecisionTree" boostWeight="1.0000000000000000e+00" itree="0">
      <Node pos="s" depth="0" NCoef="0" IVar="1" Cut="6.0729089355468750e+02" cType="1" res="1.3070249635198372e-13" rms="5.0000000000000000e-01" purity="5.0000000000000000e-01" nType="0">
        <Node pos="l" depth="1" NCoef="0" IVar="12" Cut="-1.8220523595809937e+00" cType="1" res="-1.0677344352006912e-01" rms="4.8846641182899475e-01" purity="3.9322656393051147e-01" nType="0">
          <Node pos="l" depth="2" NCoef="0" IVar="-1" Cut="0.0000000000000000e+00" cType="1" res="-8.5136003326624632e-04" rms="4.9999982118606567e-01" purity="4.9957433342933655e-01" nType="-99"/>
          <Node pos="r" depth="2" NCoef="0" IVar="-1" Cut="0.0000000000000000e+00" cType="1" res="-3.8369932770729065e-01" rms="4.6172904968261719e-01" purity="3.0815032124519348e-01" nType="-99"/>
        </Node>
        <Node pos="r" depth="1" NCoef="0" IVar="12" Cut="-1.7871152162551880e+00" cType="1" res="1.4810980856418610e-01" rms="4.7755992412567139e-01" purity="6.4810979366302490e-01" nType="0">
          <Node pos="l" depth="2" NCoef="0" IVar="-1" Cut="0.0000000000000000e+00" cType="1" res="5.0463706254959106e-01" rms="4.3166580796241760e-01" purity="7.5231850147247314e-01" nType="-99"/>
          <Node pos="r" depth="2" NCoef="0" IVar="-1" Cut="0.0000000000000000e+00" cType="1" res="9.7481429576873779e-02" rms="4.9761867523193359e-01" purity="5.4874074459075928e-01" nType="-99"/>
        </Node>
      </Node>
    </BinaryTree>
    <BinaryTree type="DecisionTree" boostWeight="1.0000000000000000e+00" itree="1">
      <Node pos="s" depth="0" NCoef="0" IVar="3" Cut="-6.1461557617187500e+03" cType="1" res="1.1375549947842956e-03" rms="4.7401681542396545e-01" purity="5.0000000000000000e-01" nType="0">
        <Node pos="l" depth="1" NCoef="0" IVar="9" Cut="-1.5218967199325562e+00" cType="1" res="-5.2905842661857605e-02" rms="4.7121390700340271e-01" purity="4.3866404891014099e-01" nType="0">
          <Node pos="l" depth="2" NCoef="0" IVar="-1" Cut="0.0000000000000000e+00" cType="1" res="1.3378122448921204e-01" rms="4.6164837479591370e-01" purity="5.7439941167831421e-01" nType="-99"/>
          <Node pos="r" depth="2" NCoef="0" IVar="11" Cut="-1.4887629747390747e+00" cType="1" res="-9.8316013813018799e-02" rms="4.6731361746788025e-01" purity="3.8444802165031433e-01" nType="0">
            <Node pos="l" depth="3" NCoef="0" IVar="-1" Cut="0.0000000000000000e+00" cType="1" res="-5.1588438451290131e-02" rms="4.6983245015144348e-01" purity="4.7401028871536255e-01" nType="-99"/>
            <Node pos="r" depth="3" NCoef="0" IVar="-1" Cut="0.0000000000000000e+00" cType="1" res="-3.2168450951576233e-01" rms="4.5918050408363342e-01" purity="3.2625001668930054e-01" nType="-99"/>
          </Node>
        </Node>
        <Node pos="r" depth="1" NCoef="0" IVar="-1" Cut="0.0000000000000000e+00" cType="1" res="4.0772673487663269e-01" rms="4.3589431047439575e-01" purity="7.0855009555816650e-01" nType="-99"/>
      </Node>
    </BinaryTree>
    <BinaryTree type="DecisionTree" boostWeight="1.0000000000000000e+00" itree="2">
      <Node pos="s" depth="0" NCoef="0" IVar="8" Cut="-2.4693746566772461e+00" cType="1" res="2.8933008434250951e-04" rms="4.5652851462364197e-01" purity="5.0000000000000000e-01" nType="0">
        <Node pos="l" depth="1" NCoef="0" IVar="-1" Cut="0.0000000000000000e+00" cType="1" res="2.8807613253593445e-01" rms="4.4172376394271851e-01" purity="6.3561415672302246e-01" nType="-99"/>
        <Node pos="r" depth="1" NCoef="0" IVar="11" Cut="-1.7947772741317749e+00" cType="1" res="-3.2054364681243896e-02" rms="4.5499193668365479e-01" purity="4.6372866630554199e-01" nType="0">
          <Node pos="l" depth="2" NCoef="0" IVar="-1" Cut="0.0000000000000000e+00" cType="1" res="8.4023475646972656e-02" rms="4.4718500971794128e-01" purity="6.4132392406463623e-01" nType="-99"/>
          <Node pos="r" depth="2" NCoef="0" IVar="3" Cut="-6.1465380859375000e+03" cType="1" res="-5.7086996734142303e-02" rms="4.5528984069824219e-01" purity="3.9824065566062927e-01" nType="0">
            <Node pos="l" depth="3" NCoef="0" IVar="-1" Cut="0.0000000000000000e+00" cType="1" res="-2.0540356636047363e-01" rms="4.4560664892196655e-01" purity="3.1945192813873291e-01" nType="-99"/>
            <Node pos="r" depth="3" NCoef="0" IVar="-1" Cut="0.0000000000000000e+00" cType="1" res="-4.4921565800905228e-02" rms="4.6436700224876404e-01" purity="4.9761718511581421e-01" nType="-99"/>
          </Node>
        </Node>
      </Node>
    </BinaryTree>
    <BinaryTree type="DecisionTree" boostWeight="1.0000000000000000e+00" itree="3">
      <Node pos="s" depth="0" NCoef="0" IVar="13" Cut="-7.8624219894409180e+00" cType="1" res="-5.1355321193113923e-04" rms="4.4965991377830505e-01" purity="5.0000000000000000e-01" nType="0">
        <Node pos="l" depth="1" NCoef="0" IVar="-1" Cut="0.0000000000000000e+00" cType="1" res="1.6208349168300629e-01" rms="4.4600838422775269e-01" purity="6.2725454568862915e-01" nType="-99"/>
        <Node pos="r" depth="1" NCoef="0" IVar="0" Cut="5.8938818359375000e+02" cType="1" res="-1.9633157178759575e-02" rms="4.4887289404869080e-01" purity="4.6358564496040344e-01" nType="0">
          <Node pos="l" depth="2" NCoef="0" IVar="-1" Cut="0.0000000000000000e+00" cType="1" res="-1.6469828784465790e-01" rms="4.4017618894577026e-01" purity="4.2199212312698364e-01" nType="-99"/>
          <Node pos="r" depth="2" NCoef="0" IVar="7" Cut="-1.8580476045608521e+00" cType="1" res="8.3432701649144292e-04" rms="4.5146355032920837e-01" purity="4.8317241668701172e-01" nType="0">
            <Node pos="l" depth="3" NCoef="0" IVar="-1" Cut="0.0000000000000000e+00" cType="1" res="-6.5961964428424835e-02" rms="4.4083669781684875e-01" purity="4.4085893034934998e-01" nType="-99"/>
            <Node pos="r" depth="3" NCoef="0" IVar="-1" Cut="0.0000000000000000e+00" cType="1" res="8.6119361221790314e-02" rms="4.6266087889671326e-01" purity="5.3875333070755005e-01" nType="-99"/>
          </Node>
        </Node>
      </Node>
    </BinaryTree>
    <BinaryTree type="DecisionTree" boostWeight="1.0000000000000000e+00" itree="4">
      <Node pos="s" depth="0" NCoef="0" IVar="1" Cut="6.0610998535156250e+02" cType="1" res="1.1189020733581856e-04" rms="4.4638416171073914e-01" purity="5.0000000000000000e-01" nType="0">
        <Node pos="l" depth="1" NCoef="0" IVar="-1" Cut="0.0000000000000000e+00" cType="1" res="-1.4009454846382141e-01" rms="4.5070782303810120e-01" purity="3.5551130771636963e-01" nType="-99"/>
        <Node pos="r" depth="1" NCoef="0" IVar="2" Cut="4.9604028320312500e+03" cType="1" res="1.8422981724143028e-02" rms="4.4343554973602295e-01" purity="5.4610311985015869e-01" nType="0">
          <Node pos="l" depth="2" NCoef="0" IVar="14" Cut="-1.2640378952026367e+01" cType="1" res="-1.5099456068128347e-03" rms="4.5539975166320801e-01" purity="4.7783061861991882e-01" nType="0">
            <Node pos="l" depth="3" NCoef="0" IVar="-1" Cut="0.0000000000000000e+00" cType="1" res="3.3519356511533260e-03" rms="4.6165162324905396e-01" purity="4.6460807323455811e-01" nType="-99"/>
            <Node pos="r" depth="3" NCoef="0" IVar="-1" Cut="0.0000000000000000e+00" cType="1" res="-1.0877626948058605e-02" rms="4.4901660084724426e-01" purity="4.9110639095306396e-01" nType="-99"/>
          </Node>
          <Node pos="r" depth="2" NCoef="0" IVar="-1" Cut="0.0000000000000000e+00" cType="1" res="1.1629992723464966e-01" rms="4.2708763480186462e-01" purity="6.2959533929824829e-01" nType="-99"/>
        </Node>
      </Node>
    </BinaryTree>
    <BinaryTree type="DecisionTree" boostWeight="1.0000000000000000e+00" itree="5">
      <Node pos="s" depth="0" NCoef="0" IVar="1" Cut="6.0806457519531250e+02" cType="1" res="-2.7389112801756710e-05" rms="4.4446063041687012e-01" purity="5.0000000000000000e-01" nType="0">
        <Node pos="l" depth="1" NCoef="0" IVar="1" Cut="6.0730145263671875e+02" cType="1" res="-9.6064042299985886e-03" rms="4.5128801465034485e-01" purity="4.4630536437034607e-01" nType="0">
          <Node pos="l" depth="2" NCoef="0" IVar="9" Cut="-1.0035479068756104e+00" cType="1" res="6.7758690565824509e-03" rms="4.5168909430503845e-01" purity="3.9430364966392517e-01" nType="0">
            <Node pos="l" depth="3" NCoef="0" IVar="-1" Cut="0.0000000000000000e+00" cType="1" res="-4.0108926594257355e-02" rms="4.4367346167564392e-01" purity="4.0180581808090210e-01" nType="-99"/>
            <Node pos="r" depth="3" NCoef="0" IVar="-1" Cut="0.0000000000000000e+00" cType="1" res="1.0217659175395966e-01" rms="4.6061918139457703e-01" purity="3.8398560881614685e-01" nType="-99"/>
          </Node>
          <Node pos="r" depth="2" NCoef="0" IVar="-1" Cut="0.0000000000000000e+00" cType="1" res="-1.4474913477897644e-01" rms="4.4707685708999634e-01" purity="5.8979338407516479e-01" nType="-99"/>
        </Node>
        <Node pos="r" depth="1" NCoef="0" IVar="-1" Cut="0.0000000000000000e+00" cType="1" res="1.0080664604902267e-01" rms="4.1467651724815369e-01" purity="7.0928663015365601e-01" nType="-99"/>
      </Node>
    </BinaryTree>
    <BinaryTree type="DecisionTree" boostWeight="1.0000000000000000e+00" itree="6">
      <Node pos="s" depth="0" NCoef="0" IVar="14" Cut="-1.3097856521606445e+01" cType="1" res="2.6149200857616961e-04" rms="4.4279301166534424e-01" purity="5.0000000000000000e-01" nType="0">
        <Node pos="l" depth="1" NCoef="0" IVar="-1" Cut="0.0000000000000000e+00" cType="1" res="9.0083904564380646e-02" rms="4.4796171784400940e-01" purity="5.4836016893386841e-01" nType="-99"/>
        <Node pos="r" depth="1" NCoef="0" IVar="9" Cut="-1.2627223730087280e+00" cType="1" res="-9.2578679323196411e-03" rms="4.4086736440658569e-01" purity="4.8648408055305481e-01" nType="0">
          <Node pos="l" depth="2" NCoef="0" IVar="-1" Cut="0.0000000000000000e+00" cType="1" res="3.8643952459096909e-02" rms="4.2697763442993164e-01" purity="5.7129877805709839e-01" nType="-99"/>
          <Node pos="r" depth="2" NCoef="0" IVar="13" Cut="-7.3172726631164551e+00" cType="1" res="-2.6626043021678925e-02" rms="4.4970712065696716e-01" purity="4.2599394917488098e-01" nType="0">
            <Node pos="l" depth="3" NCoef="0" IVar="-1" Cut="0.0000000000000000e+00" cType="1" res="-1.7137797549366951e-02" rms="4.5391616225242615e-01" purity="5.0196063518524170e-01" nType="-99"/>
            <Node pos="r" depth="3" NCoef="0" IVar="-1" Cut="0.0000000000000000e+00" cType="1" res="-1.1683522909879684e-01" rms="4.4503289461135864e-01" purity="3.5639047622680664e-01" nType="-99"/>
          </Node>
        </Node>
      </Node>
    </BinaryTree>
    <BinaryTree type="DecisionTree" boostWeight="1.0000000000000000e+00" itree="7">
      <Node pos="s" depth="0" NCoef="0" IVar="1" Cut="6.0659863281250000e+02" cType="1" res="-1.8736851052381098e-04" rms="4.4176647067070007e-01" purity="5.0000000000000000e-01" nType="0">
        <Node pos="l" depth="1" NCoef="0" IVar="-1" Cut="0.0000000000000000e+00" cType="1" res="-4.8423338681459427e-02" rms="4.4753164052963257e-01" purity="3.6235183477401733e-01" nType="-99"/>
        <Node pos="r" depth="1" NCoef="0" IVar="12" Cut="-1.3628957271575928e+00" cType="1" res="1.1791734024882317e-02" rms="4.3762403726577759e-01" purity="5.8791738748550415e-01" nType="0">
          <Node pos="l" depth="2" NCoef="0" IVar="-1" Cut="0.0000000000000000e+00" cType="1" res="7.4847519397735596e-02" rms="4.2571300268173218e-01" purity="6.7015939950942993e-01" nType="-99"/>
          <Node pos="r" depth="2" NCoef="0" IVar="-1" Cut="0.0000000000000000e+00" cType="1" res="-3.8565684109926224e-02" rms="4.5635250210762024e-01" purity="4.4482305645942688e-01" nType="-99"/>
        </Node>
      </Node>
    </BinaryTree>
    <BinaryTree type="DecisionTree" boostWeight="1.0000000000000000e+00" itree="8">
      <Node pos="s" depth="0" NCoef="0" IVar="2" Cut="4.9601215820312500e+03" cType="1" res="9.6365431090816855e-05" rms="4.4102811813354492e-01" purity="5.0000000000000000e-01" nType="0">
        <Node pos="l" depth="1" NCoef="0" IVar="-1" Cut="0.0000000000000000e+00" cType="1" res="-6.5782412886619568e-02" rms="4.5604601502418518e-01" purity="4.8086977005004883e-01" nType="-99"/>
        <Node pos="r" depth="1" NCoef="0" IVar="8" Cut="-1.0806856155395508e+00" cType="1" res="7.6177921146154404e-03" rms="4.3634185194969177e-01" purity="5.0547748804092407e-01" nType="0">
          <Node pos="l" depth="2" NCoef="0" IVar="11" Cut="-1.1869714260101318e+00" cType="1" res="2.2532623261213303e-02" rms="4.2977023124694824e-01" purity="5.4592043161392212e-01" nType="0">
            <Node pos="l" depth="3" NCoef="0" IVar="-1" Cut="0.0000000000000000e+00" cType="1" res="1.1567056179046631e-01" rms="4.2453113198280334e-01" purity="6.1027437448501587e-01" nType="-99"/>
            <Node pos="r" depth="3" NCoef="0" IVar="-1" Cut="0.0000000000000000e+00" cType="1" res="-1.4496722258627415e-02" rms="4.3540596961975098e-01" purity="4.5666629076004028e-01" nType="-99"/>
          </Node>
          <Node pos="r" depth="2" NCoef="0" IVar="-1" Cut="0.0000000000000000e+00" cType="1" res="-6.2823764979839325e-02" rms="4.4802314043045044e-01" purity="4.2209619283676147e-01" nType="-99"/>
        </Node>
      </Node>
    </BinaryTree>
    <BinaryTree type="DecisionTree" boostWeight="1.0000000000000000e+00" itree="9">
      <Node pos="s" depth="0" NCoef="0" IVar="3" Cut="-6.1461557617187500e+03" cType="1" res="1.0849212412722409e-04" rms="4.3987727165222168e-01" purity="5.0000000000000000e-01" nType="0">
        <Node pos="l" depth="1" NCoef="0" IVar="3" Cut="-6.1465239257812500e+03" cType="1" res="9.4362143427133560e-03" rms="4.4518575072288513e-01" purity="4.3866404891014099e-01" nType="0">
          <Node pos="l" depth="2" NCoef="0" IVar="6" Cut="1.7039049148559570e+01" cType="1" res="-3.4197613131254911e-03" rms="4.4430235028266907e-01" purity="4.1187861561775208e-01" nType="0">
            <Node pos="l" depth="3" NCoef="0" IVar="-1" Cut="0.0000000000000000e+00" cType="1" res="-6.2125425785779953e-02" rms="4.3422442674636841e-01" purity="4.3145072460174561e-01" nType="-99"/>
            <Node pos="r" depth="3" NCoef="0" IVar="-1" Cut="0.0000000000000000e+00" cType="1" res="3.8059670478105545e-02" rms="4.5237311720848083e-01" purity="3.9436939358711243e-01" nType="-99"/>
          </Node>
          <Node pos="r" depth="2" NCoef="0" IVar="-1" Cut="0.0000000000000000e+00" cType="1" res="1.0986533761024475e-01" rms="4.4575420022010803e-01" purity="5.0709909200668335e-01" nType="-99"/>
        </Node>
        <Node pos="r" depth="1" NCoef="0" IVar="-1" Cut="0.0000000000000000e+00" cType="1" res="-9.5853924751281738e-02" rms="4.1978013515472412e-01" purity="7.0855009555816650e-01" nType="-99"/>
      </Node>
    </BinaryTree>
    <BinaryTree type="DecisionTree" boostWeight="1.0000000000000000e+00" itree="10">
      <Node pos="s" depth="0" NCoef="0" IVar="2" Cut="4.9610053710937500e+03" cType="1" res="1.3737646804656833e-04" rms="4.3892920017242432e-01" purity="5.0000000000000000e-01" nType="0">
        <Node pos="l" depth="1" NCoef="0" IVar="9" Cut="-8.7396067380905151e-01" cType="1" res="-6.3915010541677475e-03" rms="4.4651603698730469e-01" purity="4.4588977098464966e-01" nType="0">
          <Node pos="l" depth="2" NCoef="0" IVar="7" Cut="-2.2005960941314697e+00" cType="1" res="-1.9676623865962029e-02" rms="4.3684574961662292e-01" purity="4.4920501112937927e-01" nType="0">
            <Node pos="l" depth="3" NCoef="0" IVar="-1" Cut="0.0000000000000000e+00" cType="1" res="-1.0993176698684692e-01" rms="4.2009434103965759e-01" purity="3.7939566373825073e-01" nType="-99"/>
            <Node pos="r" depth="3" NCoef="0" IVar="-1" Cut="0.0000000000000000e+00" cType="1" res="8.3908216765848920e-06" rms="4.5207989215850830e-01" purity="5.1883304119110107e-01" nType="-99"/>
          </Node>
          <Node pos="r" depth="2" NCoef="0" IVar="-1" Cut="0.0000000000000000e+00" cType="1" res="4.9425784498453140e-02" rms="4.6355360746383667e-01" purity="4.3948411941528320e-01" nType="-99"/>
        </Node>
        <Node pos="r" depth="1" NCoef="0" IVar="-1" Cut="0.0000000000000000e+00" cType="1" res="6.9214202463626862e-02" rms="4.0830883383750916e-01" purity="7.0285189151763916e-01" nType="-99"/>
      </Node>
    </BinaryTree>
    <BinaryTree type="DecisionTree" boostWeight="1.0000000000000000e+00" itree="11">
      <Node pos="s" depth="0" NCoef="0" IVar="13" Cut="-7.6329846382141113e+00" cType="1" res="-9.6997457148972899e-05" rms="4.3789771199226379e-01" purity="5.0000000000000000e-01" nType="0">
        <Node pos="l" depth="1" NCoef="0" IVar="-1" Cut="0.0000000000000000e+00" cType="1" res="-4.4749498367309570e-02" rms="4.3939602375030518e-01" purity="5.7540774345397949e-01" nType="-99"/>
        <Node pos="r" depth="1" NCoef="0" IVar="12" Cut="-2.1535122394561768e+00" cType="1" res="8.0714402720332146e-03" rms="4.3692415952682495e-01" purity="4.6270909905433655e-01" nType="0">
          <Node pos="l" depth="2" NCoef="0" IVar="-1" Cut="0.0000000000000000e+00" cType="1" res="1.1033314466476440e-01" rms="4.3068367242813110e-01" purity="6.2031668424606323e-01" nType="-99"/>
          <Node pos="r" depth="2" NCoef="0" IVar="10" Cut="-2.1867821216583252e+00" cType="1" res="-6.6099031828343868e-03" rms="4.3878769874572754e-01" purity="3.9444440603256226e-01" nType="0">
            <Node pos="l" depth="3" NCoef="0" IVar="-1" Cut="0.0000000000000000e+00" cType="1" res="-6.1945717781782150e-02" rms="4.3215009570121765e-01" purity="3.6177438497543335e-01" nType="-99"/>
            <Node pos="r" depth="3" NCoef="0" IVar="-1" Cut="0.0000000000000000e+00" cType="1" res="2.5332463905215263e-02" rms="4.4499284029006958e-01" purity="4.2833000421524048e-01" nType="-99"/>
          </Node>
        </Node>
      </Node>
    </BinaryTree>
    <BinaryTree type="DecisionTree" boostWeight="1.0000000000000000e+00" itree="12">
      <Node pos="s" depth="0" NCoef="0" IVar="12" Cut="-1.7557604312896729e+00" cType="1" res="7.0809983299113810e-05" rms="4.3721896409988403e-01" purity="5.0000000000000000e-01" nType="0">
        <Node pos="l" depth="1" NCoef="0" IVar="9" Cut="-1.2989915609359741e+00" cType="1" res="-1.6411386430263519e-02" rms="4.3254712224006653e-01" purity="6.0123795270919800e-01" nType="0">
          <Node pos="l" depth="2" NCoef="0" IVar="-1" Cut="0.0000000000000000e+00" cType="1" res="2.2426305338740349e-02" rms="4.0825068950653076e-01" purity="6.9174575805664062e-01" nType="-99"/>
          <Node pos="r" depth="2" NCoef="0" IVar="-1" Cut="0.0000000000000000e+00" cType="1" res="-9.2037625610828400e-02" rms="4.4935026764869690e-01" purity="5.3204935789108276e-01" nType="-99"/>
        </Node>
        <Node pos="r" depth="1" NCoef="0" IVar="13" Cut="-7.3481488227844238e+00" cType="1" res="1.5534877777099609e-02" rms="4.4099754095077515e-01" purity="4.0501561760902405e-01" nType="0">
          <Node pos="l" depth="2" NCoef="0" IVar="-1" Cut="0.0000000000000000e+00" cType="1" res="8.3133243024349213e-02" rms="4.4085946679115295e-01" purity="4.8804825544357300e-01" nType="-99"/>
          <Node pos="r" depth="2" NCoef="0" IVar="-1" Cut="0.0000000000000000e+00" cType="1" res="4.1419519111514091e-03" rms="4.4062629342079163e-01" purity="3.3452799916267395e-01" nType="-99"/>
        </Node>
      </Node>
    </BinaryTree>
    <BinaryTree type="DecisionTree" boostWeight="1.0000000000000000e+00" itree="13">
      <Node pos="s" depth="0" NCoef="0" IVar="10" Cut="-2.7373018264770508e+00" cType="1" res="3.2494132028659806e-05" rms="4.3662565946578979e-01" purity="5.0000000000000000e-01" nType="0">
        <Node pos="l" depth="1" NCoef="0" IVar="-1" Cut="0.0000000000000000e+00" cType="1" res="6.6607415676116943e-02" rms="4.3783289194107056e-01" purity="4.7618559002876282e-01" nType="-99"/>
        <Node pos="r" depth="1" NCoef="0" IVar="14" Cut="-1.2261240005493164e+01" cType="1" res="-7.4581196531653404e-03" rms="4.3598249554634094e-01" purity="5.0722080469131470e-01" nType="0">
          <Node pos="l" depth="2" NCoef="0" IVar="13" Cut="-7.3578820228576660e+00" cType="1" res="4.0481006726622581e-03" rms="4.3858268857002258e-01" purity="4.9978461861610413e-01" nType="0">
            <Node pos="l" depth="3" NCoef="0" IVar="-1" Cut="0.0000000000000000e+00" cType="1" res="-4.2185086756944656e-02" rms="4.4605129957199097e-01" purity="5.1955753564834595e-01" nType="-99"/>
            <Node pos="r" depth="3" NCoef="0" IVar="-1" Cut="0.0000000000000000e+00" cType="1" res="5.5000100284814835e-02" rms="4.3201196193695068e-01" purity="4.8435097932815552e-01" nType="-99"/>
          </Node>
          <Node pos="r" depth="2" NCoef="0" IVar="-1" Cut="0.0000000000000000e+00" cType="1" res="-8.6560726165771484e-02" rms="4.2933642864227295e-01" purity="5.2312135696411133e-01" nType="-99"/>
        </Node>
      </Node>
    </BinaryTree>
    <BinaryTree type="DecisionTree" boostWeight="1.0000000000000000e+00" itree="14">
      <Node pos="s" depth="0" NCoef="0" IVar="12" Cut="-2.4186801910400391e+00" cType="1" res="7.5899720286543015e-06" rms="4.3600252270698547e-01" purity="5.0000000000000000e-01" nType="0">
        <Node pos="l" depth="1" NCoef="0" IVar="-1" Cut="0.0000000000000000e+00" cType="1" res="5.7484854012727737e-02" rms="4.4423267245292664e-01" purity="6.0438776016235352e-01" nType="-99"/>
        <Node pos="r" depth="1" NCoef="0" IVar="8" Cut="-1.8062212467193604e+00" cType="1" res="-5.9393863193690777e-03" rms="4.3355220556259155e-01" purity="4.7168678045272827e-01" nType="0">
          <Node pos="l" depth="2" NCoef="0" IVar="-1" Cut="0.0000000000000000e+00" cType="1" res="3.0798509716987610e-02" rms="4.2601257562637329e-01" purity="5.3947710990905762e-01" nType="-99"/>
          <Node pos="r" depth="2" NCoef="0" IVar="-1" Cut="0.0000000000000000e+00" cType="1" res="-5.7740289717912674e-02" rms="4.3948414921760559e-01" purity="4.1230708360671997e-01" nType="-99"/>
        </Node>
      </Node>
    </BinaryTree>
    <BinaryTree type="DecisionTree" boostWeight="1.0000000000000000e+00" itree="15">
      <Node pos="s" depth="0" NCoef="0" IVar="0" Cut="5.8938818359375000e+02" cType="1" res="-1.7763562937034294e-05" rms="4.3545266985893250e-01" purity="5.0000000000000000e-01" nType="0">
        <Node pos="l" depth="1" NCoef="0" IVar="-1" Cut="0.0000000000000000e+00" cType="1" res="-4.6398408710956573e-02" rms="4.3491086363792419e-01" purity="4.4788494706153870e-01" nType="-99"/>
        <Node pos="r" depth="1" NCoef="0" IVar="5" Cut="-1.2622906684875488e+01" cType="1" res="7.4247792363166809e-03" rms="4.3549829721450806e-01" purity="5.2387601137161255e-01" nType="0">
          <Node pos="l" depth="2" NCoef="0" IVar="2" Cut="4.9604008789062500e+03" cType="1" res="-2.4122032336890697e-03" rms="4.3718531727790833e-01" purity="4.9987542629241943e-01" nType="0">
            <Node pos="l" depth="3" NCoef="0" IVar="-1" Cut="0.0000000000000000e+00" cType="1" res="-3.6518003791570663e-02" rms="4.4675251841545105e-01" purity="4.2557069659233093e-01" nType="-99"/>
            <Node pos="r" depth="3" NCoef="0" IVar="-1" Cut="0.0000000000000000e+00" cType="1" res="3.4204840660095215e-02" rms="4.2500081658363342e-01" purity="5.8886462450027466e-01" nType="-99"/>
          </Node>
          <Node pos="r" depth="2" NCoef="0" IVar="-1" Cut="0.0000000000000000e+00" cType="1" res="7.9614356160163879e-02" rms="4.3057474493980408e-01" purity="5.8078128099441528e-01" nType="-99"/>
        </Node>
      </Node>
    </BinaryTree>
    <BinaryTree type="DecisionTree" boostWeight="1.0000000000000000e+00" itree="16">
      <Node pos="s" depth="0" NCoef="0" IVar="3" Cut="-6.1461557617187500e+03" cType="1" res="2.5294264560216106e-05" rms="4.3497678637504578e-01" purity="5.0000000000000000e-01" nType="0">
        <Node pos="l" depth="1" NCoef="0" IVar="7" Cut="-2.3454039096832275e+00" cType="1" res="6.3391271978616714e-03" rms="4.4071793556213379e-01" purity="4.3866404891014099e-01" nType="0">
          <Node pos="l" depth="2" NCoef="0" IVar="-1" Cut="0.0000000000000000e+00" cType="1" res="6.2381353229284286e-02" rms="4.2690712213516235e-01" purity="3.9518424868583679e-01" nType="-99"/>
          <Node pos="r" depth="2" NCoef="0" IVar="8" Cut="-1.7399058341979980e+00" cType="1" res="-5.2216234616935253e-03" rms="4.5024320483207703e-01" purity="4.7060373425483704e-01" nType="0">
            <Node pos="l" depth="3" NCoef="0" IVar="-1" Cut="0.0000000000000000e+00" cType="1" res="3.4754958003759384e-02" rms="4.4842225313186646e-01" purity="5.3649157285690308e-01" nType="-99"/>
            <Node pos="r" depth="3" NCoef="0" IVar="-1" Cut="0.0000000000000000e+00" cType="1" res="-5.7529602199792862e-02" rms="4.5118468999862671e-01" purity="4.1200757026672363e-01" nType="-99"/>
          </Node>
        </Node>
        <Node pos="r" depth="1" NCoef="0" IVar="-1" Cut="0.0000000000000000e+00" cType="1" res="-6.4217627048492432e-02" rms="4.1414290666580200e-01" purity="7.0855009555816650e-01" nType="-99"/>
      </Node>
    </BinaryTree>
    <BinaryTree type="DecisionTree" boostWeight="1.0000000000000000e+00" itree="17">
      <Node pos="s" depth="0" NCoef="0" IVar="8" Cut="-1.5409598350524902e+00" cType="1" res="-2.8378758543112781e-06" rms="4.3447607755661011e-01" purity="5.0000000000000000e-01" nType="0">
        <Node pos="l" depth="1" NCoef="0" IVar="10" Cut="-2.1542479991912842e+00" cType="1" res="-1.4264831319451332e-02" rms="4.2682567238807678e-01" purity="5.4017370939254761e-01" nType="0">
          <Node pos="l" depth="2" NCoef="0" IVar="-1" Cut="0.0000000000000000e+00" cType="1" res="-1.0409662127494812e-01" rms="4.2928066849708557e-01" purity="4.6212753653526306e-01" nType="-99"/>
          <Node pos="r" depth="2" NCoef="0" IVar="-1" Cut="0.0000000000000000e+00" cType="1" res="2.2142721340060234e-02" rms="4.2338025569915771e-01" purity="6.0969507694244385e-01" nType="-99"/>
        </Node>
        <Node pos="r" depth="1" NCoef="0" IVar="6" Cut="1.7155994415283203e+01" cType="1" res="1.7346065491437912e-02" rms="4.4298592209815979e-01" purity="4.5113095641136169e-01" nType="0">
          <Node pos="l" depth="2" NCoef="0" IVar="-1" Cut="0.0000000000000000e+00" cType="1" res="-3.8712359964847565e-03" rms="4.2975196242332458e-01" purity="4.5531907677650452e-01" nType="-99"/>
          <Node pos="r" depth="2" NCoef="0" IVar="-1" Cut="0.0000000000000000e+00" cType="1" res="9.4938173890113831e-02" rms="4.5475345849990845e-01" purity="4.4705531001091003e-01" nType="-99"/>
        </Node>
      </Node>
    </BinaryTree>
    <BinaryTree type="DecisionTree" boostWeight="1.0000000000000000e+00" itree="18">
      <Node pos="s" depth="0" NCoef="0" IVar="11" Cut="-4.1571015119552612e-01" cType="1" res="-9.4102404545992613e-05" rms="4.3361496925354004e-01" purity="5.0000000000000000e-01" nType="0">
        <Node pos="l" depth="1" NCoef="0" IVar="1" Cut="6.0776037597656250e+02" cType="1" res="6.0487096197903156e-03" rms="4.3127849698066711e-01" purity="5.1921731233596802e-01" nType="0">
          <Node pos="l" depth="2" NCoef="0" IVar="4" Cut="-1.7826671600341797e+01" cType="1" res="-1.6887105302885175e-03" rms="4.4434642791748047e-01" purity="4.3854966759681702e-01" nType="0">
            <Node pos="l" depth="3" NCoef="0" IVar="-1" Cut="0.0000000000000000e+00" cType="1" res="3.8670528680086136e-02" rms="4.5089653134346008e-01" purity="4.8931127786636353e-01" nType="-99"/>
            <Node pos="r" depth="3" NCoef="0" IVar="-1" Cut="0.0000000000000000e+00" cType="1" res="-6.2973693013191223e-02" rms="4.3491214513778687e-01" purity="3.7385958433151245e-01" nType="-99"/>
          </Node>
          <Node pos="r" depth="2" NCoef="0" IVar="-1" Cut="0.0000000000000000e+00" cType="1" res="7.2555497288703918e-02" rms="3.9746329188346863e-01" purity="7.1332103013992310e-01" nType="-99"/>
        </Node>
        <Node pos="r" depth="1" NCoef="0" IVar="-1" Cut="0.0000000000000000e+00" cType="1" res="-5.6995496153831482e-02" rms="4.4093957543373108e-01" purity="4.3355137109756470e-01" nType="-99"/>
      </Node>
    </BinaryTree>
    <BinaryTree type="DecisionTree" boostWeight="1.0000000000000000e+00" itree="19">
      <Node pos="s" depth="0" NCoef="0" IVar="5" Cut="-1.3339259147644043e+01" cType="1" res="3.0125585908535868e-05" rms="4.3302702903747559e-01" purity="5.0000000000000000e-01" nType="0">
        <Node pos="l" depth="1" NCoef="0" IVar="-1" Cut="0.0000000000000000e+00" cType="1" res="-3.9893399924039841e-02" rms="4.4759628176689148e-01" purity="4.0624582767486572e-01" nType="-99"/>
        <Node pos="r" depth="1" NCoef="0" IVar="10" Cut="-1.9115221500396729e+00" cType="1" res="6.8788789212703705e-03" rms="4.2620769143104553e-01" purity="5.4170382022857666e-01" nType="0">
          <Node pos="l" depth="2" NCoef="0" IVar="6" Cut="1.6742021560668945e+01" cType="1" res="1.5227830037474632e-02" rms="4.2066347599029541e-01" purity="5.4811531305313110e-01" nType="0">
            <Node pos="l" depth="3" NCoef="0" IVar="-1" Cut="0.0000000000000000e+00" cType="1" res="6.1691584996879101e-03" rms="4.1875046491622925e-01" purity="5.1108223199844360e-01" nType="-99"/>
            <Node pos="r" depth="3" NCoef="0" IVar="-1" Cut="0.0000000000000000e+00" cType="1" res="7.9293616116046906e-02" rms="4.2220419645309448e-01" purity="5.8637195825576782e-01" nType="-99"/>
          </Node>
          <Node pos="r" depth="2" NCoef="0" IVar="-1" Cut="0.0000000000000000e+00" cType="1" res="-3.3939350396394730e-02" rms="4.3800720572471619e-01" purity="5.2706533670425415e-01" nType="-99"/>
        </Node>
      </Node>
    </BinaryTree>
    <BinaryTree type="DecisionTree" boostWeight="1.0000000000000000e+00" itree="20">
      <Node pos="s" depth="0" NCoef="0" IVar="1" Cut="6.0729089355468750e+02" cType="1" res="3.4932956623379141e-05" rms="4.3264371156692505e-01" purity="5.0000000000000000e-01" nType="0">
        <Node pos="l" depth="1" NCoef="0" IVar="7" Cut="-1.7717632055282593e+00" cType="1" res="9.4355605542659760e-03" rms="4.4093215465545654e-01" purity="3.9322656393051147e-01" nType="0">
          <Node pos="l" depth="2" NCoef="0" IVar="-1" Cut="0.0000000000000000e+00" cType="1" res="-1.1871405877172947e-03" rms="4.2803716659545898e-01" purity="3.6299338936805725e-01" nType="-99"/>
          <Node pos="r" depth="2" NCoef="0" IVar="-1" Cut="0.0000000000000000e+00" cType="1" res="6.5531872212886810e-02" rms="4.6169018745422363e-01" purity="4.4499769806861877e-01" nType="-99"/>
        </Node>
        <Node pos="r" depth="1" NCoef="0" IVar="4" Cut="-1.7594272613525391e+01" cType="1" res="-1.3005062937736511e-02" rms="4.2052850127220154e-01" purity="6.4810979366302490e-01" nType="0">
          <Node pos="l" depth="2" NCoef="0" IVar="-1" Cut="0.0000000000000000e+00" cType="1" res="-7.9666711390018463e-02" rms="4.5233845710754395e-01" purity="5.5112111568450928e-01" nType="-99"/>
          <Node pos="r" depth="2" NCoef="0" IVar="-1" Cut="0.0000000000000000e+00" cType="1" res="1.8947554752230644e-02" rms="3.8419136404991150e-01" purity="7.4783098697662354e-01" nType="-99"/>
        </Node>
      </Node>
    </BinaryTree>
    <BinaryTree type="DecisionTree" boostWeight="1.0000000000000000e+00" itree="21">
      <Node pos="s" depth="0" NCoef="0" IVar="3" Cut="-6.1462832031250000e+03" cType="1" res="2.0748895622091368e-05" rms="4.3224564194679260e-01" purity="5.0000000000000000e-01" nType="0">
        <Node pos="l" depth="1" NCoef="0" IVar="9" Cut="-1.5218967199325562e+00" cType="1" res="5.9274598024785519e-03" rms="4.4024822115898132e-01" purity="4.3159171938896179e-01" nType="0">
          <Node pos="l" depth="2" NCoef="0" IVar="-1" Cut="0.0000000000000000e+00" cType="1" res="-4.9540668725967407e-02" rms="4.3114432692527771e-01" purity="5.6231796741485596e-01" nType="-99"/>
          <Node pos="r" depth="2" NCoef="0" IVar="11" Cut="-1.4182515144348145e+00" cType="1" res="1.5983466058969498e-02" rms="4.4345146417617798e-01" purity="3.7912672758102417e-01" nType="0">
            <Node pos="l" depth="3" NCoef="0" IVar="-1" Cut="0.0000000000000000e+00" cType="1" res="-1.9223103299736977e-02" rms="4.3934080004692078e-01" purity="4.4937965273857117e-01" nType="-99"/>
            <Node pos="r" depth="3" NCoef="0" IVar="-1" Cut="0.0000000000000000e+00" cType="1" res="9.7743757069110870e-02" rms="4.4569689035415649e-01" purity="3.2629030942916870e-01" nType="-99"/>
          </Node>
        </Node>
        <Node pos="r" depth="1" NCoef="0" IVar="-1" Cut="0.0000000000000000e+00" cType="1" res="-4.4450256973505020e-02" rms="4.1052210330963135e-01" purity="6.7622327804565430e-01" nType="-99"/>
      </Node>
    </BinaryTree>
    <BinaryTree type="DecisionTree" boostWeight="1.0000000000000000e+00" itree="22">
      <Node pos="s" depth="0" NCoef="0" IVar="11" Cut="-1.1458045244216919e+00" cType="1" res="-2.2332754451781511e-04" rms="4.3175467848777771e-01" purity="5.0000000000000000e-01" nType="0">
        <Node pos="l" depth="1" NCoef="0" IVar="8" Cut="-1.4314585924148560e+00" cType="1" res="1.0417993180453777e-02" rms="4.2679044604301453e-01" purity="5.5556321144104004e-01" nType="0">
          <Node pos="l" depth="2" NCoef="0" IVar="-1" Cut="0.0000000000000000e+00" cType="1" res="5.9870995581150055e-02" rms="4.1571792960166931e-01" purity="5.9262055158615112e-01" nType="-99"/>
          <Node pos="r" depth="2" NCoef="0" IVar="-1" Cut="0.0000000000000000e+00" cType="1" res="-1.7750471830368042e-02" rms="4.4233456254005432e-01" purity="4.9995127320289612e-01" nType="-99"/>
        </Node>
        <Node pos="r" depth="1" NCoef="0" IVar="-1" Cut="0.0000000000000000e+00" cType="1" res="-4.2053300887346268e-02" rms="4.3843790888786316e-01" purity="4.1887962818145752e-01" nType="-99"/>
      </Node>
    </BinaryTree>
    <BinaryTree type="DecisionTree" boostWeight="1.0000000000000000e+00" itree="23">
      <Node pos="s" depth="0" NCoef="0" IVar="8" Cut="-2.4693746566772461e+00" cType="1" res="1.4455020391324069e-05" rms="4.3138799071311951e-01" purity="5.0000000000000000e-01" nType="0">
        <Node pos="l" depth="1" NCoef="0" IVar="-1" Cut="0.0000000000000000e+00" cType="1" res="-5.9398826211690903e-02" rms="4.2454561591148376e-01" purity="6.3561415672302246e-01" nType="-99"/>
        <Node pos="r" depth="1" NCoef="0" IVar="7" Cut="-1.4041539430618286e+00" cType="1" res="5.8157457970082760e-03" rms="4.3301561474800110e-01" purity="4.6372866630554199e-01" nType="0">
          <Node pos="l" depth="2" NCoef="0" IVar="7" Cut="-2.6718482971191406e+00" cType="1" res="2.7572005637921393e-04" rms="4.2463129758834839e-01" purity="4.4359922409057617e-01" nType="0">
            <Node pos="l" depth="3" NCoef="0" IVar="-1" Cut="0.0000000000000000e+00" cType="1" res="6.1997476965188980e-02" rms="4.2791765928268433e-01" purity="4.2730930447578430e-01" nType="-99"/>
            <Node pos="r" depth="3" NCoef="0" IVar="-1" Cut="0.0000000000000000e+00" cType="1" res="-3.7545081228017807e-02" rms="4.2195051908493042e-01" purity="4.5387515425682068e-01" nType="-99"/>
          </Node>
          <Node pos="r" depth="2" NCoef="0" IVar="-1" Cut="0.0000000000000000e+00" cType="1" res="5.3202189505100250e-02" rms="4.5463415980339050e-01" purity="5.1831161975860596e-01" nType="-99"/>
        </Node>
      </Node>
    </BinaryTree>
    <BinaryTree type="DecisionTree" boostWeight="1.0000000000000000e+00" itree="24">
      <Node pos="s" depth="0" NCoef="0" IVar="9" Cut="-1.6514838933944702e+00" cType="1" res="-1.0426000471852603e-06" rms="4.3091911077499390e-01" purity="5.0000000000000000e-01" nType="0">
        <Node pos="l" depth="1" NCoef="0" IVar="-1" Cut="0.0000000000000000e+00" cType="1" res="5.3423862904310226e-02" rms="4.1421067714691162e-01" purity="6.4485365152359009e-01" nType="-99"/>
        <Node pos="r" depth="1" NCoef="0" IVar="8" Cut="-1.5388344526290894e+00" cType="1" res="-6.4317546784877777e-03" rms="4.3604511022567749e-01" purity="4.5268920063972473e-01" nType="0">
          <Node pos="l" depth="2" NCoef="0" IVar="-1" Cut="0.0000000000000000e+00" cType="1" res="-5.6840024888515472e-02" rms="4.3334844708442688e-01" purity="4.7242653369903564e-01" nType="-99"/>
          <Node pos="r" depth="2" NCoef="0" IVar="-1" Cut="0.0000000000000000e+00" cType="1" res="2.7859728783369064e-02" rms="4.3840906023979187e-01" purity="4.3083676695823669e-01" nType="-99"/>
        </Node>
      </Node>
    </BinaryTree>
    <BinaryTree type="DecisionTree" boostWeight="1.0000000000000000e+00" itree="25">
      <Node pos="s" depth="0" NCoef="0" IVar="8" Cut="-1.8062212467193604e+00" cType="1" res="1.7604448657948524e-05" rms="4.3058446049690247e-01" purity="5.0000000000000000e-01" nType="0">
        <Node pos="l" depth="1" NCoef="0" IVar="7" Cut="-2.2087118625640869e+00" cType="1" res="1.4290519058704376e-02" rms="4.2104244232177734e-01" purity="5.6281226873397827e-01" nType="0">
          <Node pos="l" depth="2" NCoef="0" IVar="-1" Cut="0.0000000000000000e+00" cType="1" res="-1.4136355370283127e-02" rms="4.0410369634628296e-01" purity="5.1938021183013916e-01" nType="-99"/>
          <Node pos="r" depth="2" NCoef="0" IVar="-1" Cut="0.0000000000000000e+00" cType="1" res="8.5847496986389160e-02" rms="4.3596383929252625e-01" purity="6.0474961996078491e-01" nType="-99"/>
        </Node>
        <Node pos="r" depth="1" NCoef="0" IVar="7" Cut="-2.1281924247741699e+00" cType="1" res="-1.2362040579319000e-02" rms="4.3831646442413330e-01" purity="4.4551962614059448e-01" nType="0">
          <Node pos="l" depth="2" NCoef="0" IVar="-1" Cut="0.0000000000000000e+00" cType="1" res="8.2370117306709290e-03" rms="4.2825624346733093e-01" purity="4.0909618139266968e-01" nType="-99"/>
          <Node pos="r" depth="2" NCoef="0" IVar="-1" Cut="0.0000000000000000e+00" cType="1" res="-7.1579679846763611e-02" rms="4.4735047221183777e-01" purity="4.8082286119461060e-01" nType="-99"/>
        </Node>
      </Node>
    </BinaryTree>
    <BinaryTree type="DecisionTree" boostWeight="1.0000000000000000e+00" itree="26">
      <Node pos="s" depth="0" NCoef="0" IVar="14" Cut="-1.2888702392578125e+01" cType="1" res="6.5111838921438903e-05" rms="4.2996245622634888e-01" purity="5.0000000000000000e-01" nType="0">
        <Node pos="l" depth="1" NCoef="0" IVar="-1" Cut="0.0000000000000000e+00" cType="1" res="-3.6404248327016830e-02" rms="4.3311965465545654e-01" purity="5.1756650209426880e-01" nType="-99"/>
        <Node pos="r" depth="1" NCoef="0" IVar="13" Cut="-7.5418076515197754e+00" cType="1" res="6.3033914193511009e-03" rms="4.2833560705184937e-01" purity="4.9178585410118103e-01" nType="0">
          <Node pos="l" depth="2" NCoef="0" IVar="-1" Cut="0.0000000000000000e+00" cType="1" res="5.8687031269073486e-02" rms="4.1968438029289246e-01" purity="6.0327184200286865e-01" nType="-99"/>
          <Node pos="r" depth="2" NCoef="0" IVar="-1" Cut="0.0000000000000000e+00" cType="1" res="-8.2562854513525963e-03" rms="4.3320301175117493e-01" purity="4.2452576756477356e-01" nType="-99"/>
        </Node>
      </Node>
    </BinaryTree>
    <BinaryTree type="DecisionTree" boostWeight="1.0000000000000000e+00" itree="27">
      <Node pos="s" depth="0" NCoef="0" IVar="13" Cut="-6.8299541473388672e+00" cType="1" res="3.9724178350297734e-05" rms="4.2968264222145081e-01" purity="5.0000000000000000e-01" nType="0">
        <Node pos="l" depth="1" NCoef="0" IVar="11" Cut="-1.3080477714538574e+00" cType="1" res="-6.1381384730339050e-03" rms="4.3189728260040283e-01" purity="5.0912773609161377e-01" nType="0">
          <Node pos="l" depth="2" NCoef="0" IVar="-1" Cut="0.0000000000000000e+00" cType="1" res="8.4481881931424141e-03" rms="4.2764011025428772e-01" purity="5.9763723611831665e-01" nType="-99"/>
          <Node pos="r" depth="2" NCoef="0" IVar="-1" Cut="0.0000000000000000e+00" cType="1" res="-4.0704470127820969e-02" rms="4.3592151999473572e-01" purity="4.2053356766700745e-01" nType="-99"/>
        </Node>
        <Node pos="r" depth="1" NCoef="0" IVar="-1" Cut="0.0000000000000000e+00" cType="1" res="4.4684547930955887e-02" rms="4.2352339625358582e-01" purity="4.7653689980506897e-01" nType="-99"/>
      </Node>
    </BinaryTree>
    <BinaryTree type="DecisionTree" boostWeight="1.0000000000000000e+00" itree="28">
      <Node pos="s" depth="0" NCoef="0" IVar="13" Cut="-7.8624219894409180e+00" cType="1" res="-3.4056694858008996e-05" rms="4.2952471971511841e-01" purity="5.0000000000000000e-01" nType="0">
        <Node pos="l" depth="1" NCoef="0" IVar="-1" Cut="0.0000000000000000e+00" cType="1" res="-3.4265127032995224e-02" rms="4.2485889792442322e-01" purity="6.2725454568862915e-01" nType="-99"/>
        <Node pos="r" depth="1" NCoef="0" IVar="7" Cut="-2.5164113044738770e+00" cType="1" res="3.4918647725135088e-03" rms="4.3078571557998657e-01" purity="4.6358564496040344e-01" nType="0">
          <Node pos="l" depth="2" NCoef="0" IVar="-1" Cut="0.0000000000000000e+00" cType="1" res="-3.3120464533567429e-02" rms="4.1867119073867798e-01" purity="3.9890789985656738e-01" nType="-99"/>
          <Node pos="r" depth="2" NCoef="0" IVar="9" Cut="-1.1331350803375244e+00" cType="1" res="1.1699029244482517e-02" rms="4.3689331412315369e-01" purity="4.9810922145843506e-01" nType="0">
            <Node pos="l" depth="3" NCoef="0" IVar="-1" Cut="0.0000000000000000e+00" cType="1" res="6.5942399203777313e-02" rms="4.2161893844604492e-01" purity="5.5894476175308228e-01" nType="-99"/>
            <Node pos="r" depth="3" NCoef="0" IVar="-1" Cut="0.0000000000000000e+00" cType="1" res="-7.0165200158953667e-03" rms="4.5342177152633667e-01" purity="4.2805182933807373e-01" nType="-99"/>
          </Node>
        </Node>
      </Node>
    </BinaryTree>
    <BinaryTree type="DecisionTree" boostWeight="1.0000000000000000e+00" itree="29">
      <Node pos="s" depth="0" NCoef="0" IVar="9" Cut="-1.5218967199325562e+00" cType="1" res="2.2843621991341934e-05" rms="4.2931532859802246e-01" purity="5.0000000000000000e-01" nType="0">
        <Node pos="l" depth="1" NCoef="0" IVar="-1" Cut="0.0000000000000000e+00" cType="1" res="-3.9867348968982697e-02" rms="4.1022691130638123e-01" purity="6.2839883565902710e-01" nType="-99"/>
        <Node pos="r" depth="1" NCoef="0" IVar="2" Cut="4.9603681640625000e+03" cType="1" res="5.9147025458514690e-03" rms="4.3686687946319580e-01" purity="4.4664502143859863e-01" nType="0">
          <Node pos="l" depth="2" NCoef="0" IVar="-1" Cut="0.0000000000000000e+00" cType="1" res="4.9426075071096420e-02" rms="4.4487252831459045e-01" purity="4.0419405698776245e-01" nType="-99"/>
          <Node pos="r" depth="2" NCoef="0" IVar="-1" Cut="0.0000000000000000e+00" cType="1" res="-1.5159624628722668e-02" rms="4.2935469746589661e-01" purity="4.8411852121353149e-01" nType="-99"/>
        </Node>
      </Node>
    </BinaryTree>
    <BinaryTree type="DecisionTree" boostWeight="1.0000000000000000e+00" itree="30">
      <Node pos="s" depth="0" NCoef="0" IVar="2" Cut="4.9608696289062500e+03" cType="1" res="-1.9249060642323457e-05" rms="4.2905473709106445e-01" purity="5.0000000000000000e-01" nType="0">
        <Node pos="l" depth="1" NCoef="0" IVar="7" Cut="-1.4765577316284180e+00" cType="1" res="-5.3299474529922009e-03" rms="4.3757319450378418e-01" purity="4.4099006056785583e-01" nType="0">
          <Node pos="l" depth="2" NCoef="0" IVar="13" Cut="-7.3772382736206055e+00" cType="1" res="2.7362743858247995e-03" rms="4.2443320155143738e-01" purity="4.2818000912666321e-01" nType="0">
            <Node pos="l" depth="3" NCoef="0" IVar="-1" Cut="0.0000000000000000e+00" cType="1" res="3.8035154342651367e-02" rms="4.2923116683959961e-01" purity="4.9776506423950195e-01" nType="-99"/>
            <Node pos="r" depth="3" NCoef="0" IVar="-1" Cut="0.0000000000000000e+00" cType="1" res="-2.1752623841166496e-02" rms="4.1975495219230652e-01" purity="3.6496910452842712e-01" nType="-99"/>
          </Node>
          <Node pos="r" depth="2" NCoef="0" IVar="-1" Cut="0.0000000000000000e+00" cType="1" res="-6.0526728630065918e-02" rms="4.6670484542846680e-01" purity="4.7137138247489929e-01" nType="-99"/>
        </Node>
        <Node pos="r" depth="1" NCoef="0" IVar="-1" Cut="0.0000000000000000e+00" cType="1" res="4.7281231731176376e-02" rms="4.0107205510139465e-01" purity="6.8281781673431396e-01" nType="-99"/>
      </Node>
    </BinaryTree>
    <BinaryTree type="DecisionTree" boostWeight="1.0000000000000000e+00" itree="31">
      <Node pos="s" depth="0" NCoef="0" IVar="14" Cut="-1.2052085876464844e+01" cType="1" res="2.3773423890816048e-05" rms="4.2868578433990479e-01" purity="5.0000000000000000e-01" nType="0">
        <Node pos="l" depth="1" NCoef="0" IVar="13" Cut="-7.5619568824768066e+00" cType="1" res="-3.4776797983795404e-03" rms="4.3270170688629150e-01" purity="4.8808935284614563e-01" nType="0">
          <Node pos="l" depth="2" NCoef="0" IVar="-1" Cut="0.0000000000000000e+00" cType="1" res="-4.8078097403049469e-02" rms="4.3601304292678833e-01" purity="5.3248441219329834e-01" nType="-99"/>
          <Node pos="r" depth="2" NCoef="0" IVar="1" Cut="6.0728820800781250e+02" cType="1" res="3.8369607646018267e-03" rms="4.3084746599197388e-01" purity="4.6585181355476379e-01" nType="0">
            <Node pos="l" depth="3" NCoef="0" IVar="-1" Cut="0.0000000000000000e+00" cType="1" res="5.2914679050445557e-02" rms="4.3654122948646545e-01" purity="3.7507075071334839e-01" nType="-99"/>
            <Node pos="r" depth="3" NCoef="0" IVar="-1" Cut="0.0000000000000000e+00" cType="1" res="-5.0524175167083740e-02" rms="4.2140477895736694e-01" purity="5.9852045774459839e-01" nType="-99"/>
          </Node>
        </Node>
        <Node pos="r" depth="1" NCoef="0" IVar="-1" Cut="0.0000000000000000e+00" cType="1" res="3.0470948666334152e-02" rms="4.1551664471626282e-01" purity="5.3772163391113281e-01" nType="-99"/>
      </Node>
    </BinaryTree>
    <BinaryTree type="DecisionTree" boostWeight="1.0000000000000000e+00" itree="32">
      <Node pos="s" depth="0" NCoef="0" IVar="1" Cut="6.0749450683593750e+02" cType="1" res="-2.1959584046271630e-05" rms="4.2836204171180725e-01" purity="5.0000000000000000e-01" nType="0">
        <Node pos="l" depth="1" NCoef="0" IVar="10" Cut="-1.9931541681289673e+00" cType="1" res="-8.2963323220610619e-03" rms="4.3787458539009094e-01" purity="4.0479975938796997e-01" nType="0">
          <Node pos="l" depth="2" NCoef="0" IVar="-1" Cut="0.0000000000000000e+00" cType="1" res="-4.8464842140674591e-02" rms="4.3291440606117249e-01" purity="3.8479304313659668e-01" nType="-99"/>
          <Node pos="r" depth="2" NCoef="0" IVar="-1" Cut="0.0000000000000000e+00" cType="1" res="2.4717209860682487e-02" rms="4.4607734680175781e-01" purity="4.4067776203155518e-01" nType="-99"/>
        </Node>
        <Node pos="r" depth="1" NCoef="0" IVar="-1" Cut="0.0000000000000000e+00" cType="1" res="4.0798906236886978e-02" rms="4.1094487905502319e-01" purity="6.6513711214065552e-01" nType="-99"/>
      </Node>
    </BinaryTree>
    <BinaryTree type="DecisionTree" boostWeight="1.0000000000000000e+00" itree="33">
      <Node pos="s" depth="0" NCoef="0" IVar="10" Cut="-1.7738921642303467e+00" cType="1" res="-1.2908754797535948e-05" rms="4.2809206247329712e-01" purity="5.0000000000000000e-01" nType="0">
        <Node pos="l" depth="1" NCoef="0" IVar="7" Cut="-1.9465030431747437e+00" cType="1" res="4.4848001562058926e-03" rms="4.2268076539039612e-01" purity="5.0784468650817871e-01" nType="0">
          <Node pos="l" depth="2" NCoef="0" IVar="0" Cut="5.8963568115234375e+02" cType="1" res="-3.4552845172584057e-03" rms="4.1054719686508179e-01" purity="4.8423457145690918e-01" nType="0">
            <Node pos="l" depth="3" NCoef="0" IVar="-1" Cut="0.0000000000000000e+00" cType="1" res="-4.5518029481172562e-02" rms="4.0491080284118652e-01" purity="5.2238672971725464e-01" nType="-99"/>
            <Node pos="r" depth="3" NCoef="0" IVar="-1" Cut="0.0000000000000000e+00" cType="1" res="2.2451113909482956e-02" rms="4.1591903567314148e-01" purity="4.4512042403221130e-01" nType="-99"/>
          </Node>
          <Node pos="r" depth="2" NCoef="0" IVar="-1" Cut="0.0000000000000000e+00" cType="1" res="4.5196726918220520e-02" rms="4.4118648767471313e-01" purity="5.4579514265060425e-01" nType="-99"/>
        </Node>
        <Node pos="r" depth="1" NCoef="0" IVar="-1" Cut="0.0000000000000000e+00" cType="1" res="-3.8123339414596558e-02" rms="4.4473320245742798e-01" purity="4.7478333115577698e-01" nType="-99"/>
      </Node>
    </BinaryTree>
    <BinaryTree type="DecisionTree" boostWeight="1.0000000000000000e+00" itree="34">
      <Node pos="s" depth="0" NCoef="0" IVar="13" Cut="-7.2888288497924805e+00" cType="1" res="3.6737301343237050e-06" rms="4.2778724431991577e-01" purity="5.0000000000000000e-01" nType="0">
        <Node pos="l" depth="1" NCoef="0" IVar="8" Cut="-1.6400392055511475e+00" cType="1" res="7.4542937800288200e-03" rms="4.3185859918594360e-01" purity="5.4615974426269531e-01" nType="0">
          <Node pos="l" depth="2" NCoef="0" IVar="-1" Cut="0.0000000000000000e+00" cType="1" res="-1.7264075577259064e-02" rms="4.1915440559387207e-01" purity="5.7288068532943726e-01" nType="-99"/>
          <Node pos="r" depth="2" NCoef="0" IVar="-1" Cut="0.0000000000000000e+00" cType="1" res="5.9538081288337708e-02" rms="4.4527509808540344e-01" purity="5.1596629619598389e-01" nType="-99"/>
        </Node>
        <Node pos="r" depth="1" NCoef="0" IVar="7" Cut="-2.0145602226257324e+00" cType="1" res="-7.7195242047309875e-03" rms="4.2338728904724121e-01" purity="4.5215153694152832e-01" nType="0">
          <Node pos="l" depth="2" NCoef="0" IVar="-1" Cut="0.0000000000000000e+00" cType="1" res="1.1525318026542664e-02" rms="4.1066482663154602e-01" purity="4.2101871967315674e-01" nType="-99"/>
          <Node pos="r" depth="2" NCoef="0" IVar="-1" Cut="0.0000000000000000e+00" cType="1" res="-5.7384420186281204e-02" rms="4.3764281272888184e-01" purity="4.8920944333076477e-01" nType="-99"/>
        </Node>
      </Node>
    </BinaryTree>
    <BinaryTree type="DecisionTree" boostWeight="1.0000000000000000e+00" itree="35">
      <Node pos="s" depth="0" NCoef="0" IVar="8" Cut="-2.2041132450103760e+00" cType="1" res="-3.4844633773900568e-06" rms="4.2743104696273804e-01" purity="5.0000000000000000e-01" nType="0">
        <Node pos="l" depth="1" NCoef="0" IVar="-1" Cut="0.0000000000000000e+00" cType="1" res="2.9299171641469002e-02" rms="4.1991037130355835e-01" purity="5.9951806068420410e-01" nType="-99"/>
        <Node pos="r" depth="1" NCoef="0" IVar="3" Cut="-6.1465307617187500e+03" cType="1" res="-4.9751256592571735e-03" rms="4.3077167868614197e-01" purity="4.5400673151016235e-01" nType="0">
          <Node pos="l" depth="2" NCoef="0" IVar="-1" Cut="0.0000000000000000e+00" cType="1" res="2.0193738862872124e-02" rms="4.3136236071586609e-01" purity="3.7274941802024841e-01" nType="-99"/>
          <Node pos="r" depth="2" NCoef="0" IVar="-1" Cut="0.0000000000000000e+00" cType="1" res="-5.3657703101634979e-02" rms="4.2958077788352966e-01" purity="5.5289137363433838e-01" nType="-99"/>
        </Node>
      </Node>
    </BinaryTree>
    <BinaryTree type="DecisionTree" boostWeight="1.0000000000000000e+00" itree="36">
      <Node pos="s" depth="0" NCoef="0" IVar="3" Cut="-6.1464741210937500e+03" cType="1" res="2.6799329134519212e-05" rms="4.2720025777816772e-01" purity="5.0000000000000000e-01" nType="0">
        <Node pos="l" depth="1" NCoef="0" IVar="2" Cut="4.9602778320312500e+03" cType="1" res="-6.4595313742756844e-03" rms="4.3742352724075317e-01" purity="4.1500672698020935e-01" nType="0">
          <Node pos="l" depth="2" NCoef="0" IVar="-1" Cut="0.0000000000000000e+00" cType="1" res="-5.3206719458103180e-02" rms="4.4461998343467712e-01" purity="4.4290158152580261e-01" nType="-99"/>
          <Node pos="r" depth="2" NCoef="0" IVar="-1" Cut="0.0000000000000000e+00" cType="1" res="3.0718797817826271e-02" rms="4.2781326174736023e-01" purity="3.8089534640312195e-01" nType="-99"/>
        </Node>
        <Node pos="r" depth="1" NCoef="0" IVar="-1" Cut="0.0000000000000000e+00" cType="1" res="2.7506854385137558e-02" rms="4.1121011972427368e-01" purity="6.2739193439483643e-01" nType="-99"/>
      </Node>
    </BinaryTree>
    <BinaryTree type="DecisionTree" boostWeight="1.0000000000000000e+00" itree="37">
      <Node pos="s" depth="0" NCoef="0" IVar="2" Cut="4.9601894531250000e+03" cType="1" res="-2.3515316570410505e-05" rms="4.2690816521644592e-01" purity="5.0000000000000000e-01" nType="0">
        <Node pos="l" depth="1" NCoef="0" IVar="-1" Cut="0.0000000000000000e+00" cType="1" res="2.9400743544101715e-02" rms="4.4452723860740662e-01" purity="4.7746193408966064e-01" nType="-99"/>
        <Node pos="r" depth="1" NCoef="0" IVar="8" Cut="-1.0806856155395508e+00" cType="1" res="-4.6034613624215126e-03" rms="4.1958868503570557e-01" purity="5.0898700952529907e-01" nType="0">
          <Node pos="l" depth="2" NCoef="0" IVar="1" Cut="6.0700335693359375e+02" cType="1" res="2.0224752370268106e-03" rms="4.1326040029525757e-01" purity="5.5413043498992920e-01" nType="0">
            <Node pos="l" depth="3" NCoef="0" IVar="-1" Cut="0.0000000000000000e+00" cType="1" res="-1.9754244014620781e-02" rms="4.3495905399322510e-01" purity="4.2810422182083130e-01" nType="-99"/>
            <Node pos="r" depth="3" NCoef="0" IVar="-1" Cut="0.0000000000000000e+00" cType="1" res="4.6512983739376068e-02" rms="3.8314896821975708e-01" purity="7.1648937463760376e-01" nType="-99"/>
          </Node>
          <Node pos="r" depth="2" NCoef="0" IVar="-1" Cut="0.0000000000000000e+00" cType="1" res="-4.9075551331043243e-02" rms="4.3190279603004456e-01" purity="4.1684275865554810e-01" nType="-99"/>
        </Node>
      </Node>
    </BinaryTree>
    <BinaryTree type="DecisionTree" boostWeight="1.0000000000000000e+00" itree="38">
      <Node pos="s" depth="0" NCoef="0" IVar="8" Cut="-8.7780630588531494e-01" cType="1" res="9.0964340415666811e-06" rms="4.2667931318283081e-01" purity="5.0000000000000000e-01" nType="0">
        <Node pos="l" depth="1" NCoef="0" IVar="7" Cut="-2.5747337341308594e+00" cType="1" res="-4.9375565722584724e-03" rms="4.2047917842864990e-01" purity="5.2146017551422119e-01" nType="0">
          <Node pos="l" depth="2" NCoef="0" IVar="-1" Cut="0.0000000000000000e+00" cType="1" res="-5.8578696101903915e-02" rms="4.1006749868392944e-01" purity="4.5294216275215149e-01" nType="-99"/>
          <Node pos="r" depth="2" NCoef="0" IVar="9" Cut="-1.2627223730087280e+00" cType="1" res="2.5978393387049437e-03" rms="4.2522594332695007e-01" purity="5.5464684963226318e-01" nType="0">
            <Node pos="l" depth="3" NCoef="0" IVar="-1" Cut="0.0000000000000000e+00" cType="1" res="4.3286837637424469e-02" rms="4.0021118521690369e-01" purity="6.3664418458938599e-01" nType="-99"/>
            <Node pos="r" depth="3" NCoef="0" IVar="-1" Cut="0.0000000000000000e+00" cType="1" res="-2.9798105359077454e-02" rms="4.5055800676345825e-01" purity="4.6510592103004456e-01" nType="-99"/>
          </Node>
        </Node>
        <Node pos="r" depth="1" NCoef="0" IVar="-1" Cut="0.0000000000000000e+00" cType="1" res="3.8127377629280090e-02" rms="4.4393146038055420e-01" purity="4.3749359250068665e-01" nType="-99"/>
      </Node>
    </BinaryTree>
    <BinaryTree type="DecisionTree" boostWeight="1.0000000000000000e+00" itree="39">
      <Node pos="s" depth="0" NCoef="0" IVar="1" Cut="6.0806457519531250e+02" cType="1" res="-1.1703516975103412e-05" rms="4.2642095685005188e-01" purity="5.0000000000000000e-01" nType="0">
        <Node pos="l" depth="1" NCoef="0" IVar="9" Cut="-1.3923095464706421e+00" cType="1" res="3.7227608263492584e-03" rms="4.3396484851837158e-01" purity="4.4630536437034607e-01" nType="0">
          <Node pos="l" depth="2" NCoef="0" IVar="-1" Cut="0.0000000000000000e+00" cType="1" res="-3.9905726909637451e-02" rms="4.2583003640174866e-01" purity="5.4067444801330566e-01" nType="-99"/>
          <Node pos="r" depth="2" NCoef="0" IVar="8" Cut="-1.7270448207855225e+00" cType="1" res="1.3586655259132385e-02" rms="4.3782535195350647e-01" purity="3.9706742763519287e-01" nType="0">
            <Node pos="l" depth="3" NCoef="0" IVar="-1" Cut="0.0000000000000000e+00" cType="1" res="-8.2683358341455460e-03" rms="4.3659377098083496e-01" purity="4.0995997190475464e-01" nType="-99"/>
            <Node pos="r" depth="3" NCoef="0" IVar="-1" Cut="0.0000000000000000e+00" cType="1" res="7.6682016253471375e-02" rms="4.3836101889610291e-01" purity="3.8633266091346741e-01" nType="-99"/>
          </Node>
        </Node>
        <Node pos="r" depth="1" NCoef="0" IVar="-1" Cut="0.0000000000000000e+00" cType="1" res="-4.5720864087343216e-02" rms="3.9530980587005615e-01" purity="7.0928663015365601e-01" nType="-99"/>
      </Node>
    </BinaryTree>
    <BinaryTree type="DecisionTree" boostWeight="1.0000000000000000e+00" itree="40">
      <Node pos="s" depth="0" NCoef="0" IVar="8" Cut="-1.8062212467193604e+00" cType="1" res="-6.3510567997582257e-05" rms="4.2606168985366821e-01" purity="5.0000000000000000e-01" nType="0">
        <Node pos="l" depth="1" NCoef="0" IVar="1" Cut="6.0696307373046875e+02" cType="1" res="9.7687141969799995e-03" rms="4.1654998064041138e-01" purity="5.6281226873397827e-01" nType="0">
          <Node pos="l" depth="2" NCoef="0" IVar="-1" Cut="0.0000000000000000e+00" cType="1" res="-1.0859092697501183e-02" rms="4.4040071964263916e-01" purity="4.2286556959152222e-01" nType="-99"/>
          <Node pos="r" depth="2" NCoef="0" IVar="-1" Cut="0.0000000000000000e+00" cType="1" res="7.1178965270519257e-02" rms="3.9160525798797607e-01" purity="6.9828367233276367e-01" nType="-99"/>
        </Node>
        <Node pos="r" depth="1" NCoef="0" IVar="11" Cut="-1.5514125823974609e+00" cType="1" res="-8.5915131494402885e-03" rms="4.3396261334419250e-01" purity="4.4551962614059448e-01" nType="0">
          <Node pos="l" depth="2" NCoef="0" IVar="-1" Cut="0.0000000000000000e+00" cType="1" res="-5.5623255670070648e-02" rms="4.3363571166992188e-01" purity="5.5927109718322754e-01" nType="-99"/>
          <Node pos="r" depth="2" NCoef="0" IVar="-1" Cut="0.0000000000000000e+00" cType="1" res="-1.5370006440207362e-03" rms="4.3398237228393555e-01" purity="3.7256529927253723e-01" nType="-99"/>
        </Node>
      </Node>
    </BinaryTree>
    <BinaryTree type="DecisionTree" boostWeight="1.0000000000000000e+00" itree="41">
      <Node pos="s" depth="0" NCoef="0" IVar="1" Cut="6.0610998535156250e+02" cType="1" res="1.1477799853309989e-04" rms="4.2583575844764709e-01" purity="5.0000000000000000e-01" nType="0">
        <Node pos="l" depth="1" NCoef="0" IVar="-1" Cut="0.0000000000000000e+00" cType="1" res="4.1643604636192322e-02" rms="4.3138733506202698e-01" purity="3.5551130771636963e-01" nType="-99"/>
        <Node pos="r" depth="1" NCoef="0" IVar="11" Cut="-1.4702908992767334e+00" cType="1" res="-4.7485749237239361e-03" rms="4.2393377423286438e-01" purity="5.4610311985015869e-01" nType="0">
          <Node pos="l" depth="2" NCoef="0" IVar="-1" Cut="0.0000000000000000e+00" cType="1" res="2.0963530987501144e-02" rms="4.1097068786621094e-01" purity="6.5092289447784424e-01" nType="-99"/>
          <Node pos="r" depth="2" NCoef="0" IVar="11" Cut="-6.6146582365036011e-01" cType="1" res="-1.4477024786174297e-02" rms="4.3383148312568665e-01" purity="4.6182197332382202e-01" nType="0">
            <Node pos="l" depth="3" NCoef="0" IVar="-1" Cut="0.0000000000000000e+00" cType="1" res="-3.8190770894289017e-02" rms="4.3324708938598633e-01" purity="4.5038574934005737e-01" nType="-99"/>
            <Node pos="r" depth="3" NCoef="0" IVar="-1" Cut="0.0000000000000000e+00" cType="1" res="-3.9343718439340591e-02" rms="4.3443718552589417e-01" purity="4.7369962930679321e-01" nType="-99"/>
          </Node>
        </Node>
      </Node>
    </BinaryTree>
    <BinaryTree type="DecisionTree" boostWeight="1.0000000000000000e+00" itree="42">
      <Node pos="s" depth="0" NCoef="0" IVar="7" Cut="-1.5489616394042969e+00" cType="1" res="-3.7959878682158887e-05" rms="4.2560288310050964e-01" purity="5.0000000000000000e-01" nType="0">
        <Node pos="l" depth="1" NCoef="0" IVar="7" Cut="-2.8035790920257568e+00" cType="1" res="-3.6592939868569374e-03" rms="4.1518133878707886e-01" purity="4.8266723752021790e-01" nType="0">
          <Node pos="l" depth="2" NCoef="0" IVar="-1" Cut="0.0000000000000000e+00" cType="1" res="2.3824153468012810e-02" rms="4.2276957631111145e-01" purity="4.3947690725326538e-01" nType="-99"/>
          <Node pos="r" depth="2" NCoef="0" IVar="8" Cut="-1.8821394443511963e+00" cType="1" res="-9.3504991382360458e-03" rms="4.1152009367942810e-01" purity="5.0252801179885864e-01" nType="0">
            <Node pos="l" depth="3" NCoef="0" IVar="-1" Cut="0.0000000000000000e+00" cType="1" res="2.8478214517235756e-02" rms="4.0238028764724731e-01" purity="6.2992089986801147e-01" nType="-99"/>
            <Node pos="r" depth="3" NCoef="0" IVar="-1" Cut="0.0000000000000000e+00" cType="1" res="-7.1029812097549438e-02" rms="4.1856783628463745e-01" purity="3.9256632328033447e-01" nType="-99"/>
          </Node>
        </Node>
        <Node pos="r" depth="1" NCoef="0" IVar="-1" Cut="0.0000000000000000e+00" cType="1" res="2.0369391888380051e-02" rms="4.4754317402839661e-01" purity="5.3807693719863892e-01" nType="-99"/>
      </Node>
    </BinaryTree>
    <BinaryTree type="DecisionTree" boostWeight="1.0000000000000000e+00" itree="43">
      <Node pos="s" depth="0" NCoef="0" IVar="8" Cut="-2.0051672458648682e+00" cType="1" res="-5.3653002396458760e-05" rms="4.2533603310585022e-01" purity="5.0000000000000000e-01" nType="0">
        <Node pos="l" depth="1" NCoef="0" IVar="-1" Cut="0.0000000000000000e+00" cType="1" res="-3.8273163139820099e-02" rms="4.1630658507347107e-01" purity="5.7227468490600586e-01" nType="-99"/>
        <Node pos="r" depth="1" NCoef="0" IVar="11" Cut="-1.5514125823974609e+00" cType="1" res="8.6959488689899445e-03" rms="4.3087404966354370e-01" purity="4.5305541157722473e-01" nType="0">
          <Node pos="l" depth="2" NCoef="0" IVar="-1" Cut="0.0000000000000000e+00" cType="1" res="-1.6671924386173487e-03" rms="4.3148776888847351e-01" purity="5.7077604532241821e-01" nType="-99"/>
          <Node pos="r" depth="2" NCoef="0" IVar="-1" Cut="0.0000000000000000e+00" cType="1" res="4.1037540882825851e-02" rms="4.3035414814949036e-01" purity="3.7484359741210938e-01" nType="-99"/>
        </Node>
      </Node>
    </BinaryTree>
    <BinaryTree type="DecisionTree" boostWeight="1.0000000000000000e+00" itree="44">
      <Node pos="s" depth="0" NCoef="0" IVar="12" Cut="-9.6025675535202026e-01" cType="1" res="-2.6986763259628788e-05" rms="4.2514815926551819e-01" purity="5.0000000000000000e-01" nType="0">
        <Node pos="l" depth="1" NCoef="0" IVar="1" Cut="6.0777075195312500e+02" cType="1" res="3.0195433646440506e-03" rms="4.2459073662757874e-01" purity="5.4830384254455566e-01" nType="0">
          <Node pos="l" depth="2" NCoef="0" IVar="10" Cut="-2.2418754100799561e+00" cType="1" res="-3.4668867010623217e-03" rms="4.3915829062461853e-01" purity="4.6353885531425476e-01" nType="0">
            <Node pos="l" depth="3" NCoef="0" IVar="-1" Cut="0.0000000000000000e+00" cType="1" res="-3.7325222045183182e-02" rms="4.3494302034378052e-01" purity="4.1397660970687866e-01" nType="-99"/>
            <Node pos="r" depth="3" NCoef="0" IVar="-1" Cut="0.0000000000000000e+00" cType="1" res="1.5444361604750156e-02" rms="4.4260108470916748e-01" purity="5.0697726011276245e-01" nType="-99"/>
          </Node>
          <Node pos="r" depth="2" NCoef="0" IVar="-1" Cut="0.0000000000000000e+00" cType="1" res="5.6853543967008591e-02" rms="3.8820084929466248e-01" purity="7.4536520242691040e-01" nType="-99"/>
        </Node>
        <Node pos="r" depth="1" NCoef="0" IVar="-1" Cut="0.0000000000000000e+00" cType="1" res="-2.5057746097445488e-02" rms="4.2666980624198914e-01" purity="3.5667198896408081e-01" nType="-99"/>
      </Node>
    </BinaryTree>
    <BinaryTree type="DecisionTree" boostWeight="1.0000000000000000e+00" itree="45">
      <Node pos="s" depth="0" NCoef="0" IVar="1" Cut="6.0741302490234375e+02" cType="1" res="4.8461650294484571e-05" rms="4.2495101690292358e-01" purity="5.0000000000000000e-01" nType="0">
        <Node pos="l" depth="1" NCoef="0" IVar="0" Cut="5.8963586425781250e+02" cType="1" res="5.7751797139644623e-03" rms="4.3539983034133911e-01" purity="4.0144070982933044e-01" nType="0">
          <Node pos="l" depth="2" NCoef="0" IVar="-1" Cut="0.0000000000000000e+00" cType="1" res="4.8895690590143204e-02" rms="4.3075940012931824e-01" purity="3.8335365056991577e-01" nType="-99"/>
          <Node pos="r" depth="2" NCoef="0" IVar="-1" Cut="0.0000000000000000e+00" cType="1" res="-6.6468240693211555e-03" rms="4.3837586045265198e-01" purity="4.1390609741210938e-01" nType="-99"/>
        </Node>
        <Node pos="r" depth="1" NCoef="0" IVar="-1" Cut="0.0000000000000000e+00" cType="1" res="-2.6880662888288498e-02" rms="4.0754604339599609e-01" purity="6.5736794471740723e-01" nType="-99"/>
      </Node>
    </BinaryTree>
    <BinaryTree type="DecisionTree" boostWeight="1.0000000000000000e+00" itree="46">
      <Node pos="s" depth="0" NCoef="0" IVar="0" Cut="5.8982159423828125e+02" cType="1" res="-2.1466326870722696e-05" rms="4.2476511001586914e-01" purity="5.0000000000000000e-01" nType="0">
        <Node pos="l" depth="1" NCoef="0" IVar="1" Cut="6.0758557128906250e+02" cType="1" res="-4.8330533318221569e-03" rms="4.1828036308288574e-01" purity="5.4210937023162842e-01" nType="0">
          <Node pos="l" depth="2" NCoef="0" IVar="-1" Cut="0.0000000000000000e+00" cType="1" res="-3.5076923668384552e-02" rms="4.3348526954650879e-01" purity="4.0425103902816772e-01" nType="-99"/>
          <Node pos="r" depth="2" NCoef="0" IVar="-1" Cut="0.0000000000000000e+00" cType="1" res="1.0012875311076641e-02" rms="4.0233337879180908e-01" purity="6.7998045682907104e-01" nType="-99"/>
        </Node>
        <Node pos="r" depth="1" NCoef="0" IVar="-1" Cut="0.0000000000000000e+00" cType="1" res="2.4112153798341751e-02" rms="4.3689256906509399e-01" purity="4.1849726438522339e-01" nType="-99"/>
      </Node>
    </BinaryTree>
    <BinaryTree type="DecisionTree" boostWeight="1.0000000000000000e+00" itree="47">
      <Node pos="s" depth="0" NCoef="0" IVar="6" Cut="1.7605358123779297e+01" cType="1" res="-2.5851355530903675e-05" rms="4.2465192079544067e-01" purity="5.0000000000000000e-01" nType="0">
        <Node pos="l" depth="1" NCoef="0" IVar="11" Cut="-9.9150598049163818e-01" cType="1" res="-4.1754897683858871e-03" rms="4.1935461759567261e-01" purity="4.9288034439086914e-01" nType="0">
          <Node pos="l" depth="2" NCoef="0" IVar="14" Cut="-1.2672604560852051e+01" cType="1" res="-9.5124943181872368e-03" rms="4.1273498535156250e-01" purity="5.2748727798461914e-01" nType="0">
            <Node pos="l" depth="3" NCoef="0" IVar="-1" Cut="0.0000000000000000e+00" cType="1" res="-2.6587930042296648e-03" rms="4.1424927115440369e-01" purity="5.2422261238098145e-01" nType="-99"/>
            <Node pos="r" depth="3" NCoef="0" IVar="-1" Cut="0.0000000000000000e+00" cType="1" res="-4.8887845128774643e-02" rms="4.1125389933586121e-01" purity="5.3035229444503784e-01" nType="-99"/>
          </Node>
          <Node pos="r" depth="2" NCoef="0" IVar="-1" Cut="0.0000000000000000e+00" cType="1" res="1.5729673206806183e-02" rms="4.3114572763442993e-01" purity="4.2893165349960327e-01" nType="-99"/>
        </Node>
        <Node pos="r" depth="1" NCoef="0" IVar="-1" Cut="0.0000000000000000e+00" cType="1" res="2.3804428055882454e-02" rms="4.3602624535560608e-01" purity="5.1578485965728760e-01" nType="-99"/>
      </Node>
    </BinaryTree>
    <BinaryTree type="DecisionTree" boostWeight="1.0000000000000000e+00" itree="48">
      <Node pos="s" depth="0" NCoef="0" IVar="11" Cut="-9.0243971347808838e-01" cType="1" res="3.7047736896056449e-06" rms="4.2452579736709595e-01" purity="5.0000000000000000e-01" nType="0">
        <Node pos="l" depth="1" NCoef="0" IVar="12" Cut="-2.0318832397460938e+00" cType="1" res="5.6739486753940582e-03" rms="4.1971838474273682e-01" purity="5.3541696071624756e-01" nType="0">
          <Node pos="l" depth="2" NCoef="0" IVar="-1" Cut="0.0000000000000000e+00" cType="1" res="4.7852411866188049e-02" rms="4.1303074359893799e-01" purity="6.8870979547500610e-01" nType="-99"/>
