<?xml version="1.0"?>
<MethodSetup Method="BDT::BDT_400_MinNodeSize5of100">
  <GeneralInfo>
    <Info name="TMVA Release" value="4.2.1 [262657]"/>
    <Info name="ROOT Release" value="6.14/09 [396809]"/>
    <Info name="Creator" value="bhoh"/>
    <Info name="Date" value="Mon Nov 16 20:01:07 2020"/>
    <Info name="Host" value="Linux cmsbuilder10.cern.ch 2.6.32-754.12.1.el6.x86_64 #1 SMP Thu Apr 11 11:50:45 CEST 2019 x86_64 x86_64 x86_64 GNU/Linux"/>
    <Info name="Dir" value="/cms/ldap_home/bhoh/latinos/CMSSW_10_6_4/src/SNuAnalytics/MVATool/scripts"/>
    <Info name="Training events" value="142670"/>
    <Info name="TrainingTime" value="2.86664040e+01"/>
    <Info name="AnalysisType" value="Classification"/>
  </GeneralInfo>
  <Options>
    <Option name="V" modified="Yes">False</Option>
    <Option name="VerbosityLevel" modified="No">Default</Option>
    <Option name="VarTransform" modified="Yes">N,D</Option>
    <Option name="H" modified="Yes">False</Option>
    <Option name="CreateMVAPdfs" modified="No">False</Option>
    <Option name="IgnoreNegWeightsInTraining" modified="No">False</Option>
    <Option name="NTrees" modified="Yes">400</Option>
    <Option name="MaxDepth" modified="Yes">2</Option>
    <Option name="MinNodeSize" modified="Yes">5%</Option>
    <Option name="nCuts" modified="Yes">100</Option>
    <Option name="BoostType" modified="Yes">Grad</Option>
    <Option name="AdaBoostR2Loss" modified="No">quadratic</Option>
    <Option name="UseBaggedBoost" modified="No">False</Option>
    <Option name="Shrinkage" modified="No">1.000000e+00</Option>
    <Option name="AdaBoostBeta" modified="No">5.000000e-01</Option>
    <Option name="UseRandomisedTrees" modified="No">False</Option>
    <Option name="UseNvars" modified="No">4</Option>
    <Option name="UsePoissonNvars" modified="No">True</Option>
    <Option name="BaggedSampleFraction" modified="No">6.000000e-01</Option>
    <Option name="UseYesNoLeaf" modified="No">True</Option>
    <Option name="NegWeightTreatment" modified="No">pray</Option>
    <Option name="Css" modified="No">1.000000e+00</Option>
    <Option name="Cts_sb" modified="No">1.000000e+00</Option>
    <Option name="Ctb_ss" modified="No">1.000000e+00</Option>
    <Option name="Cbb" modified="No">1.000000e+00</Option>
    <Option name="NodePurityLimit" modified="No">5.000000e-01</Option>
    <Option name="SeparationType" modified="Yes">giniindex</Option>
    <Option name="RegressionLossFunctionBDTG" modified="No">huber</Option>
    <Option name="HuberQuantile" modified="No">7.000000e-01</Option>
    <Option name="DoBoostMonitor" modified="No">False</Option>
    <Option name="UseFisherCuts" modified="No">False</Option>
    <Option name="MinLinCorrForFisher" modified="No">8.000000e-01</Option>
    <Option name="UseExclusiveVars" modified="No">False</Option>
    <Option name="DoPreselection" modified="No">False</Option>
    <Option name="SigToBkgFraction" modified="No">1.000000e+00</Option>
    <Option name="PruneMethod" modified="Yes">nopruning</Option>
    <Option name="PruneStrength" modified="No">0.000000e+00</Option>
    <Option name="PruningValFraction" modified="No">5.000000e-01</Option>
    <Option name="SkipNormalization" modified="No">False</Option>
    <Option name="nEventsMin" modified="No">0</Option>
    <Option name="UseBaggedGrad" modified="No">False</Option>
    <Option name="GradBaggingFraction" modified="No">6.000000e-01</Option>
    <Option name="UseNTrainEvents" modified="No">0</Option>
    <Option name="NNodesMax" modified="No">0</Option>
  </Options>
  <Variables NVar="15">
    <Variable VarIndex="0" Expression="csv_jet0_mvaCHToCB" Label="csv_jet0_mvaCHToCB" Title="csv_jet0_mvaCHToCB" Unit="" Internal="csv_jet0_mvaCHToCB" Type="F" Min="4.96093750e-01" Max="9.99511719e-01"/>
    <Variable VarIndex="1" Expression="csv_jet1_mvaCHToCB" Label="csv_jet1_mvaCHToCB" Title="csv_jet1_mvaCHToCB" Unit="" Internal="csv_jet1_mvaCHToCB" Type="F" Min="4.94140625e-01" Max="9.99511719e-01"/>
    <Variable VarIndex="2" Expression="csv_jet2_mvaCHToCB" Label="csv_jet2_mvaCHToCB" Title="csv_jet2_mvaCHToCB" Unit="" Internal="csv_jet2_mvaCHToCB" Type="F" Min="-2.00000000e+00" Max="9.90722656e-01"/>
    <Variable VarIndex="3" Expression="(csv_jet0_mvaCHToCB+csv_jet1_mvaCHToCB+csv_jet2_mvaCHToCB)/3" Label="avg_csv_had_top" Title="avg_csv_had_top" Unit="" Internal="avg_csv_had_top" Type="F" Min="-3.23730469e-01" Max="9.95117188e-01"/>
    <Variable VarIndex="4" Expression="(csv_jet0_mvaCHToCB-(csv_jet0_mvaCHToCB+csv_jet1_mvaCHToCB+csv_jet2_mvaCHToCB)/3)*(csv_jet0_mvaCHToCB-(csv_jet0_mvaCHToCB+csv_jet1_mvaCHToCB+csv_jet2_mvaCHToCB)/3)" Label="2nd_moment_csv_jet0_mvaCHToCB" Title="2nd_moment_csv_jet0_mvaCHToCB" Unit="" Internal="2nd_moment_csv_jet0_mvaCHToCB" Type="F" Min="5.96046448e-06" Max="1.36187077e+00"/>
    <Variable VarIndex="5" Expression="(csv_jet1_mvaCHToCB-(csv_jet0_mvaCHToCB+csv_jet1_mvaCHToCB+csv_jet2_mvaCHToCB)/3)*(csv_jet1_mvaCHToCB-(csv_jet0_mvaCHToCB+csv_jet1_mvaCHToCB+csv_jet2_mvaCHToCB)/3)" Label="2nd_moment_csv_jet1_mvaCHToCB" Title="2nd_moment_csv_jet1_mvaCHToCB" Unit="" Internal="2nd_moment_csv_jet1_mvaCHToCB" Type="F" Min="2.58700717e-11" Max="9.98047829e-01"/>
    <Variable VarIndex="6" Expression="(csv_jet2_mvaCHToCB-(csv_jet0_mvaCHToCB+csv_jet1_mvaCHToCB+csv_jet2_mvaCHToCB)/3)*(csv_jet2_mvaCHToCB-(csv_jet0_mvaCHToCB+csv_jet1_mvaCHToCB+csv_jet2_mvaCHToCB)/3)" Label="2nd_moment_csv_jet2_mvaCHToCB" Title="2nd_moment_csv_jet2_mvaCHToCB" Unit="" Internal="2nd_moment_csv_jet2_mvaCHToCB" Type="F" Min="1.40137145e-05" Max="3.99609470e+00"/>
    <Variable VarIndex="7" Expression="dijet_deltaR0_mvaCHToCB" Label="dijet_deltaR0_mvaCHToCB" Title="dijet_deltaR0_mvaCHToCB" Unit="" Internal="dijet_deltaR0_mvaCHToCB" Type="F" Min="4.01374996e-01" Max="3.88450432e+00"/>
    <Variable VarIndex="8" Expression="dijet_deltaR1_mvaCHToCB" Label="dijet_deltaR1_mvaCHToCB" Title="dijet_deltaR1_mvaCHToCB" Unit="" Internal="dijet_deltaR1_mvaCHToCB" Type="F" Min="3.93413514e-01" Max="4.28991222e+00"/>
    <Variable VarIndex="9" Expression="Hplus_b_deltaR0_mvaCHToCB" Label="Hplus_b_deltaR0_mvaCHToCB" Title="Hplus_b_deltaR0_mvaCHToCB" Unit="" Internal="Hplus_b_deltaR0_mvaCHToCB" Type="F" Min="1.62441544e-02" Max="6.39777470e+00"/>
    <Variable VarIndex="10" Expression="Hplus_b_deltaR1_mvaCHToCB" Label="Hplus_b_deltaR1_mvaCHToCB" Title="Hplus_b_deltaR1_mvaCHToCB" Unit="" Internal="Hplus_b_deltaR1_mvaCHToCB" Type="F" Min="6.77269092e-03" Max="5.59333515e+00"/>
    <Variable VarIndex="11" Expression="bb_deltaR_mvaCHToCB" Label="bb_deltaR_mvaCHToCB" Title="bb_deltaR_mvaCHToCB" Unit="" Internal="bb_deltaR_mvaCHToCB" Type="F" Min="3.95335436e-01" Max="4.03797197e+00"/>
    <Variable VarIndex="12" Expression="min_deltaR_bb_event_mvaCHToCB" Label="min_deltaR_bb_event_mvaCHToCB" Title="min_deltaR_bb_event_mvaCHToCB" Unit="" Internal="min_deltaR_bb_event_mvaCHToCB" Type="F" Min="3.95335436e-01" Max="3.35717654e+00"/>
    <Variable VarIndex="13" Expression="HT_btagged_M" Label="HT_btagged_M" Title="HT_btagged_M" Unit="" Internal="HT_btagged_M" Type="F" Min="4.37031250e+01" Max="6.39562500e+02"/>
    <Variable VarIndex="14" Expression="HT_not_btagged_M" Label="HT_not_btagged_M" Title="HT_not_btagged_M" Unit="" Internal="HT_not_btagged_M" Type="F" Min="0.00000000e+00" Max="5.40000000e+02"/>
  </Variables>
  <Spectators NSpec="0"/>
  <Classes NClass="2">
    <Class Name="Signal" Index="0"/>
    <Class Name="Background" Index="1"/>
  </Classes>
  <Transformations NTransformations="2">
    <Transform Name="Normalize">
      <Selection>
        <Input NInputs="15">
          <Input Type="Variable" Label="csv_jet0_mvaCHToCB" Expression="csv_jet0_mvaCHToCB"/>
          <Input Type="Variable" Label="csv_jet1_mvaCHToCB" Expression="csv_jet1_mvaCHToCB"/>
          <Input Type="Variable" Label="csv_jet2_mvaCHToCB" Expression="csv_jet2_mvaCHToCB"/>
          <Input Type="Variable" Label="avg_csv_had_top" Expression="(csv_jet0_mvaCHToCB+csv_jet1_mvaCHToCB+csv_jet2_mvaCHToCB)/3"/>
          <Input Type="Variable" Label="2nd_moment_csv_jet0_mvaCHToCB" Expression="(csv_jet0_mvaCHToCB-(csv_jet0_mvaCHToCB+csv_jet1_mvaCHToCB+csv_jet2_mvaCHToCB)/3)*(csv_jet0_mvaCHToCB-(csv_jet0_mvaCHToCB+csv_jet1_mvaCHToCB+csv_jet2_mvaCHToCB)/3)"/>
          <Input Type="Variable" Label="2nd_moment_csv_jet1_mvaCHToCB" Expression="(csv_jet1_mvaCHToCB-(csv_jet0_mvaCHToCB+csv_jet1_mvaCHToCB+csv_jet2_mvaCHToCB)/3)*(csv_jet1_mvaCHToCB-(csv_jet0_mvaCHToCB+csv_jet1_mvaCHToCB+csv_jet2_mvaCHToCB)/3)"/>
          <Input Type="Variable" Label="2nd_moment_csv_jet2_mvaCHToCB" Expression="(csv_jet2_mvaCHToCB-(csv_jet0_mvaCHToCB+csv_jet1_mvaCHToCB+csv_jet2_mvaCHToCB)/3)*(csv_jet2_mvaCHToCB-(csv_jet0_mvaCHToCB+csv_jet1_mvaCHToCB+csv_jet2_mvaCHToCB)/3)"/>
          <Input Type="Variable" Label="dijet_deltaR0_mvaCHToCB" Expression="dijet_deltaR0_mvaCHToCB"/>
          <Input Type="Variable" Label="dijet_deltaR1_mvaCHToCB" Expression="dijet_deltaR1_mvaCHToCB"/>
          <Input Type="Variable" Label="Hplus_b_deltaR0_mvaCHToCB" Expression="Hplus_b_deltaR0_mvaCHToCB"/>
          <Input Type="Variable" Label="Hplus_b_deltaR1_mvaCHToCB" Expression="Hplus_b_deltaR1_mvaCHToCB"/>
          <Input Type="Variable" Label="bb_deltaR_mvaCHToCB" Expression="bb_deltaR_mvaCHToCB"/>
          <Input Type="Variable" Label="min_deltaR_bb_event_mvaCHToCB" Expression="min_deltaR_bb_event_mvaCHToCB"/>
          <Input Type="Variable" Label="HT_btagged_M" Expression="HT_btagged_M"/>
          <Input Type="Variable" Label="HT_not_btagged_M" Expression="HT_not_btagged_M"/>
        </Input>
        <Output NOutputs="15">
          <Output Type="Variable" Label="csv_jet0_mvaCHToCB" Expression="csv_jet0_mvaCHToCB"/>
          <Output Type="Variable" Label="csv_jet1_mvaCHToCB" Expression="csv_jet1_mvaCHToCB"/>
          <Output Type="Variable" Label="csv_jet2_mvaCHToCB" Expression="csv_jet2_mvaCHToCB"/>
          <Output Type="Variable" Label="avg_csv_had_top" Expression="(csv_jet0_mvaCHToCB+csv_jet1_mvaCHToCB+csv_jet2_mvaCHToCB)/3"/>
          <Output Type="Variable" Label="2nd_moment_csv_jet0_mvaCHToCB" Expression="(csv_jet0_mvaCHToCB-(csv_jet0_mvaCHToCB+csv_jet1_mvaCHToCB+csv_jet2_mvaCHToCB)/3)*(csv_jet0_mvaCHToCB-(csv_jet0_mvaCHToCB+csv_jet1_mvaCHToCB+csv_jet2_mvaCHToCB)/3)"/>
          <Output Type="Variable" Label="2nd_moment_csv_jet1_mvaCHToCB" Expression="(csv_jet1_mvaCHToCB-(csv_jet0_mvaCHToCB+csv_jet1_mvaCHToCB+csv_jet2_mvaCHToCB)/3)*(csv_jet1_mvaCHToCB-(csv_jet0_mvaCHToCB+csv_jet1_mvaCHToCB+csv_jet2_mvaCHToCB)/3)"/>
          <Output Type="Variable" Label="2nd_moment_csv_jet2_mvaCHToCB" Expression="(csv_jet2_mvaCHToCB-(csv_jet0_mvaCHToCB+csv_jet1_mvaCHToCB+csv_jet2_mvaCHToCB)/3)*(csv_jet2_mvaCHToCB-(csv_jet0_mvaCHToCB+csv_jet1_mvaCHToCB+csv_jet2_mvaCHToCB)/3)"/>
          <Output Type="Variable" Label="dijet_deltaR0_mvaCHToCB" Expression="dijet_deltaR0_mvaCHToCB"/>
          <Output Type="Variable" Label="dijet_deltaR1_mvaCHToCB" Expression="dijet_deltaR1_mvaCHToCB"/>
          <Output Type="Variable" Label="Hplus_b_deltaR0_mvaCHToCB" Expression="Hplus_b_deltaR0_mvaCHToCB"/>
          <Output Type="Variable" Label="Hplus_b_deltaR1_mvaCHToCB" Expression="Hplus_b_deltaR1_mvaCHToCB"/>
          <Output Type="Variable" Label="bb_deltaR_mvaCHToCB" Expression="bb_deltaR_mvaCHToCB"/>
          <Output Type="Variable" Label="min_deltaR_bb_event_mvaCHToCB" Expression="min_deltaR_bb_event_mvaCHToCB"/>
          <Output Type="Variable" Label="HT_btagged_M" Expression="HT_btagged_M"/>
          <Output Type="Variable" Label="HT_not_btagged_M" Expression="HT_not_btagged_M"/>
        </Output>
      </Selection>
      <Class ClassIndex="0">
        <Ranges>
          <Range Index="0" Min="4.9609375000000000e-01" Max="9.9951171875000000e-01"/>
          <Range Index="1" Min="4.9414062500000000e-01" Max="9.9951171875000000e-01"/>
          <Range Index="2" Min="-2.0000000000000000e+00" Max="9.9072265625000000e-01"/>
          <Range Index="3" Min="-3.2373046875000000e-01" Max="9.9511718750000000e-01"/>
          <Range Index="4" Min="5.9604644775390625e-06" Max="1.3557994365692139e+00"/>
          <Range Index="5" Min="2.5870071709843678e-11" Max="9.9804782867431641e-01"/>
          <Range Index="6" Min="1.4013714462635107e-05" Max="3.9960947036743164e+00"/>
          <Range Index="7" Min="4.0137499570846558e-01" Max="3.8845043182373047e+00"/>
          <Range Index="8" Min="3.9341351389884949e-01" Max="4.2899122238159180e+00"/>
          <Range Index="9" Min="2.1743353456258774e-02" Max="6.3977746963500977e+00"/>
          <Range Index="10" Min="6.7726909182965755e-03" Max="5.5933351516723633e+00"/>
          <Range Index="11" Min="4.0026065707206726e-01" Max="4.0379719734191895e+00"/>
          <Range Index="12" Min="4.0026065707206726e-01" Max="3.3571765422821045e+00"/>
          <Range Index="13" Min="5.3281250000000000e+01" Max="6.3700000000000000e+02"/>
          <Range Index="14" Min="0.0000000000000000e+00" Max="5.4000000000000000e+02"/>
        </Ranges>
      </Class>
      <Class ClassIndex="1">
        <Ranges>
          <Range Index="0" Min="4.9609375000000000e-01" Max="9.9951171875000000e-01"/>
          <Range Index="1" Min="4.9414062500000000e-01" Max="9.9951171875000000e-01"/>
          <Range Index="2" Min="-2.0000000000000000e+00" Max="9.8291015625000000e-01"/>
          <Range Index="3" Min="-3.0143228173255920e-01" Max="9.9218750000000000e-01"/>
          <Range Index="4" Min="5.3644180297851562e-05" Max="1.3618707656860352e+00"/>
          <Range Index="5" Min="2.3283064365386963e-10" Max="9.9642246961593628e-01"/>
          <Range Index="6" Min="8.6069107055664062e-05" Max="3.9908905029296875e+00"/>
          <Range Index="7" Min="4.0348261594772339e-01" Max="3.8608622550964355e+00"/>
          <Range Index="8" Min="3.9965561032295227e-01" Max="4.2004628181457520e+00"/>
          <Range Index="9" Min="1.6244154423475266e-02" Max="5.4958553314208984e+00"/>
          <Range Index="10" Min="9.5646828413009644e-03" Max="5.1050958633422852e+00"/>
          <Range Index="11" Min="3.9533543586730957e-01" Max="3.8931784629821777e+00"/>
          <Range Index="12" Min="3.9533543586730957e-01" Max="3.2821199893951416e+00"/>
          <Range Index="13" Min="4.3703125000000000e+01" Max="6.3956250000000000e+02"/>
          <Range Index="14" Min="0.0000000000000000e+00" Max="4.2650000000000000e+02"/>
        </Ranges>
      </Class>
      <Class ClassIndex="2">
        <Ranges>
          <Range Index="0" Min="4.9609375000000000e-01" Max="9.9951171875000000e-01"/>
          <Range Index="1" Min="4.9414062500000000e-01" Max="9.9951171875000000e-01"/>
          <Range Index="2" Min="-2.0000000000000000e+00" Max="9.9072265625000000e-01"/>
          <Range Index="3" Min="-3.2373046875000000e-01" Max="9.9511718750000000e-01"/>
          <Range Index="4" Min="5.9604644775390625e-06" Max="1.3618707656860352e+00"/>
          <Range Index="5" Min="2.5870071709843678e-11" Max="9.9804782867431641e-01"/>
          <Range Index="6" Min="1.4013714462635107e-05" Max="3.9960947036743164e+00"/>
          <Range Index="7" Min="4.0137499570846558e-01" Max="3.8845043182373047e+00"/>
          <Range Index="8" Min="3.9341351389884949e-01" Max="4.2899122238159180e+00"/>
          <Range Index="9" Min="1.6244154423475266e-02" Max="6.3977746963500977e+00"/>
          <Range Index="10" Min="6.7726909182965755e-03" Max="5.5933351516723633e+00"/>
          <Range Index="11" Min="3.9533543586730957e-01" Max="4.0379719734191895e+00"/>
          <Range Index="12" Min="3.9533543586730957e-01" Max="3.3571765422821045e+00"/>
          <Range Index="13" Min="4.3703125000000000e+01" Max="6.3956250000000000e+02"/>
          <Range Index="14" Min="0.0000000000000000e+00" Max="5.4000000000000000e+02"/>
        </Ranges>
      </Class>
    </Transform>
    <Transform Name="Decorrelation">
      <Selection>
        <Input NInputs="15">
          <Input Type="Variable" Label="csv_jet0_mvaCHToCB" Expression="csv_jet0_mvaCHToCB"/>
          <Input Type="Variable" Label="csv_jet1_mvaCHToCB" Expression="csv_jet1_mvaCHToCB"/>
          <Input Type="Variable" Label="csv_jet2_mvaCHToCB" Expression="csv_jet2_mvaCHToCB"/>
          <Input Type="Variable" Label="avg_csv_had_top" Expression="(csv_jet0_mvaCHToCB+csv_jet1_mvaCHToCB+csv_jet2_mvaCHToCB)/3"/>
          <Input Type="Variable" Label="2nd_moment_csv_jet0_mvaCHToCB" Expression="(csv_jet0_mvaCHToCB-(csv_jet0_mvaCHToCB+csv_jet1_mvaCHToCB+csv_jet2_mvaCHToCB)/3)*(csv_jet0_mvaCHToCB-(csv_jet0_mvaCHToCB+csv_jet1_mvaCHToCB+csv_jet2_mvaCHToCB)/3)"/>
          <Input Type="Variable" Label="2nd_moment_csv_jet1_mvaCHToCB" Expression="(csv_jet1_mvaCHToCB-(csv_jet0_mvaCHToCB+csv_jet1_mvaCHToCB+csv_jet2_mvaCHToCB)/3)*(csv_jet1_mvaCHToCB-(csv_jet0_mvaCHToCB+csv_jet1_mvaCHToCB+csv_jet2_mvaCHToCB)/3)"/>
          <Input Type="Variable" Label="2nd_moment_csv_jet2_mvaCHToCB" Expression="(csv_jet2_mvaCHToCB-(csv_jet0_mvaCHToCB+csv_jet1_mvaCHToCB+csv_jet2_mvaCHToCB)/3)*(csv_jet2_mvaCHToCB-(csv_jet0_mvaCHToCB+csv_jet1_mvaCHToCB+csv_jet2_mvaCHToCB)/3)"/>
          <Input Type="Variable" Label="dijet_deltaR0_mvaCHToCB" Expression="dijet_deltaR0_mvaCHToCB"/>
          <Input Type="Variable" Label="dijet_deltaR1_mvaCHToCB" Expression="dijet_deltaR1_mvaCHToCB"/>
          <Input Type="Variable" Label="Hplus_b_deltaR0_mvaCHToCB" Expression="Hplus_b_deltaR0_mvaCHToCB"/>
          <Input Type="Variable" Label="Hplus_b_deltaR1_mvaCHToCB" Expression="Hplus_b_deltaR1_mvaCHToCB"/>
          <Input Type="Variable" Label="bb_deltaR_mvaCHToCB" Expression="bb_deltaR_mvaCHToCB"/>
          <Input Type="Variable" Label="min_deltaR_bb_event_mvaCHToCB" Expression="min_deltaR_bb_event_mvaCHToCB"/>
          <Input Type="Variable" Label="HT_btagged_M" Expression="HT_btagged_M"/>
          <Input Type="Variable" Label="HT_not_btagged_M" Expression="HT_not_btagged_M"/>
        </Input>
        <Output NOutputs="15">
          <Output Type="Variable" Label="csv_jet0_mvaCHToCB" Expression="csv_jet0_mvaCHToCB"/>
          <Output Type="Variable" Label="csv_jet1_mvaCHToCB" Expression="csv_jet1_mvaCHToCB"/>
          <Output Type="Variable" Label="csv_jet2_mvaCHToCB" Expression="csv_jet2_mvaCHToCB"/>
          <Output Type="Variable" Label="avg_csv_had_top" Expression="(csv_jet0_mvaCHToCB+csv_jet1_mvaCHToCB+csv_jet2_mvaCHToCB)/3"/>
          <Output Type="Variable" Label="2nd_moment_csv_jet0_mvaCHToCB" Expression="(csv_jet0_mvaCHToCB-(csv_jet0_mvaCHToCB+csv_jet1_mvaCHToCB+csv_jet2_mvaCHToCB)/3)*(csv_jet0_mvaCHToCB-(csv_jet0_mvaCHToCB+csv_jet1_mvaCHToCB+csv_jet2_mvaCHToCB)/3)"/>
          <Output Type="Variable" Label="2nd_moment_csv_jet1_mvaCHToCB" Expression="(csv_jet1_mvaCHToCB-(csv_jet0_mvaCHToCB+csv_jet1_mvaCHToCB+csv_jet2_mvaCHToCB)/3)*(csv_jet1_mvaCHToCB-(csv_jet0_mvaCHToCB+csv_jet1_mvaCHToCB+csv_jet2_mvaCHToCB)/3)"/>
          <Output Type="Variable" Label="2nd_moment_csv_jet2_mvaCHToCB" Expression="(csv_jet2_mvaCHToCB-(csv_jet0_mvaCHToCB+csv_jet1_mvaCHToCB+csv_jet2_mvaCHToCB)/3)*(csv_jet2_mvaCHToCB-(csv_jet0_mvaCHToCB+csv_jet1_mvaCHToCB+csv_jet2_mvaCHToCB)/3)"/>
          <Output Type="Variable" Label="dijet_deltaR0_mvaCHToCB" Expression="dijet_deltaR0_mvaCHToCB"/>
          <Output Type="Variable" Label="dijet_deltaR1_mvaCHToCB" Expression="dijet_deltaR1_mvaCHToCB"/>
          <Output Type="Variable" Label="Hplus_b_deltaR0_mvaCHToCB" Expression="Hplus_b_deltaR0_mvaCHToCB"/>
          <Output Type="Variable" Label="Hplus_b_deltaR1_mvaCHToCB" Expression="Hplus_b_deltaR1_mvaCHToCB"/>
          <Output Type="Variable" Label="bb_deltaR_mvaCHToCB" Expression="bb_deltaR_mvaCHToCB"/>
          <Output Type="Variable" Label="min_deltaR_bb_event_mvaCHToCB" Expression="min_deltaR_bb_event_mvaCHToCB"/>
          <Output Type="Variable" Label="HT_btagged_M" Expression="HT_btagged_M"/>
          <Output Type="Variable" Label="HT_not_btagged_M" Expression="HT_not_btagged_M"/>
        </Output>
      </Selection>
      <Matrix Rows="15" Columns="15">
        5.640095538851256e+04 5.661473917537696e+04 3.350440585661329e+05 -4.432446718877902e+05 -5.816491173455894e+00 -7.205228970851874e-01 4.073969478739503e+00 -7.288258724520749e-02 -7.427420440691622e-03 3.382744120073150e-02 4.870211946822119e-02 7.858481521031574e-03 -2.473955389704376e-02 1.614841640991908e-01 -2.086230688261844e-01 5.661473917537686e+04 5.683775214314762e+04 3.363444588708415e+05 -4.449641589317509e+05 4.635916079052141e+00 1.758915722460026e-01 -4.738416935829060e+00 -2.619412096744028e-02 1.346606934593790e-02 4.118772303949318e-02 1.831655109551140e-03 8.072366115510114e-02 3.174337975357371e-02 1.083288825557377e-01 -1.138175141365943e-01 3.350440585661326e+05 3.363444588708418e+05 1.990453381205134e+06 -2.633236260639913e+06 3.201272192174352e+00 7.058234828603291e-01 2.996607587902835e+00 7.873056637975176e-02 7.037598686040175e-02 -6.090129009007697e-03 -3.002349291177518e-03 -1.076051858170581e-01 2.326641959869393e-01 -4.496026914438560e-01 8.274197466784480e-01 -4.432446718877897e+05 -4.449641589317513e+05 -2.633236260639913e+06 3.483618512327186e+06 2.350601140562500e+00 5.401552092201558e-01 2.115399468703468e+00 5.434190785841721e-02 5.681853685057221e-02 -1.679360162689093e-02 4.987965037130051e-03 -8.848371397971547e-02 1.958505824938438e-01 -3.328143059474197e-01 6.494165153504987e-01 -5.816491174006222e+00 4.635916078499668e+00 3.201272188904895e+00 2.350601144887774e+00 5.361244112618252e+01 1.893463569648462e+01 -5.498915731653464e+01 1.090717532042009e-01 3.821692843506280e-04 -2.480600275225733e-02 -1.172838136259615e-01 6.949617047834813e-03 4.278902540097472e-02 -4.263543747363216e-02 4.622121213957730e-01 -7.205228972486329e-01 1.758915720819144e-01 7.058234818893031e-01 5.401552105047628e-01 1.893463569648459e+01 3.404651737450510e+01 -4.178260774181060e+01 -8.234806055622386e-02 -2.670858268623043e-02 2.153836232736231e-02 1.023373429698696e-01 -5.542278503408230e-02 1.060060771622442e-01 -1.144442298184092e-01 1.045521372709055e-01 4.073969479368567e+00 -4.738416935197540e+00 2.996607591640041e+00 2.115399463759370e+00 -5.498915731653460e+01 -4.178260774181064e+01 8.862855571396246e+01 6.277021441992907e-02 6.515528326556180e-02 -8.670260119272140e-03 -1.168648200148891e-02 -1.084357468912548e-01 1.431483923100288e-01 -3.524876801711400e-01 6.068972153965571e-01 -7.288258724125361e-02 -2.619412096347096e-02 7.873056640324153e-02 5.434190782734193e-02 1.090717532042020e-01 -8.234806055622307e-02 6.277021441992776e-02 3.376033752226991e+00 1.058010864390664e-01 1.557541293596265e-01 -2.159564804471815e+00 6.108184817783953e-01 3.719061787019349e-02 9.497404272956076e-01 9.320240706450210e-01 -7.427420438721136e-03 1.346606934791601e-02 7.037598687210807e-02 5.681853683508556e-02 3.821692843509195e-04 -2.670858268623023e-02 6.515528326556146e-02 1.058010864390666e-01 3.062357555925274e+00 -1.660236502249575e+00 -1.321124061364566e-01 6.272932987559483e-01 1.303658732682581e-01 7.187047125396832e-01 7.666752913955732e-01 3.382744119213535e-02 4.118772303086371e-02 -6.090129060076204e-03 -1.679360155933054e-02 -2.480600275225798e-02 2.153836232736195e-02 -8.670260119271384e-03 1.557541293596256e-01 -1.660236502249575e+00 7.030322980910942e+00 -5.253164533811976e-01 -2.145124425305601e+00 -9.966407139801686e-02 1.033242426591507e-01 -3.967716742612137e-02 4.870211946793546e-02 1.831655109263986e-03 -3.002349292876155e-03 4.987965039376958e-03 -1.172838136259635e-01 1.023373429698683e-01 -1.168648200148636e-02 -2.159564804471815e+00 -1.321124061364562e-01 -5.253164533811994e-01 6.393556182113858e+00 -1.255354639414681e+00 -5.678008146947781e-02 7.812348218635209e-02 1.372530714250907e-01 7.858481509222746e-03 8.072366114324675e-02 -1.076051858872114e-01 -8.848371388690679e-02 6.949617047836643e-03 -5.542278503408096e-02 -1.084357468912572e-01 6.108184817783959e-01 6.272932987559479e-01 -2.145124425305599e+00 -1.255354639414682e+00 3.907116354789812e+00 -8.364210885983088e-01 7.294276040369032e-01 5.920552325094907e-01 -2.473955388504193e-02 3.174337976562197e-02 2.326641960582395e-01 1.958505823995178e-01 4.278902540097431e-02 1.060060771622441e-01 1.431483923100289e-01 3.719061787019336e-02 1.303658732682580e-01 -9.966407139801672e-02 -5.678008146947783e-02 -8.364210885983091e-01 3.651292227338885e+00 5.305111066760253e-01 -4.712297242281693e-02 1.614841640838280e-01 1.083288825403151e-01 -4.496026915351247e-01 -3.328143058266769e-01 -4.263543747363224e-02 -1.144442298184091e-01 -3.524876801711400e-01 9.497404272956075e-01 7.187047125396830e-01 1.033242426591513e-01 7.812348218635190e-02 7.294276040369032e-01 5.305111066760255e-01 7.189634670317450e+00 2.425321582772391e+00 -2.086230688190480e-01 -1.138175141294300e-01 8.274197467208442e-01 6.494165152944107e-01 4.622121213957743e-01 1.045521372709063e-01 6.068972153965551e-01 9.320240706450208e-01 7.666752913955729e-01 -3.967716742612051e-02 1.372530714250907e-01 5.920552325094903e-01 -4.712297242281657e-02 2.425321582772392e+00 7.549137131425119e+00 
      </Matrix>
      <Matrix Rows="15" Columns="15">
         -nan  -nan  -nan  -nan  -nan  -nan  -nan  -nan  -nan  -nan  -nan  -nan  -nan  -nan  -nan  -nan  -nan  -nan  -nan  -nan  -nan  -nan  -nan  -nan  -nan  -nan  -nan  -nan  -nan  -nan  -nan  -nan  -nan  -nan  -nan  -nan  -nan  -nan  -nan  -nan  -nan  -nan  -nan  -nan  -nan  -nan  -nan  -nan  -nan  -nan  -nan  -nan  -nan  -nan  -nan  -nan  -nan  -nan  -nan  -nan  -nan  -nan  -nan  -nan  -nan  -nan  -nan  -nan  -nan  -nan  -nan  -nan  -nan  -nan  -nan  -nan  -nan  -nan  -nan  -nan  -nan  -nan  -nan  -nan  -nan  -nan  -nan  -nan  -nan  -nan  -nan  -nan  -nan  -nan  -nan  -nan  -nan  -nan  -nan  -nan  -nan  -nan  -nan  -nan  -nan  -nan  -nan  -nan  -nan  -nan  -nan  -nan  -nan  -nan  -nan  -nan  -nan  -nan  -nan  -nan  -nan  -nan  -nan  -nan  -nan  -nan  -nan  -nan  -nan  -nan  -nan  -nan  -nan  -nan  -nan  -nan  -nan  -nan  -nan  -nan  -nan  -nan  -nan  -nan  -nan  -nan  -nan  -nan  -nan  -nan  -nan  -nan  -nan  -nan  -nan  -nan  -nan  -nan  -nan  -nan  -nan  -nan  -nan  -nan  -nan  -nan  -nan  -nan  -nan  -nan  -nan  -nan  -nan  -nan  -nan  -nan  -nan  -nan  -nan  -nan  -nan  -nan  -nan  -nan  -nan  -nan  -nan  -nan  -nan  -nan  -nan  -nan  -nan  -nan  -nan  -nan  -nan  -nan  -nan  -nan  -nan  -nan  -nan  -nan  -nan  -nan  -nan  -nan  -nan  -nan  -nan  -nan  -nan  -nan  -nan  -nan  -nan  -nan  -nan  -nan  -nan  -nan  -nan  -nan  -nan 
      </Matrix>
      <Matrix Rows="15" Columns="15">
        6.786182819885724e+04 6.812061188061920e+04 4.031337410817058e+05 -5.333235239732917e+05 -5.798191070601709e+00 -6.483279742885959e-01 3.891108618896505e+00 -4.901738057445783e-02 -9.585326168512921e-03 -9.364044202179261e-03 2.313370444456986e-02 -3.533916824448516e-03 -1.541240470354675e-02 1.056025018199253e-01 -1.814696663639591e-01 6.812061188061937e+04 6.838822361883760e+04 4.046983320558840e+05 -5.353924011861505e+05 4.528355774729940e+00 8.528993792824391e-02 -4.800442033831552e+00 -5.185030791470383e-02 1.410434854579072e-02 3.109542856560171e-02 -2.703429031333538e-02 9.477128603391220e-02 7.178220912372157e-02 1.065255834045154e-01 -9.307324396501780e-02 4.031337410817060e+05 4.046983320558835e+05 2.394964569501105e+06 -3.168378241022609e+06 3.384377556090815e+00 7.830089878577700e-01 3.666834895365639e+00 2.209420325857813e-02 1.090389223690791e-01 1.121779077375618e-02 -3.088652064144692e-03 -6.271008829507563e-02 2.545717532196201e-01 -2.646428160363428e-01 7.256466840021826e-01 -5.333235239732922e+05 -5.353924011861498e+05 -3.168378241022610e+06 4.191579659052864e+06 2.640427722076475e+00 7.312873285484938e-01 2.382915224386567e+00 7.767910069686308e-03 8.246369226237572e-02 1.738865386865006e-02 -7.042521499524907e-03 -6.402498102632527e-02 2.208228561777461e-01 -2.002335556053876e-01 5.846555395680236e-01 -5.798191069447807e+00 4.528355775888319e+00 3.384377562945993e+00 2.640427713007519e+00 5.056458082789003e+01 1.804634787727534e+01 -5.200100476890137e+01 6.381158517953754e-03 2.649712122246775e-02 5.154444559836914e-02 -1.936320920202576e-02 -4.813666339151818e-02 6.274979061160768e-02 -6.683762963300989e-02 4.312239232315005e-01 -6.483279734084172e-01 8.528993881183067e-02 7.830089930867563e-01 7.312873216308698e-01 1.804634787727532e+01 3.309069134786683e+01 -3.965107658826678e+01 -7.501302602026243e-02 -3.783918668202792e-03 2.152504857434888e-02 5.613286347442660e-02 -2.362200865406716e-02 1.109313647195023e-01 -3.043241958080384e-02 1.046971002694898e-01 3.891108617014142e+00 -4.800442035721208e+00 3.666834884182850e+00 2.382915239180713e+00 -5.200100476890135e+01 -3.965107658826680e+01 8.474769002980476e+01 4.204132305907459e-02 7.445697451332807e-02 -7.084368247816733e-02 -3.703533985513416e-02 -2.899761675961599e-02 1.133000001479834e-01 -2.265810871013570e-01 6.062827416867922e-01 -4.901738057577376e-02 -5.185030791602489e-02 2.209420325076006e-02 7.767910080029042e-03 6.381158517953928e-03 -7.501302602026223e-02 4.204132305907431e-02 3.281725060864985e+00 1.050247541164876e-01 1.463368628233735e-01 -1.970687535776021e+00 6.034614608878041e-01 1.302782026775624e-01 1.005271060332990e+00 8.630281579528036e-01 -9.585326166652475e-03 1.410434854765831e-02 1.090389223801313e-01 8.246369224775411e-02 2.649712122246767e-02 -3.783918668202754e-03 7.445697451332807e-02 1.050247541164875e-01 3.111970873966279e+00 -1.646411236181038e+00 -1.396431379566468e-01 5.740685881863132e-01 8.598814678387387e-02 6.706612547832858e-01 7.683822011693024e-01 -9.364044220750899e-03 3.109542854695804e-02 1.121779066342598e-02 1.738865401461058e-02 5.154444559836922e-02 2.152504857434883e-02 -7.084368247816711e-02 1.463368628233733e-01 -1.646411236181038e+00 7.440927265735493e+00 -5.841354471233386e-01 -2.245837403118946e+00 -1.249444447426986e-01 1.064820966407741e-01 2.816866245986127e-02 2.313370444379112e-02 -2.703429031411702e-02 -3.088652068770254e-03 -7.042521493405495e-03 -1.936320920202521e-02 5.613286347442716e-02 -3.703533985513506e-02 -1.970687535776021e+00 -1.396431379566468e-01 -5.841354471233388e-01 6.065374705408533e+00 -1.181788069936107e+00 -8.608130742639208e-02 1.136446589829197e-01 2.343631534578325e-01 -3.533916818120675e-03 9.477128604026444e-02 -6.271008825748449e-02 -6.402498107605642e-02 -4.813666339151898e-02 -2.362200865406767e-02 -2.899761675961505e-02 6.034614608878041e-01 5.740685881863133e-01 -2.245837403118946e+00 -1.181788069936106e+00 4.001515593684395e+00 -7.939187053432381e-01 8.127568737544985e-01 5.067687317056572e-01 -1.541240470561631e-02 7.178220912164392e-02 2.545717532073253e-01 2.208228561940113e-01 6.274979061160757e-02 1.109313647195024e-01 1.133000001479834e-01 1.302782026775624e-01 8.598814678387394e-02 -1.249444447426987e-01 -8.608130742639208e-02 -7.939187053432382e-01 3.377226504240041e+00 4.457687060473436e-01 3.410291143526856e-02 1.056025018214847e-01 1.065255834060810e-01 -2.646428160270782e-01 -2.002335556176447e-01 -6.683762963300982e-02 -3.043241958080373e-02 -2.265810871013572e-01 1.005271060332990e+00 6.706612547832855e-01 1.064820966407747e-01 1.136446589829200e-01 8.127568737544976e-01 4.457687060473439e-01 7.165724571310624e+00 2.266693919280070e+00 -1.814696663887543e-01 -9.307324398990922e-02 7.256466838548775e-01 5.846555397628985e-01 4.312239232315009e-01 1.046971002694903e-01 6.062827416867911e-01 8.630281579528033e-01 7.683822011693019e-01 2.816866245986210e-02 2.343631534578326e-01 5.067687317056566e-01 3.410291143526867e-02 2.266693919280070e+00 8.061940063862659e+00 
      </Matrix>
    </Transform>
  </Transformations>
  <MVAPdfs/>
  <Weights NTrees="400" AnalysisType="1">
    <BinaryTree type="DecisionTree" boostWeight="1.0000000000000000e+00" itree="0">
      <Node pos="s" depth="0" NCoef="0" IVar="1" Cut="4.6248305664062500e+03" cType="1" res="6.9771974114084256e-14" rms="5.0000000000000000e-01" purity="5.0000000000000000e-01" nType="0">
        <Node pos="l" depth="1" NCoef="0" IVar="3" Cut="-3.6212074218750000e+04" cType="1" res="-9.0868629515171051e-02" rms="4.9167355895042419e-01" purity="4.0913137793540955e-01" nType="0">
          <Node pos="l" depth="2" NCoef="0" IVar="-1" Cut="0.0000000000000000e+00" cType="1" res="-3.0194067955017090e-01" rms="4.7666335105895996e-01" purity="3.4902966022491455e-01" nType="-99"/>
          <Node pos="r" depth="2" NCoef="0" IVar="-1" Cut="0.0000000000000000e+00" cType="1" res="2.9834711551666260e-01" rms="4.7722873091697693e-01" purity="6.4917355775833130e-01" nType="-99"/>
        </Node>
        <Node pos="r" depth="1" NCoef="0" IVar="2" Cut="2.7367212890625000e+04" cType="1" res="2.0586460828781128e-01" rms="4.5565310120582581e-01" purity="7.0586460828781128e-01" nType="0">
          <Node pos="l" depth="2" NCoef="0" IVar="-1" Cut="0.0000000000000000e+00" cType="1" res="2.7450338006019592e-01" rms="4.8079305887222290e-01" purity="6.3725167512893677e-01" nType="-99"/>
          <Node pos="r" depth="2" NCoef="0" IVar="-1" Cut="0.0000000000000000e+00" cType="1" res="7.4670356512069702e-01" rms="3.3257848024368286e-01" purity="8.7335181236267090e-01" nType="-99"/>
        </Node>
      </Node>
    </BinaryTree>
    <BinaryTree type="DecisionTree" boostWeight="1.0000000000000000e+00" itree="1">
      <Node pos="s" depth="0" NCoef="0" IVar="12" Cut="-1.5005978345870972e+00" cType="1" res="3.9161881431937218e-03" rms="4.6696090698242188e-01" purity="5.0000000000000000e-01" nType="0">
        <Node pos="l" depth="1" NCoef="0" IVar="11" Cut="-1.2514154911041260e+00" cType="1" res="9.1076105833053589e-02" rms="4.5671105384826660e-01" purity="5.9627240896224976e-01" nType="0">
          <Node pos="l" depth="2" NCoef="0" IVar="-1" Cut="0.0000000000000000e+00" cType="1" res="4.0857353806495667e-01" rms="4.3831878900527954e-01" purity="7.0034706592559814e-01" nType="-99"/>
          <Node pos="r" depth="2" NCoef="0" IVar="-1" Cut="0.0000000000000000e+00" cType="1" res="9.2256233096122742e-02" rms="4.5909264683723450e-01" purity="5.3810727596282959e-01" nType="-99"/>
        </Node>
        <Node pos="r" depth="1" NCoef="0" IVar="8" Cut="-2.2859318256378174e+00" cType="1" res="-1.0196573287248611e-01" rms="4.5728984475135803e-01" purity="3.8304817676544189e-01" nType="0">
          <Node pos="l" depth="2" NCoef="0" IVar="-1" Cut="0.0000000000000000e+00" cType="1" res="1.4411050081253052e-01" rms="4.7252976894378662e-01" purity="5.5483943223953247e-01" nType="-99"/>
          <Node pos="r" depth="2" NCoef="0" IVar="-1" Cut="0.0000000000000000e+00" cType="1" res="-3.1708484888076782e-01" rms="4.4448268413543701e-01" purity="3.4206798672676086e-01" nType="-99"/>
        </Node>
      </Node>
    </BinaryTree>
    <BinaryTree type="DecisionTree" boostWeight="1.0000000000000000e+00" itree="2">
      <Node pos="s" depth="0" NCoef="0" IVar="9" Cut="-2.8087930679321289e+00" cType="1" res="-3.6833720514550805e-04" rms="4.5078191161155701e-01" purity="5.0000000000000000e-01" nType="0">
        <Node pos="l" depth="1" NCoef="0" IVar="1" Cut="4.6236108398437500e+03" cType="1" res="9.8365440964698792e-02" rms="4.2979097366333008e-01" purity="6.3864046335220337e-01" nType="0">
          <Node pos="l" depth="2" NCoef="0" IVar="-1" Cut="0.0000000000000000e+00" cType="1" res="7.6314243488013744e-03" rms="4.6361434459686279e-01" purity="4.4732108712196350e-01" nType="-99"/>
          <Node pos="r" depth="2" NCoef="0" IVar="-1" Cut="0.0000000000000000e+00" cType="1" res="3.5278597474098206e-01" rms="4.0444985032081604e-01" purity="7.3135465383529663e-01" nType="-99"/>
        </Node>
        <Node pos="r" depth="1" NCoef="0" IVar="7" Cut="-8.2792699337005615e-01" cType="1" res="-3.2215878367424011e-02" rms="4.5277792215347290e-01" purity="4.5528018474578857e-01" nType="0">
          <Node pos="l" depth="2" NCoef="0" IVar="-1" Cut="0.0000000000000000e+00" cType="1" res="-1.2636266648769379e-01" rms="4.4775030016899109e-01" purity="4.3266659975051880e-01" nType="-99"/>
          <Node pos="r" depth="2" NCoef="0" IVar="-1" Cut="0.0000000000000000e+00" cType="1" res="1.5728929638862610e-01" rms="4.6367368102073669e-01" purity="5.6356197595596313e-01" nType="-99"/>
        </Node>
      </Node>
    </BinaryTree>
    <BinaryTree type="DecisionTree" boostWeight="1.0000000000000000e+00" itree="3">
      <Node pos="s" depth="0" NCoef="0" IVar="3" Cut="-3.6212410156250000e+04" cType="1" res="1.3529950520023704e-03" rms="4.4394057989120483e-01" purity="5.0000000000000000e-01" nType="0">
        <Node pos="l" depth="1" NCoef="0" IVar="13" Cut="-7.9097909927368164e+00" cType="1" res="-3.4974843263626099e-02" rms="4.5024263858795166e-01" purity="4.0462908148765564e-01" nType="0">
          <Node pos="l" depth="2" NCoef="0" IVar="-1" Cut="0.0000000000000000e+00" cType="1" res="9.2714950442314148e-02" rms="4.6563214063644409e-01" purity="5.1846051216125488e-01" nType="-99"/>
          <Node pos="r" depth="2" NCoef="0" IVar="-1" Cut="0.0000000000000000e+00" cType="1" res="-1.2520793080329895e-01" rms="4.4503134489059448e-01" purity="3.7895050644874573e-01" nType="-99"/>
        </Node>
        <Node pos="r" depth="1" NCoef="0" IVar="13" Cut="-8.0567007064819336e+00" cType="1" res="4.7333732247352600e-02" rms="4.3146964907646179e-01" purity="6.2071251869201660e-01" nType="0">
          <Node pos="l" depth="2" NCoef="0" IVar="-1" Cut="0.0000000000000000e+00" cType="1" res="3.6810082197189331e-01" rms="4.1639396548271179e-01" purity="7.4696749448776245e-01" nType="-99"/>
          <Node pos="r" depth="2" NCoef="0" IVar="-1" Cut="0.0000000000000000e+00" cType="1" res="7.4309274554252625e-02" rms="4.3185326457023621e-01" purity="5.9664022922515869e-01" nType="-99"/>
        </Node>
      </Node>
    </BinaryTree>
    <BinaryTree type="DecisionTree" boostWeight="1.0000000000000000e+00" itree="4">
      <Node pos="s" depth="0" NCoef="0" IVar="1" Cut="4.6233525390625000e+03" cType="1" res="3.6737948539666831e-04" rms="4.3999737501144409e-01" purity="5.0000000000000000e-01" nType="0">
        <Node pos="l" depth="1" NCoef="0" IVar="10" Cut="-1.4347219467163086e+00" cType="1" res="-4.5690976083278656e-02" rms="4.4546249508857727e-01" purity="3.6574169993400574e-01" nType="0">
          <Node pos="l" depth="2" NCoef="0" IVar="-1" Cut="0.0000000000000000e+00" cType="1" res="-1.9918879866600037e-01" rms="4.2517870664596558e-01" purity="3.1523382663726807e-01" nType="-99"/>
          <Node pos="r" depth="2" NCoef="0" IVar="-1" Cut="0.0000000000000000e+00" cType="1" res="-2.3153614252805710e-02" rms="4.6293246746063232e-01" purity="4.1845470666885376e-01" nType="-99"/>
        </Node>
        <Node pos="r" depth="1" NCoef="0" IVar="8" Cut="-1.8574585914611816e+00" cType="1" res="1.6529541462659836e-02" rms="4.3691414594650269e-01" purity="5.4711204767227173e-01" nType="0">
          <Node pos="l" depth="2" NCoef="0" IVar="-1" Cut="0.0000000000000000e+00" cType="1" res="1.5001611411571503e-01" rms="4.2301777005195618e-01" purity="6.3871908187866211e-01" nType="-99"/>
          <Node pos="r" depth="2" NCoef="0" IVar="-1" Cut="0.0000000000000000e+00" cType="1" res="-1.2448856607079506e-02" rms="4.4262972474098206e-01" purity="4.9854803085327148e-01" nType="-99"/>
        </Node>
      </Node>
    </BinaryTree>
    <BinaryTree type="DecisionTree" boostWeight="1.0000000000000000e+00" itree="5">
      <Node pos="s" depth="0" NCoef="0" IVar="12" Cut="-4.9265950918197632e-01" cType="1" res="-2.0916860376019031e-04" rms="4.3801453709602356e-01" purity="5.0000000000000000e-01" nType="0">
        <Node pos="l" depth="1" NCoef="0" IVar="0" Cut="4.6108906250000000e+03" cType="1" res="1.1093514971435070e-02" rms="4.3720045685768127e-01" purity="5.3179037570953369e-01" nType="0">
          <Node pos="l" depth="2" NCoef="0" IVar="-1" Cut="0.0000000000000000e+00" cType="1" res="-9.4460919499397278e-02" rms="4.4348329305648804e-01" purity="4.3631744384765625e-01" nType="-99"/>
          <Node pos="r" depth="2" NCoef="0" IVar="-1" Cut="0.0000000000000000e+00" cType="1" res="7.4401959776878357e-02" rms="4.3369281291961670e-01" purity="5.6563371419906616e-01" nType="-99"/>
        </Node>
        <Node pos="r" depth="1" NCoef="0" IVar="2" Cut="2.7366953125000000e+04" cType="1" res="-6.1847627162933350e-02" rms="4.3731722235679626e-01" purity="3.2663330435752869e-01" nType="0">
          <Node pos="l" depth="2" NCoef="0" IVar="-1" Cut="0.0000000000000000e+00" cType="1" res="-2.4283052980899811e-01" rms="4.2556530237197876e-01" purity="2.6854449510574341e-01" nType="-99"/>
          <Node pos="r" depth="2" NCoef="0" IVar="-1" Cut="0.0000000000000000e+00" cType="1" res="-9.2396184802055359e-02" rms="4.4546335935592651e-01" purity="3.7754610180854797e-01" nType="-99"/>
        </Node>
      </Node>
    </BinaryTree>
    <BinaryTree type="DecisionTree" boostWeight="1.0000000000000000e+00" itree="6">
      <Node pos="s" depth="0" NCoef="0" IVar="2" Cut="2.7366857421875000e+04" cType="1" res="-4.8359730863012373e-04" rms="4.3581086397171021e-01" purity="5.0000000000000000e-01" nType="0">
        <Node pos="l" depth="1" NCoef="0" IVar="8" Cut="-2.5114085674285889e+00" cType="1" res="-2.7924319729208946e-02" rms="4.4544246792793274e-01" purity="4.3847548961639404e-01" nType="0">
          <Node pos="l" depth="2" NCoef="0" IVar="-1" Cut="0.0000000000000000e+00" cType="1" res="9.8250389099121094e-02" rms="4.7268298268318176e-01" purity="5.9425371885299683e-01" nType="-99"/>
          <Node pos="r" depth="2" NCoef="0" IVar="-1" Cut="0.0000000000000000e+00" cType="1" res="-9.6906773746013641e-02" rms="4.4070360064506531e-01" purity="4.1698470711708069e-01" nType="-99"/>
        </Node>
        <Node pos="r" depth="1" NCoef="0" IVar="6" Cut="1.0249803543090820e+01" cType="1" res="2.2933019325137138e-02" rms="4.2602470517158508e-01" purity="5.5250209569931030e-01" nType="0">
          <Node pos="l" depth="2" NCoef="0" IVar="-1" Cut="0.0000000000000000e+00" cType="1" res="-3.2824169844388962e-02" rms="4.1738036274909973e-01" purity="4.6919268369674683e-01" nType="-99"/>
          <Node pos="r" depth="2" NCoef="0" IVar="-1" Cut="0.0000000000000000e+00" cType="1" res="1.0291525721549988e-01" rms="4.2857807874679565e-01" purity="5.8482587337493896e-01" nType="-99"/>
        </Node>
      </Node>
    </BinaryTree>
    <BinaryTree type="DecisionTree" boostWeight="1.0000000000000000e+00" itree="7">
      <Node pos="s" depth="0" NCoef="0" IVar="7" Cut="-2.9569048881530762e+00" cType="1" res="-4.9908983783097938e-05" rms="4.3423902988433838e-01" purity="5.0000000000000000e-01" nType="0">
        <Node pos="l" depth="1" NCoef="0" IVar="-1" Cut="0.0000000000000000e+00" cType="1" res="2.2729957103729248e-01" rms="4.8001417517662048e-01" purity="4.7293916344642639e-01" nType="-99"/>
        <Node pos="r" depth="1" NCoef="0" IVar="7" Cut="-2.2808642387390137e+00" cType="1" res="-6.6577023826539516e-03" rms="4.2971944808959961e-01" purity="5.0213956832885742e-01" nType="0">
          <Node pos="l" depth="2" NCoef="0" IVar="-1" Cut="0.0000000000000000e+00" cType="1" res="-1.3071475923061371e-01" rms="4.1554719209671021e-01" purity="3.9270544052124023e-01" nType="-99"/>
          <Node pos="r" depth="2" NCoef="0" IVar="-1" Cut="0.0000000000000000e+00" cType="1" res="2.3330135270953178e-02" rms="4.3392357230186462e-01" purity="5.4306596517562866e-01" nType="-99"/>
        </Node>
      </Node>
    </BinaryTree>
    <BinaryTree type="DecisionTree" boostWeight="1.0000000000000000e+00" itree="8">
      <Node pos="s" depth="0" NCoef="0" IVar="11" Cut="-9.1746771335601807e-01" cType="1" res="-4.0044644265435636e-04" rms="4.3272683024406433e-01" purity="5.0000000000000000e-01" nType="0">
        <Node pos="l" depth="1" NCoef="0" IVar="1" Cut="4.6241469726562500e+03" cType="1" res="2.1607117727398872e-02" rms="4.2930603027343750e-01" purity="5.9778368473052979e-01" nType="0">
          <Node pos="l" depth="2" NCoef="0" IVar="-1" Cut="0.0000000000000000e+00" cType="1" res="-5.4840072989463806e-03" rms="4.5435935258865356e-01" purity="4.6001917123794556e-01" nType="-99"/>
          <Node pos="r" depth="2" NCoef="0" IVar="-1" Cut="0.0000000000000000e+00" cType="1" res="1.3892312347888947e-01" rms="4.0105375647544861e-01" purity="7.3664796352386475e-01" nType="-99"/>
        </Node>
        <Node pos="r" depth="1" NCoef="0" IVar="12" Cut="-2.6429278850555420e+00" cType="1" res="-1.5861505642533302e-02" rms="4.3444776535034180e-01" purity="4.3130365014076233e-01" nType="0">
          <Node pos="l" depth="2" NCoef="0" IVar="-1" Cut="0.0000000000000000e+00" cType="1" res="7.9783320426940918e-02" rms="4.5045170187950134e-01" purity="5.5176812410354614e-01" nType="-99"/>
          <Node pos="r" depth="2" NCoef="0" IVar="-1" Cut="0.0000000000000000e+00" cType="1" res="-6.9105871021747589e-02" rms="4.3080887198448181e-01" purity="4.0878981351852417e-01" nType="-99"/>
        </Node>
      </Node>
    </BinaryTree>
    <BinaryTree type="DecisionTree" boostWeight="1.0000000000000000e+00" itree="9">
      <Node pos="s" depth="0" NCoef="0" IVar="14" Cut="-9.7553682327270508e+00" cType="1" res="2.5137592456303537e-04" rms="4.3134325742721558e-01" purity="5.0000000000000000e-01" nType="0">
        <Node pos="l" depth="1" NCoef="0" IVar="1" Cut="4.6244033203125000e+03" cType="1" res="3.6805767565965652e-02" rms="4.2459785938262939e-01" purity="5.9854257106781006e-01" nType="0">
          <Node pos="l" depth="2" NCoef="0" IVar="-1" Cut="0.0000000000000000e+00" cType="1" res="1.8039603531360626e-01" rms="4.4003307819366455e-01" purity="5.1752418279647827e-01" nType="-99"/>
          <Node pos="r" depth="2" NCoef="0" IVar="-1" Cut="0.0000000000000000e+00" cType="1" res="7.3739024810492992e-03" rms="4.0247303247451782e-01" purity="6.9637751579284668e-01" nType="-99"/>
        </Node>
        <Node pos="r" depth="1" NCoef="0" IVar="13" Cut="-7.4097766876220703e+00" cType="1" res="-5.0761578604578972e-03" rms="4.3205943703651428e-01" purity="4.8563811182975769e-01" nType="0">
          <Node pos="l" depth="2" NCoef="0" IVar="-1" Cut="0.0000000000000000e+00" cType="1" res="3.8283381611108780e-02" rms="4.3151351809501648e-01" purity="5.6455183029174805e-01" nType="-99"/>
          <Node pos="r" depth="2" NCoef="0" IVar="-1" Cut="0.0000000000000000e+00" cType="1" res="-5.3219478577375412e-02" rms="4.3193885684013367e-01" purity="4.2584800720214844e-01" nType="-99"/>
        </Node>
      </Node>
    </BinaryTree>
    <BinaryTree type="DecisionTree" boostWeight="1.0000000000000000e+00" itree="10">
      <Node pos="s" depth="0" NCoef="0" IVar="1" Cut="4.6255483398437500e+03" cType="1" res="-9.4817391072865576e-05" rms="4.3061172962188721e-01" purity="5.0000000000000000e-01" nType="0">
        <Node pos="l" depth="1" NCoef="0" IVar="8" Cut="-4.9854269623756409e-01" cType="1" res="-5.6050773710012436e-03" rms="4.3498915433883667e-01" purity="4.6500125527381897e-01" nType="0">
          <Node pos="l" depth="2" NCoef="0" IVar="-1" Cut="0.0000000000000000e+00" cType="1" res="-3.9712477475404739e-02" rms="4.3152651190757751e-01" purity="4.7211614251136780e-01" nType="-99"/>
          <Node pos="r" depth="2" NCoef="0" IVar="-1" Cut="0.0000000000000000e+00" cType="1" res="6.8737387657165527e-02" rms="4.4562524557113647e-01" purity="4.4005614519119263e-01" nType="-99"/>
        </Node>
        <Node pos="r" depth="1" NCoef="0" IVar="4" Cut="-1.4950155258178711e+01" cType="1" res="3.8979757577180862e-02" rms="3.9599850773811340e-01" purity="7.4818444252014160e-01" nType="0">
          <Node pos="l" depth="2" NCoef="0" IVar="-1" Cut="0.0000000000000000e+00" cType="1" res="-3.9989385753870010e-02" rms="4.5434656739234924e-01" purity="6.1113798618316650e-01" nType="-99"/>
          <Node pos="r" depth="2" NCoef="0" IVar="-1" Cut="0.0000000000000000e+00" cType="1" res="2.8854191303253174e-01" rms="3.3524543046951294e-01" purity="8.5897612571716309e-01" nType="-99"/>
        </Node>
      </Node>
    </BinaryTree>
    <BinaryTree type="DecisionTree" boostWeight="1.0000000000000000e+00" itree="11">
      <Node pos="s" depth="0" NCoef="0" IVar="4" Cut="-1.5666155815124512e+01" cType="1" res="6.1558635206893086e-04" rms="4.2954054474830627e-01" purity="5.0000000000000000e-01" nType="0">
        <Node pos="l" depth="1" NCoef="0" IVar="3" Cut="-3.6212320312500000e+04" cType="1" res="2.6376983150839806e-02" rms="4.4874742627143860e-01" purity="4.4876182079315186e-01" nType="0">
          <Node pos="l" depth="2" NCoef="0" IVar="-1" Cut="0.0000000000000000e+00" cType="1" res="1.3267238438129425e-01" rms="4.4969943165779114e-01" purity="3.7436965107917786e-01" nType="-99"/>
          <Node pos="r" depth="2" NCoef="0" IVar="-1" Cut="0.0000000000000000e+00" cType="1" res="-6.7627504467964172e-02" rms="4.4233164191246033e-01" purity="6.1542755365371704e-01" nType="-99"/>
        </Node>
        <Node pos="r" depth="1" NCoef="0" IVar="3" Cut="-3.6212679687500000e+04" cType="1" res="-4.4419779442250729e-03" rms="4.2548486590385437e-01" purity="5.1005923748016357e-01" nType="0">
          <Node pos="l" depth="2" NCoef="0" IVar="-1" Cut="0.0000000000000000e+00" cType="1" res="-5.9258956462144852e-02" rms="4.3738487362861633e-01" purity="3.9659455418586731e-01" nType="-99"/>
          <Node pos="r" depth="2" NCoef="0" IVar="-1" Cut="0.0000000000000000e+00" cType="1" res="5.4600359871983528e-03" rms="4.2091700434684753e-01" purity="5.5114507675170898e-01" nType="-99"/>
        </Node>
      </Node>
    </BinaryTree>
    <BinaryTree type="DecisionTree" boostWeight="1.0000000000000000e+00" itree="12">
      <Node pos="s" depth="0" NCoef="0" IVar="6" Cut="1.1892494201660156e+01" cType="1" res="-2.0723501802422106e-04" rms="4.2903575301170349e-01" purity="5.0000000000000000e-01" nType="0">
        <Node pos="l" depth="1" NCoef="0" IVar="2" Cut="2.7366509765625000e+04" cType="1" res="-3.1401354353874922e-03" rms="4.2953190207481384e-01" purity="4.9125546216964722e-01" nType="0">
          <Node pos="l" depth="2" NCoef="0" IVar="-1" Cut="0.0000000000000000e+00" cType="1" res="-9.3251608312129974e-02" rms="4.4957560300827026e-01" purity="4.8845991492271423e-01" nType="-99"/>
          <Node pos="r" depth="2" NCoef="0" IVar="-1" Cut="0.0000000000000000e+00" cType="1" res="6.5520410425961018e-03" rms="4.2590060830116272e-01" purity="4.9171555042266846e-01" nType="-99"/>
        </Node>
        <Node pos="r" depth="1" NCoef="0" IVar="-1" Cut="0.0000000000000000e+00" cType="1" res="1.3597182929515839e-01" rms="4.1864433884620667e-01" purity="6.3561153411865234e-01" nType="-99"/>
      </Node>
    </BinaryTree>
    <BinaryTree type="DecisionTree" boostWeight="1.0000000000000000e+00" itree="13">
      <Node pos="s" depth="0" NCoef="0" IVar="3" Cut="-3.6212035156250000e+04" cType="1" res="5.9423466154839844e-05" rms="4.2862868309020996e-01" purity="5.0000000000000000e-01" nType="0">
        <Node pos="l" depth="1" NCoef="0" IVar="2" Cut="2.7367289062500000e+04" cType="1" res="6.3227312639355659e-03" rms="4.3589317798614502e-01" purity="4.3264719843864441e-01" nType="0">
          <Node pos="l" depth="2" NCoef="0" IVar="-1" Cut="0.0000000000000000e+00" cType="1" res="-3.4067747183144093e-03" rms="4.3719893693923950e-01" purity="4.1024550795555115e-01" nType="-99"/>
          <Node pos="r" depth="2" NCoef="0" IVar="-1" Cut="0.0000000000000000e+00" cType="1" res="1.6646230220794678e-01" rms="4.2398303747177124e-01" purity="5.7860749959945679e-01" nType="-99"/>
        </Node>
        <Node pos="r" depth="1" NCoef="0" IVar="1" Cut="4.6244550781250000e+03" cType="1" res="-2.2612204775214195e-02" rms="4.0041652321815491e-01" purity="7.4380052089691162e-01" nType="0">
          <Node pos="l" depth="2" NCoef="0" IVar="-1" Cut="0.0000000000000000e+00" cType="1" res="-1.7717161774635315e-01" rms="4.4779855012893677e-01" purity="6.3789027929306030e-01" nType="-99"/>
          <Node pos="r" depth="2" NCoef="0" IVar="-1" Cut="0.0000000000000000e+00" cType="1" res="7.9737998545169830e-02" rms="3.4064429998397827e-01" purity="8.5162067413330078e-01" nType="-99"/>
        </Node>
      </Node>
    </BinaryTree>
    <BinaryTree type="DecisionTree" boostWeight="1.0000000000000000e+00" itree="14">
      <Node pos="s" depth="0" NCoef="0" IVar="5" Cut="-1.0073675155639648e+01" cType="1" res="3.9193491102196276e-04" rms="4.2759785056114197e-01" purity="5.0000000000000000e-01" nType="0">
        <Node pos="l" depth="1" NCoef="0" IVar="14" Cut="-8.7260265350341797e+00" cType="1" res="-2.6211275253444910e-03" rms="4.2624154686927795e-01" purity="4.9724528193473816e-01" nType="0">
          <Node pos="l" depth="2" NCoef="0" IVar="-1" Cut="0.0000000000000000e+00" cType="1" res="1.5528172254562378e-02" rms="4.2628830671310425e-01" purity="4.8589518666267395e-01" nType="-99"/>
          <Node pos="r" depth="2" NCoef="0" IVar="-1" Cut="0.0000000000000000e+00" cType="1" res="-5.0115790218114853e-02" rms="4.2576488852500916e-01" purity="5.1794421672821045e-01" nType="-99"/>
        </Node>
        <Node pos="r" depth="1" NCoef="0" IVar="-1" Cut="0.0000000000000000e+00" cType="1" res="1.2134595215320587e-01" rms="4.4592642784118652e-01" purity="5.4391771554946899e-01" nType="-99"/>
      </Node>
    </BinaryTree>
    <BinaryTree type="DecisionTree" boostWeight="1.0000000000000000e+00" itree="15">
      <Node pos="s" depth="0" NCoef="0" IVar="12" Cut="-2.1725566387176514e+00" cType="1" res="3.9391647987940814e-06" rms="4.2736646533012390e-01" purity="5.0000000000000000e-01" nType="0">
        <Node pos="l" depth="1" NCoef="0" IVar="13" Cut="-8.0811357498168945e+00" cType="1" res="1.7261475324630737e-02" rms="4.3599036335945129e-01" purity="6.2839746475219727e-01" nType="0">
          <Node pos="l" depth="2" NCoef="0" IVar="-1" Cut="0.0000000000000000e+00" cType="1" res="-1.6215415298938751e-01" rms="4.4820156693458557e-01" purity="6.3965588808059692e-01" nType="-99"/>
          <Node pos="r" depth="2" NCoef="0" IVar="-1" Cut="0.0000000000000000e+00" cType="1" res="9.1173067688941956e-02" rms="4.3157932162284851e-01" purity="6.2591183185577393e-01" nType="-99"/>
        </Node>
        <Node pos="r" depth="1" NCoef="0" IVar="12" Cut="-1.5484907627105713e+00" cType="1" res="-7.0108356885612011e-03" rms="4.2360997200012207e-01" purity="4.4780951738357544e-01" nType="0">
          <Node pos="l" depth="2" NCoef="0" IVar="-1" Cut="0.0000000000000000e+00" cType="1" res="-1.0422367602586746e-01" rms="4.1927453875541687e-01" purity="5.6115269660949707e-01" nType="-99"/>
          <Node pos="r" depth="2" NCoef="0" IVar="-1" Cut="0.0000000000000000e+00" cType="1" res="2.3621574044227600e-02" rms="4.2501938343048096e-01" purity="3.8973587751388550e-01" nType="-99"/>
        </Node>
      </Node>
    </BinaryTree>
    <BinaryTree type="DecisionTree" boostWeight="1.0000000000000000e+00" itree="16">
      <Node pos="s" depth="0" NCoef="0" IVar="11" Cut="-5.0003296136856079e-01" cType="1" res="2.0729810057673603e-04" rms="4.2642048001289368e-01" purity="5.0000000000000000e-01" nType="0">
        <Node pos="l" depth="1" NCoef="0" IVar="8" Cut="-2.5225907564163208e-01" cType="1" res="9.4249965623021126e-03" rms="4.2070412635803223e-01" purity="5.4069662094116211e-01" nType="0">
          <Node pos="l" depth="2" NCoef="0" IVar="-1" Cut="0.0000000000000000e+00" cType="1" res="4.7028612345457077e-02" rms="4.1617843508720398e-01" purity="5.4862308502197266e-01" nType="-99"/>
          <Node pos="r" depth="2" NCoef="0" IVar="-1" Cut="0.0000000000000000e+00" cType="1" res="-7.6519191265106201e-02" rms="4.4264766573905945e-01" purity="4.9770343303680420e-01" nType="-99"/>
        </Node>
        <Node pos="r" depth="1" NCoef="0" IVar="7" Cut="-1.5375863313674927e+00" cType="1" res="-1.3621549122035503e-02" rms="4.3448889255523682e-01" purity="4.3894493579864502e-01" nType="0">
          <Node pos="l" depth="2" NCoef="0" IVar="-1" Cut="0.0000000000000000e+00" cType="1" res="-9.2005170881748199e-02" rms="4.2974171042442322e-01" purity="3.6816775798797607e-01" nType="-99"/>
          <Node pos="r" depth="2" NCoef="0" IVar="-1" Cut="0.0000000000000000e+00" cType="1" res="3.5038705915212631e-02" rms="4.3965205550193787e-01" purity="5.3789007663726807e-01" nType="-99"/>
        </Node>
      </Node>
    </BinaryTree>
    <BinaryTree type="DecisionTree" boostWeight="1.0000000000000000e+00" itree="17">
      <Node pos="s" depth="0" NCoef="0" IVar="9" Cut="-2.0949811935424805e+00" cType="1" res="-1.2367637827992439e-04" rms="4.2566418647766113e-01" purity="5.0000000000000000e-01" nType="0">
        <Node pos="l" depth="1" NCoef="0" IVar="7" Cut="-2.4601433277130127e+00" cType="1" res="-7.8019062057137489e-03" rms="4.1475707292556763e-01" purity="4.9962949752807617e-01" nType="0">
          <Node pos="l" depth="2" NCoef="0" IVar="-1" Cut="0.0000000000000000e+00" cType="1" res="-1.4474265277385712e-01" rms="4.1839757561683655e-01" purity="3.2128149271011353e-01" nType="-99"/>
          <Node pos="r" depth="2" NCoef="0" IVar="-1" Cut="0.0000000000000000e+00" cType="1" res="1.5495877712965012e-02" rms="4.1275346279144287e-01" purity="5.5446928739547729e-01" nType="-99"/>
        </Node>
        <Node pos="r" depth="1" NCoef="0" IVar="7" Cut="-2.2522552013397217e+00" cType="1" res="1.3205498456954956e-02" rms="4.4364726543426514e-01" purity="5.0064319372177124e-01" nType="0">
          <Node pos="l" depth="2" NCoef="0" IVar="-1" Cut="0.0000000000000000e+00" cType="1" res="1.9103549420833588e-01" rms="4.2655655741691589e-01" purity="5.1735889911651611e-01" nType="-99"/>
          <Node pos="r" depth="2" NCoef="0" IVar="-1" Cut="0.0000000000000000e+00" cType="1" res="-3.8783296942710876e-02" rms="4.4984552264213562e-01" purity="4.9190250039100647e-01" nType="-99"/>
        </Node>
      </Node>
    </BinaryTree>
    <BinaryTree type="DecisionTree" boostWeight="1.0000000000000000e+00" itree="18">
      <Node pos="s" depth="0" NCoef="0" IVar="3" Cut="-3.6212855468750000e+04" cType="1" res="-3.6402774276211858e-04" rms="4.2424014210700989e-01" purity="5.0000000000000000e-01" nType="0">
        <Node pos="l" depth="1" NCoef="0" IVar="1" Cut="4.6241806640625000e+03" cType="1" res="-2.2010374814271927e-02" rms="4.3650671839714050e-01" purity="3.6821487545967102e-01" nType="0">
          <Node pos="l" depth="2" NCoef="0" IVar="-1" Cut="0.0000000000000000e+00" cType="1" res="-1.1161319166421890e-01" rms="4.2611607909202576e-01" purity="2.7509081363677979e-01" nType="-99"/>
          <Node pos="r" depth="2" NCoef="0" IVar="-1" Cut="0.0000000000000000e+00" cType="1" res="2.7007592841982841e-02" rms="4.5083376765251160e-01" purity="5.1749253273010254e-01" nType="-99"/>
        </Node>
        <Node pos="r" depth="1" NCoef="0" IVar="9" Cut="-3.8081297874450684e+00" cType="1" res="3.7553799338638783e-03" rms="4.2173954844474792e-01" purity="5.2507936954498291e-01" nType="0">
          <Node pos="l" depth="2" NCoef="0" IVar="-1" Cut="0.0000000000000000e+00" cType="1" res="1.3121192157268524e-01" rms="4.1610124707221985e-01" purity="6.9144743680953979e-01" nType="-99"/>
          <Node pos="r" depth="2" NCoef="0" IVar="-1" Cut="0.0000000000000000e+00" cType="1" res="3.5746239591389894e-03" rms="4.2196798324584961e-01" purity="5.1451772451400757e-01" nType="-99"/>
        </Node>
      </Node>
    </BinaryTree>
    <BinaryTree type="DecisionTree" boostWeight="1.0000000000000000e+00" itree="19">
      <Node pos="s" depth="0" NCoef="0" IVar="9" Cut="-2.8087930679321289e+00" cType="1" res="-9.1563866590149701e-05" rms="4.2375388741493225e-01" purity="5.0000000000000000e-01" nType="0">
        <Node pos="l" depth="1" NCoef="0" IVar="11" Cut="-7.3447209596633911e-01" cType="1" res="-1.9975626841187477e-02" rms="4.0174189209938049e-01" purity="6.3864046335220337e-01" nType="0">
          <Node pos="l" depth="2" NCoef="0" IVar="-1" Cut="0.0000000000000000e+00" cType="1" res="1.6794234514236450e-02" rms="3.9510276913642883e-01" purity="7.0300179719924927e-01" nType="-99"/>
          <Node pos="r" depth="2" NCoef="0" IVar="-1" Cut="0.0000000000000000e+00" cType="1" res="-1.6876597702503204e-01" rms="4.0845337510108948e-01" purity="5.4500353336334229e-01" nType="-99"/>
        </Node>
        <Node pos="r" depth="1" NCoef="0" IVar="6" Cut="1.1417083740234375e+01" cType="1" res="6.3222339376807213e-03" rms="4.3041825294494629e-01" purity="4.5528018474578857e-01" nType="0">
          <Node pos="l" depth="2" NCoef="0" IVar="-1" Cut="0.0000000000000000e+00" cType="1" res="-1.6074676532298326e-03" rms="4.2606720328330994e-01" purity="4.3579232692718506e-01" nType="-99"/>
          <Node pos="r" depth="2" NCoef="0" IVar="-1" Cut="0.0000000000000000e+00" cType="1" res="8.8151313364505768e-02" rms="4.4539675116539001e-01" purity="5.2828574180603027e-01" nType="-99"/>
        </Node>
      </Node>
    </BinaryTree>
    <BinaryTree type="DecisionTree" boostWeight="1.0000000000000000e+00" itree="20">
      <Node pos="s" depth="0" NCoef="0" IVar="13" Cut="-6.1597409248352051e+00" cType="1" res="4.2510007915552706e-05" rms="4.2299225926399231e-01" purity="5.0000000000000000e-01" nType="0">
        <Node pos="l" depth="1" NCoef="0" IVar="9" Cut="-3.5226049423217773e+00" cType="1" res="-3.3584204502403736e-03" rms="4.2342880368232727e-01" purity="5.0098001956939697e-01" nType="0">
          <Node pos="l" depth="2" NCoef="0" IVar="-1" Cut="0.0000000000000000e+00" cType="1" res="7.6869830489158630e-02" rms="4.0786105394363403e-01" purity="6.6588264703750610e-01" nType="-99"/>
          <Node pos="r" depth="2" NCoef="0" IVar="-1" Cut="0.0000000000000000e+00" cType="1" res="-1.8066117540001869e-02" rms="4.2489892244338989e-01" purity="4.8391678929328918e-01" nType="-99"/>
        </Node>
        <Node pos="r" depth="1" NCoef="0" IVar="7" Cut="-2.1416931152343750e+00" cType="1" res="2.4612434208393097e-02" rms="4.1900551319122314e-01" purity="4.9292007088661194e-01" nType="0">
          <Node pos="l" depth="2" NCoef="0" IVar="-1" Cut="0.0000000000000000e+00" cType="1" res="2.2017443552613258e-03" rms="4.0926942229270935e-01" purity="4.2206013202667236e-01" nType="-99"/>
          <Node pos="r" depth="2" NCoef="0" IVar="-1" Cut="0.0000000000000000e+00" cType="1" res="1.4885360002517700e-01" rms="4.2777979373931885e-01" purity="5.6952017545700073e-01" nType="-99"/>
        </Node>
      </Node>
    </BinaryTree>
    <BinaryTree type="DecisionTree" boostWeight="1.0000000000000000e+00" itree="21">
      <Node pos="s" depth="0" NCoef="0" IVar="10" Cut="-1.7977446317672729e+00" cType="1" res="6.2464855545840692e-06" rms="4.2260199785232544e-01" purity="5.0000000000000000e-01" nType="0">
        <Node pos="l" depth="1" NCoef="0" IVar="7" Cut="-2.3355982303619385e+00" cType="1" res="-1.2765745632350445e-02" rms="4.2089462280273438e-01" purity="4.4098785519599915e-01" nType="0">
          <Node pos="l" depth="2" NCoef="0" IVar="-1" Cut="0.0000000000000000e+00" cType="1" res="8.6940199136734009e-02" rms="4.0703147649765015e-01" purity="4.6688359975814819e-01" nType="-99"/>
          <Node pos="r" depth="2" NCoef="0" IVar="-1" Cut="0.0000000000000000e+00" cType="1" res="-1.0125691443681717e-01" rms="4.2702257633209229e-01" purity="4.2588454484939575e-01" nType="-99"/>
        </Node>
        <Node pos="r" depth="1" NCoef="0" IVar="3" Cut="-3.6212410156250000e+04" cType="1" res="5.5971280671656132e-03" rms="4.2322593927383423e-01" purity="5.2583229541778564e-01" nType="0">
          <Node pos="l" depth="2" NCoef="0" IVar="-1" Cut="0.0000000000000000e+00" cType="1" res="4.9688626080751419e-02" rms="4.3800181150436401e-01" purity="4.3554329872131348e-01" nType="-99"/>
          <Node pos="r" depth="2" NCoef="0" IVar="-1" Cut="0.0000000000000000e+00" cType="1" res="-3.1314898282289505e-02" rms="4.0339267253875732e-01" purity="6.3906598091125488e-01" nType="-99"/>
        </Node>
      </Node>
    </BinaryTree>
    <BinaryTree type="DecisionTree" boostWeight="1.0000000000000000e+00" itree="22">
      <Node pos="s" depth="0" NCoef="0" IVar="7" Cut="-2.2472455501556396e+00" cType="1" res="-1.2854377564508468e-04" rms="4.2203366756439209e-01" purity="5.0000000000000000e-01" nType="0">
        <Node pos="l" depth="1" NCoef="0" IVar="8" Cut="-1.7067184448242188e+00" cType="1" res="-1.3334128074347973e-02" rms="4.1428384184837341e-01" purity="4.1602879762649536e-01" nType="0">
          <Node pos="l" depth="2" NCoef="0" IVar="-1" Cut="0.0000000000000000e+00" cType="1" res="-1.3548956811428070e-01" rms="3.9677676558494568e-01" purity="4.2676523327827454e-01" nType="-99"/>
          <Node pos="r" depth="2" NCoef="0" IVar="-1" Cut="0.0000000000000000e+00" cType="1" res="2.8533509001135826e-02" rms="4.2451730370521545e-01" purity="4.0857818722724915e-01" nType="-99"/>
        </Node>
        <Node pos="r" depth="1" NCoef="0" IVar="8" Cut="-1.7385574579238892e+00" cType="1" res="6.7266616970300674e-03" rms="4.2583969235420227e-01" purity="5.4359060525894165e-01" nType="0">
          <Node pos="l" depth="2" NCoef="0" IVar="-1" Cut="0.0000000000000000e+00" cType="1" res="8.6978122591972351e-02" rms="4.1049945354461670e-01" purity="6.4131599664688110e-01" nType="-99"/>
          <Node pos="r" depth="2" NCoef="0" IVar="-1" Cut="0.0000000000000000e+00" cType="1" res="-2.3695211857557297e-02" rms="4.3478935956954956e-01" purity="4.8051655292510986e-01" nType="-99"/>
        </Node>
      </Node>
    </BinaryTree>
    <BinaryTree type="DecisionTree" boostWeight="1.0000000000000000e+00" itree="23">
      <Node pos="s" depth="0" NCoef="0" IVar="11" Cut="6.6878426074981689e-01" cType="1" res="-1.6555193724343553e-05" rms="4.2136099934577942e-01" purity="5.0000000000000000e-01" nType="0">
        <Node pos="l" depth="1" NCoef="0" IVar="14" Cut="-7.8437328338623047e+00" cType="1" res="3.8023244123905897e-03" rms="4.1757214069366455e-01" purity="5.0528323650360107e-01" nType="0">
          <Node pos="l" depth="2" NCoef="0" IVar="-1" Cut="0.0000000000000000e+00" cType="1" res="9.3338888837024570e-04" rms="4.2061823606491089e-01" purity="4.9514803290367126e-01" nType="-99"/>
          <Node pos="r" depth="2" NCoef="0" IVar="-1" Cut="0.0000000000000000e+00" cType="1" res="9.8359405994415283e-02" rms="3.9098933339118958e-01" purity="5.8707368373870850e-01" nType="-99"/>
        </Node>
        <Node pos="r" depth="1" NCoef="0" IVar="9" Cut="-1.8156294822692871e+00" cType="1" res="-2.2430233657360077e-02" rms="4.4228148460388184e-01" purity="4.6899181604385376e-01" nType="0">
          <Node pos="l" depth="2" NCoef="0" IVar="-1" Cut="0.0000000000000000e+00" cType="1" res="-1.1196190118789673e-01" rms="4.3911910057067871e-01" purity="4.5495906472206116e-01" nType="-99"/>
          <Node pos="r" depth="2" NCoef="0" IVar="-1" Cut="0.0000000000000000e+00" cType="1" res="2.0032757893204689e-02" rms="4.4592788815498352e-01" purity="4.9258702993392944e-01" nType="-99"/>
        </Node>
      </Node>
    </BinaryTree>
    <BinaryTree type="DecisionTree" boostWeight="1.0000000000000000e+00" itree="24">
      <Node pos="s" depth="0" NCoef="0" IVar="8" Cut="-6.6844803094863892e-01" cType="1" res="-1.0467404536029790e-05" rms="4.2098382115364075e-01" purity="5.0000000000000000e-01" nType="0">
        <Node pos="l" depth="1" NCoef="0" IVar="12" Cut="-2.0941705703735352e+00" cType="1" res="-5.3092506714165211e-03" rms="4.1406932473182678e-01" purity="5.1185047626495361e-01" nType="0">
          <Node pos="l" depth="2" NCoef="0" IVar="-1" Cut="0.0000000000000000e+00" cType="1" res="3.2606698572635651e-02" rms="4.1762319207191467e-01" purity="6.4335834980010986e-01" nType="-99"/>
          <Node pos="r" depth="2" NCoef="0" IVar="-1" Cut="0.0000000000000000e+00" cType="1" res="-3.9196435362100601e-02" rms="4.1215339303016663e-01" purity="4.4983321428298950e-01" nType="-99"/>
        </Node>
        <Node pos="r" depth="1" NCoef="0" IVar="13" Cut="-7.7022881507873535e+00" cType="1" res="1.4895741827785969e-02" rms="4.3951019644737244e-01" purity="4.6666294336318970e-01" nType="0">
          <Node pos="l" depth="2" NCoef="0" IVar="-1" Cut="0.0000000000000000e+00" cType="1" res="1.6501803696155548e-01" rms="4.5086169242858887e-01" purity="5.9563726186752319e-01" nType="-99"/>
          <Node pos="r" depth="2" NCoef="0" IVar="-1" Cut="0.0000000000000000e+00" cType="1" res="3.5816819872707129e-03" rms="4.3515881896018982e-01" purity="4.2852437496185303e-01" nType="-99"/>
        </Node>
      </Node>
    </BinaryTree>
    <BinaryTree type="DecisionTree" boostWeight="1.0000000000000000e+00" itree="25">
      <Node pos="s" depth="0" NCoef="0" IVar="12" Cut="-1.7021853923797607e+00" cType="1" res="1.3191565813031048e-05" rms="4.2040842771530151e-01" purity="5.0000000000000000e-01" nType="0">
        <Node pos="l" depth="1" NCoef="0" IVar="8" Cut="-2.2736122608184814e+00" cType="1" res="-9.3480981886386871e-03" rms="4.2149448394775391e-01" purity="6.0477304458618164e-01" nType="0">
          <Node pos="l" depth="2" NCoef="0" IVar="-1" Cut="0.0000000000000000e+00" cType="1" res="1.1746095120906830e-01" rms="3.9397114515304565e-01" purity="7.2647625207901001e-01" nType="-99"/>
          <Node pos="r" depth="2" NCoef="0" IVar="-1" Cut="0.0000000000000000e+00" cType="1" res="-5.8402076363563538e-02" rms="4.2682257294654846e-01" purity="5.7676011323928833e-01" nType="-99"/>
        </Node>
        <Node pos="r" depth="1" NCoef="0" IVar="7" Cut="-2.8361601829528809e+00" cType="1" res="8.2976426929235458e-03" rms="4.1927066445350647e-01" purity="4.0727910399436951e-01" nType="0">
          <Node pos="l" depth="2" NCoef="0" IVar="-1" Cut="0.0000000000000000e+00" cType="1" res="1.4503003656864166e-01" rms="4.5131772756576538e-01" purity="3.8681560754776001e-01" nType="-99"/>
          <Node pos="r" depth="2" NCoef="0" IVar="-1" Cut="0.0000000000000000e+00" cType="1" res="7.4785617180168629e-03" rms="4.1423654556274414e-01" purity="4.1015553474426270e-01" nType="-99"/>
        </Node>
      </Node>
    </BinaryTree>
    <BinaryTree type="DecisionTree" boostWeight="1.0000000000000000e+00" itree="26">
      <Node pos="s" depth="0" NCoef="0" IVar="7" Cut="-2.8859388828277588e+00" cType="1" res="5.2275859161454719e-06" rms="4.1985121369361877e-01" purity="5.0000000000000000e-01" nType="0">
        <Node pos="l" depth="1" NCoef="0" IVar="-1" Cut="0.0000000000000000e+00" cType="1" res="-6.9995641708374023e-02" rms="4.5557704567909241e-01" purity="4.4548451900482178e-01" nType="-99"/>
        <Node pos="r" depth="1" NCoef="0" IVar="0" Cut="4.6119033203125000e+03" cType="1" res="2.6329201646149158e-03" rms="4.1597995162010193e-01" purity="5.0550895929336548e-01" nType="0">
          <Node pos="l" depth="2" NCoef="0" IVar="-1" Cut="0.0000000000000000e+00" cType="1" res="-2.6983025018125772e-03" rms="4.1430333256721497e-01" purity="5.2496874332427979e-01" nType="-99"/>
          <Node pos="r" depth="2" NCoef="0" IVar="-1" Cut="0.0000000000000000e+00" cType="1" res="6.6135935485363007e-02" rms="4.2528522014617920e-01" purity="3.8875880837440491e-01" nType="-99"/>
        </Node>
      </Node>
    </BinaryTree>
    <BinaryTree type="DecisionTree" boostWeight="1.0000000000000000e+00" itree="27">
      <Node pos="s" depth="0" NCoef="0" IVar="9" Cut="-1.3811691999435425e+00" cType="1" res="-5.4506326705450192e-05" rms="4.1972160339355469e-01" purity="5.0000000000000000e-01" nType="0">
        <Node pos="l" depth="1" NCoef="0" IVar="7" Cut="-1.9633818864822388e+00" cType="1" res="3.0992412939667702e-03" rms="4.1537553071975708e-01" purity="4.9729093909263611e-01" nType="0">
          <Node pos="l" depth="2" NCoef="0" IVar="-1" Cut="0.0000000000000000e+00" cType="1" res="-1.7945792526006699e-02" rms="4.0517139434814453e-01" purity="4.3228185176849365e-01" nType="-99"/>
          <Node pos="r" depth="2" NCoef="0" IVar="-1" Cut="0.0000000000000000e+00" cType="1" res="3.5109303891658783e-02" rms="4.2517185211181641e-01" purity="5.6248807907104492e-01" nType="-99"/>
        </Node>
        <Node pos="r" depth="1" NCoef="0" IVar="0" Cut="4.6114472656250000e+03" cType="1" res="-2.1179340779781342e-02" rms="4.4717368483543396e-01" purity="5.1814609766006470e-01" nType="0">
          <Node pos="l" depth="2" NCoef="0" IVar="-1" Cut="0.0000000000000000e+00" cType="1" res="7.2598350234329700e-03" rms="4.2529323697090149e-01" purity="5.7500410079956055e-01" nType="-99"/>
          <Node pos="r" depth="2" NCoef="0" IVar="-1" Cut="0.0000000000000000e+00" cType="1" res="-1.3723185658454895e-01" rms="4.7323611378669739e-01" purity="4.4140633940696716e-01" nType="-99"/>
        </Node>
      </Node>
    </BinaryTree>
    <BinaryTree type="DecisionTree" boostWeight="1.0000000000000000e+00" itree="28">
      <Node pos="s" depth="0" NCoef="0" IVar="9" Cut="-2.8087930679321289e+00" cType="1" res="-1.3699117516807746e-05" rms="4.1936710476875305e-01" purity="5.0000000000000000e-01" nType="0">
        <Node pos="l" depth="1" NCoef="0" IVar="0" Cut="4.6112172851562500e+03" cType="1" res="-1.6676828265190125e-02" rms="3.9647960662841797e-01" purity="6.3864046335220337e-01" nType="0">
          <Node pos="l" depth="2" NCoef="0" IVar="-1" Cut="0.0000000000000000e+00" cType="1" res="-1.7045891284942627e-01" rms="3.9536213874816895e-01" purity="5.8467817306518555e-01" nType="-99"/>
          <Node pos="r" depth="2" NCoef="0" IVar="-1" Cut="0.0000000000000000e+00" cType="1" res="1.5531840734183788e-02" rms="3.9560326933860779e-01" purity="6.7140847444534302e-01" nType="-99"/>
        </Node>
        <Node pos="r" depth="1" NCoef="0" IVar="8" Cut="-2.2141616344451904e+00" cType="1" res="5.3611546754837036e-03" rms="4.2634889483451843e-01" purity="4.5528018474578857e-01" nType="0">
          <Node pos="l" depth="2" NCoef="0" IVar="-1" Cut="0.0000000000000000e+00" cType="1" res="-5.1648337393999100e-02" rms="4.3711233139038086e-01" purity="5.5041444301605225e-01" nType="-99"/>
          <Node pos="r" depth="2" NCoef="0" IVar="-1" Cut="0.0000000000000000e+00" cType="1" res="3.4150928258895874e-02" rms="4.2334431409835815e-01" purity="4.3114468455314636e-01" nType="-99"/>
        </Node>
      </Node>
    </BinaryTree>
    <BinaryTree type="DecisionTree" boostWeight="1.0000000000000000e+00" itree="29">
      <Node pos="s" depth="0" NCoef="0" IVar="1" Cut="4.6248305664062500e+03" cType="1" res="4.6225304686231539e-05" rms="4.1883388161659241e-01" purity="5.0000000000000000e-01" nType="0">
        <Node pos="l" depth="1" NCoef="0" IVar="1" Cut="4.6244741210937500e+03" cType="1" res="5.2012833766639233e-03" rms="4.2855155467987061e-01" purity="4.0913137793540955e-01" nType="0">
          <Node pos="l" depth="2" NCoef="0" IVar="-1" Cut="0.0000000000000000e+00" cType="1" res="-1.2797777308151126e-03" rms="4.2773526906967163e-01" purity="3.9055156707763672e-01" nType="-99"/>
          <Node pos="r" depth="2" NCoef="0" IVar="-1" Cut="0.0000000000000000e+00" cType="1" res="1.2374442815780640e-01" rms="4.3207055330276489e-01" purity="5.3369420766830444e-01" nType="-99"/>
        </Node>
        <Node pos="r" depth="1" NCoef="0" IVar="1" Cut="4.6251191406250000e+03" cType="1" res="-1.1632656678557396e-02" rms="3.9568874239921570e-01" purity="7.0586460828781128e-01" nType="0">
          <Node pos="l" depth="2" NCoef="0" IVar="-1" Cut="0.0000000000000000e+00" cType="1" res="-2.0786030590534210e-01" rms="4.1231778264045715e-01" purity="6.2132221460342407e-01" nType="-99"/>
          <Node pos="r" depth="2" NCoef="0" IVar="-1" Cut="0.0000000000000000e+00" cType="1" res="9.4951028004288673e-03" rms="3.8981911540031433e-01" purity="7.2871059179306030e-01" nType="-99"/>
        </Node>
      </Node>
    </BinaryTree>
    <BinaryTree type="DecisionTree" boostWeight="1.0000000000000000e+00" itree="30">
      <Node pos="s" depth="0" NCoef="0" IVar="13" Cut="-7.5347805023193359e+00" cType="1" res="1.5521267778240144e-04" rms="4.1802716255187988e-01" purity="5.0000000000000000e-01" nType="0">
        <Node pos="l" depth="1" NCoef="0" IVar="10" Cut="-2.5064733028411865e+00" cType="1" res="-1.0405004024505615e-02" rms="4.1663068532943726e-01" purity="5.6549775600433350e-01" nType="0">
          <Node pos="l" depth="2" NCoef="0" IVar="-1" Cut="0.0000000000000000e+00" cType="1" res="9.3805484473705292e-02" rms="4.1935357451438904e-01" purity="5.7202005386352539e-01" nType="-99"/>
          <Node pos="r" depth="2" NCoef="0" IVar="-1" Cut="0.0000000000000000e+00" cType="1" res="-5.1489479839801788e-02" rms="4.1575101017951965e-01" purity="5.6445193290710449e-01" nType="-99"/>
        </Node>
        <Node pos="r" depth="1" NCoef="0" IVar="10" Cut="-1.7977446317672729e+00" cType="1" res="6.3948933966457844e-03" rms="4.1872492432594299e-01" purity="4.6129953861236572e-01" nType="0">
          <Node pos="l" depth="2" NCoef="0" IVar="-1" Cut="0.0000000000000000e+00" cType="1" res="-3.5480838268995285e-02" rms="4.1039127111434937e-01" purity="3.8421952724456787e-01" nType="-99"/>
          <Node pos="r" depth="2" NCoef="0" IVar="-1" Cut="0.0000000000000000e+00" cType="1" res="3.9900507777929306e-02" rms="4.2185375094413757e-01" purity="4.9276274442672729e-01" nType="-99"/>
        </Node>
      </Node>
    </BinaryTree>
    <BinaryTree type="DecisionTree" boostWeight="1.0000000000000000e+00" itree="31">
      <Node pos="s" depth="0" NCoef="0" IVar="9" Cut="-2.0949811935424805e+00" cType="1" res="-6.1976729739399161e-06" rms="4.1771751642227173e-01" purity="5.0000000000000000e-01" nType="0">
        <Node pos="l" depth="1" NCoef="0" IVar="10" Cut="-5.8390313386917114e-01" cType="1" res="6.7256032489240170e-03" rms="4.0688300132751465e-01" purity="4.9962949752807617e-01" nType="0">
          <Node pos="l" depth="2" NCoef="0" IVar="-1" Cut="0.0000000000000000e+00" cType="1" res="3.0241023749113083e-02" rms="4.0285199880599976e-01" purity="5.0407850742340088e-01" nType="-99"/>
          <Node pos="r" depth="2" NCoef="0" IVar="-1" Cut="0.0000000000000000e+00" cType="1" res="-7.2133541107177734e-02" rms="4.4444406032562256e-01" purity="4.5446833968162537e-01" nType="-99"/>
        </Node>
        <Node pos="r" depth="1" NCoef="0" IVar="1" Cut="4.6242841796875000e+03" cType="1" res="-1.1692400090396404e-02" rms="4.3563982844352722e-01" purity="5.0064319372177124e-01" nType="0">
          <Node pos="l" depth="2" NCoef="0" IVar="-1" Cut="0.0000000000000000e+00" cType="1" res="1.2210929999127984e-03" rms="4.4523739814758301e-01" purity="4.0697255730628967e-01" nType="-99"/>
          <Node pos="r" depth="2" NCoef="0" IVar="-1" Cut="0.0000000000000000e+00" cType="1" res="-7.7123977243900299e-02" rms="4.2355772852897644e-01" purity="6.1142641305923462e-01" nType="-99"/>
        </Node>
      </Node>
    </BinaryTree>
    <BinaryTree type="DecisionTree" boostWeight="1.0000000000000000e+00" itree="32">
      <Node pos="s" depth="0" NCoef="0" IVar="1" Cut="4.6229301757812500e+03" cType="1" res="3.0794926715316251e-05" rms="4.1744133830070496e-01" purity="5.0000000000000000e-01" nType="0">
        <Node pos="l" depth="1" NCoef="0" IVar="14" Cut="-8.9266157150268555e+00" cType="1" res="-2.0593661814928055e-02" rms="4.3065625429153442e-01" purity="3.9866518974304199e-01" nType="0">
          <Node pos="l" depth="2" NCoef="0" IVar="-1" Cut="0.0000000000000000e+00" cType="1" res="1.1351405410096049e-03" rms="4.3332549929618835e-01" purity="4.0721866488456726e-01" nType="-99"/>
          <Node pos="r" depth="2" NCoef="0" IVar="-1" Cut="0.0000000000000000e+00" cType="1" res="-1.1010193079710007e-01" rms="4.2688286304473877e-01" purity="3.9000415802001953e-01" nType="-99"/>
        </Node>
        <Node pos="r" depth="1" NCoef="0" IVar="3" Cut="-3.6212632812500000e+04" cType="1" res="2.7353477198630571e-03" rms="4.1560134291648865e-01" purity="5.1328837871551514e-01" nType="0">
          <Node pos="l" depth="2" NCoef="0" IVar="-1" Cut="0.0000000000000000e+00" cType="1" res="-2.2436045110225677e-02" rms="4.2533543705940247e-01" purity="3.9447382092475891e-01" nType="-99"/>
          <Node pos="r" depth="2" NCoef="0" IVar="-1" Cut="0.0000000000000000e+00" cType="1" res="2.6400452479720116e-02" rms="4.0999451279640198e-01" purity="5.7902431488037109e-01" nType="-99"/>
        </Node>
      </Node>
    </BinaryTree>
    <BinaryTree type="DecisionTree" boostWeight="1.0000000000000000e+00" itree="33">
      <Node pos="s" depth="0" NCoef="0" IVar="12" Cut="-9.6303069591522217e-01" cType="1" res="-3.3180564059875906e-05" rms="4.1718840599060059e-01" purity="5.0000000000000000e-01" nType="0">
        <Node pos="l" depth="1" NCoef="0" IVar="5" Cut="-1.1566679000854492e+01" cType="1" res="4.7126431018114090e-03" rms="4.1801384091377258e-01" purity="5.5820918083190918e-01" nType="0">
          <Node pos="l" depth="2" NCoef="0" IVar="-1" Cut="0.0000000000000000e+00" cType="1" res="-3.5064294934272766e-02" rms="4.3920615315437317e-01" purity="4.5532998442649841e-01" nType="-99"/>
          <Node pos="r" depth="2" NCoef="0" IVar="-1" Cut="0.0000000000000000e+00" cType="1" res="2.8143450617790222e-02" rms="4.1241157054901123e-01" purity="5.8394855260848999e-01" nType="-99"/>
        </Node>
        <Node pos="r" depth="1" NCoef="0" IVar="12" Cut="-5.3921836614608765e-01" cType="1" res="-1.2463130988180637e-02" rms="4.1476139426231384e-01" purity="3.4754231572151184e-01" nType="0">
          <Node pos="l" depth="2" NCoef="0" IVar="-1" Cut="0.0000000000000000e+00" cType="1" res="-1.1086307466030121e-01" rms="4.0871998667716980e-01" purity="3.6026430130004883e-01" nType="-99"/>
          <Node pos="r" depth="2" NCoef="0" IVar="-1" Cut="0.0000000000000000e+00" cType="1" res="1.6156559810042381e-02" rms="4.1783154010772705e-01" purity="3.3899164199829102e-01" nType="-99"/>
        </Node>
      </Node>
    </BinaryTree>
    <BinaryTree type="DecisionTree" boostWeight="1.0000000000000000e+00" itree="34">
      <Node pos="s" depth="0" NCoef="0" IVar="12" Cut="-1.5668007731437683e-01" cType="1" res="-8.6562155047431588e-05" rms="4.1686177253723145e-01" purity="5.0000000000000000e-01" nType="0">
        <Node pos="l" depth="1" NCoef="0" IVar="12" Cut="-5.4021614789962769e-01" cType="1" res="2.3641295265406370e-03" rms="4.1712820529937744e-01" purity="5.2015221118927002e-01" nType="0">
          <Node pos="l" depth="2" NCoef="0" IVar="-1" Cut="0.0000000000000000e+00" cType="1" res="-3.2870605355128646e-04" rms="4.1667789220809937e-01" purity="5.3185498714447021e-01" nType="-99"/>
          <Node pos="r" depth="2" NCoef="0" IVar="-1" Cut="0.0000000000000000e+00" cType="1" res="9.4749927520751953e-02" rms="4.2131194472312927e-01" purity="3.8187465071678162e-01" nType="-99"/>
        </Node>
        <Node pos="r" depth="1" NCoef="0" IVar="-1" Cut="0.0000000000000000e+00" cType="1" res="-7.0925369858741760e-02" rms="4.1357338428497314e-01" purity="3.0733627080917358e-01" nType="-99"/>
      </Node>
    </BinaryTree>
    <BinaryTree type="DecisionTree" boostWeight="1.0000000000000000e+00" itree="35">
      <Node pos="s" depth="0" NCoef="0" IVar="2" Cut="2.7367203125000000e+04" cType="1" res="-8.7210755737032741e-05" rms="4.1662713885307312e-01" purity="5.0000000000000000e-01" nType="0">
        <Node pos="l" depth="1" NCoef="0" IVar="1" Cut="4.6235312500000000e+03" cType="1" res="4.2943004518747330e-03" rms="4.2440196871757507e-01" purity="4.3176648020744324e-01" nType="0">
          <Node pos="l" depth="2" NCoef="0" IVar="-1" Cut="0.0000000000000000e+00" cType="1" res="-4.2610887438058853e-02" rms="4.1759917140007019e-01" purity="2.8192916512489319e-01" nType="-99"/>
          <Node pos="r" depth="2" NCoef="0" IVar="-1" Cut="0.0000000000000000e+00" cType="1" res="3.4896314144134521e-02" rms="4.2699432373046875e-01" purity="4.9541345238685608e-01" nType="-99"/>
        </Node>
        <Node pos="r" depth="1" NCoef="0" IVar="9" Cut="-2.6660306453704834e+00" cType="1" res="-1.0091239586472511e-02" rms="3.9812630414962769e-01" purity="6.5579324960708618e-01" nType="0">
          <Node pos="l" depth="2" NCoef="0" IVar="-1" Cut="0.0000000000000000e+00" cType="1" res="7.0708066225051880e-02" rms="3.5165739059448242e-01" purity="7.5976318120956421e-01" nType="-99"/>
          <Node pos="r" depth="2" NCoef="0" IVar="-1" Cut="0.0000000000000000e+00" cType="1" res="-7.3003731667995453e-02" rms="4.1803845763206482e-01" purity="6.0558927059173584e-01" nType="-99"/>
        </Node>
      </Node>
    </BinaryTree>
    <BinaryTree type="DecisionTree" boostWeight="1.0000000000000000e+00" itree="36">
      <Node pos="s" depth="0" NCoef="0" IVar="2" Cut="2.7366423828125000e+04" cType="1" res="3.2081090466817841e-05" rms="4.1623702645301819e-01" purity="5.0000000000000000e-01" nType="0">
        <Node pos="l" depth="1" NCoef="0" IVar="-1" Cut="0.0000000000000000e+00" cType="1" res="-6.8635560572147369e-02" rms="4.4270202517509460e-01" purity="4.7565567493438721e-01" nType="-99"/>
        <Node pos="r" depth="1" NCoef="0" IVar="13" Cut="-8.2982158660888672e+00" cType="1" res="2.9477754142135382e-03" rms="4.1302332282066345e-01" purity="5.0276476144790649e-01" nType="0">
          <Node pos="l" depth="2" NCoef="0" IVar="-1" Cut="0.0000000000000000e+00" cType="1" res="9.2796631157398224e-02" rms="3.9863964915275574e-01" purity="6.8575382232666016e-01" nType="-99"/>
          <Node pos="r" depth="2" NCoef="0" IVar="-1" Cut="0.0000000000000000e+00" cType="1" res="1.1661290191113949e-03" rms="4.1424825787544250e-01" purity="4.8568233847618103e-01" nType="-99"/>
        </Node>
      </Node>
    </BinaryTree>
    <BinaryTree type="DecisionTree" boostWeight="1.0000000000000000e+00" itree="37">
      <Node pos="s" depth="0" NCoef="0" IVar="13" Cut="-7.9097909927368164e+00" cType="1" res="3.0662540666526183e-05" rms="4.1597387194633484e-01" purity="5.0000000000000000e-01" nType="0">
        <Node pos="l" depth="1" NCoef="0" IVar="7" Cut="-2.2819988727569580e+00" cType="1" res="-1.6281856223940849e-02" rms="4.1365686058998108e-01" purity="6.1258220672607422e-01" nType="0">
          <Node pos="l" depth="2" NCoef="0" IVar="-1" Cut="0.0000000000000000e+00" cType="1" res="5.3179908543825150e-02" rms="4.1657367348670959e-01" purity="5.8053869009017944e-01" nType="-99"/>
          <Node pos="r" depth="2" NCoef="0" IVar="-1" Cut="0.0000000000000000e+00" cType="1" res="-9.5722787082195282e-02" rms="4.1142436861991882e-01" purity="6.2692135572433472e-01" nType="-99"/>
        </Node>
        <Node pos="r" depth="1" NCoef="0" IVar="4" Cut="-1.5808407783508301e+01" cType="1" res="4.0969219990074635e-03" rms="4.1644993424415588e-01" purity="4.7193634510040283e-01" nType="0">
          <Node pos="l" depth="2" NCoef="0" IVar="-1" Cut="0.0000000000000000e+00" cType="1" res="1.1617624014616013e-01" rms="4.2396095395088196e-01" purity="4.6084138751029968e-01" nType="-99"/>
          <Node pos="r" depth="2" NCoef="0" IVar="-1" Cut="0.0000000000000000e+00" cType="1" res="4.4819158501923084e-03" rms="4.1578397154808044e-01" purity="4.7273740172386169e-01" nType="-99"/>
        </Node>
      </Node>
    </BinaryTree>
    <BinaryTree type="DecisionTree" boostWeight="1.0000000000000000e+00" itree="38">
      <Node pos="s" depth="0" NCoef="0" IVar="9" Cut="-8.1011962890625000e-01" cType="1" res="3.5735312849283218e-05" rms="4.1571599245071411e-01" purity="5.0000000000000000e-01" nType="0">
        <Node pos="l" depth="1" NCoef="0" IVar="11" Cut="-1.0225900411605835e+00" cType="1" res="-1.6790498048067093e-03" rms="4.1250354051589966e-01" purity="4.9600169062614441e-01" nType="0">
          <Node pos="l" depth="2" NCoef="0" IVar="-1" Cut="0.0000000000000000e+00" cType="1" res="2.9852289706468582e-02" rms="4.0922546386718750e-01" purity="6.3079440593719482e-01" nType="-99"/>
          <Node pos="r" depth="2" NCoef="0" IVar="-1" Cut="0.0000000000000000e+00" cType="1" res="-2.2980902343988419e-02" rms="4.1412556171417236e-01" purity="4.2342510819435120e-01" nType="-99"/>
        </Node>
        <Node pos="r" depth="1" NCoef="0" IVar="-1" Cut="0.0000000000000000e+00" cType="1" res="6.7280590534210205e-02" rms="4.5944857597351074e-01" purity="5.5852788686752319e-01" nType="-99"/>
      </Node>
    </BinaryTree>
    <BinaryTree type="DecisionTree" boostWeight="1.0000000000000000e+00" itree="39">
      <Node pos="s" depth="0" NCoef="0" IVar="11" Cut="-1.2514154911041260e+00" cType="1" res="1.6215468576774583e-06" rms="4.1555538773536682e-01" purity="5.0000000000000000e-01" nType="0">
        <Node pos="l" depth="1" NCoef="0" IVar="7" Cut="-1.0198245048522949e+00" cType="1" res="-1.4199019409716129e-02" rms="4.1663533449172974e-01" purity="6.7786890268325806e-01" nType="0">
          <Node pos="l" depth="2" NCoef="0" IVar="-1" Cut="0.0000000000000000e+00" cType="1" res="-6.7406226880848408e-03" rms="4.0534186363220215e-01" purity="6.8924671411514282e-01" nType="-99"/>
          <Node pos="r" depth="2" NCoef="0" IVar="-1" Cut="0.0000000000000000e+00" cType="1" res="-1.6584455966949463e-01" rms="4.5032492280006409e-01" purity="6.3942658901214600e-01" nType="-99"/>
        </Node>
        <Node pos="r" depth="1" NCoef="0" IVar="7" Cut="-1.6795181035995483e+00" cType="1" res="4.0816003456711769e-03" rms="4.1515478491783142e-01" purity="4.4889658689498901e-01" nType="0">
          <Node pos="l" depth="2" NCoef="0" IVar="-1" Cut="0.0000000000000000e+00" cType="1" res="-1.2941555120050907e-02" rms="4.0488702058792114e-01" purity="3.8375562429428101e-01" nType="-99"/>
          <Node pos="r" depth="2" NCoef="0" IVar="-1" Cut="0.0000000000000000e+00" cType="1" res="4.0918953716754913e-02" rms="4.2759865522384644e-01" purity="5.3158819675445557e-01" nType="-99"/>
        </Node>
      </Node>
    </BinaryTree>
    <BinaryTree type="DecisionTree" boostWeight="1.0000000000000000e+00" itree="40">
      <Node pos="s" depth="0" NCoef="0" IVar="9" Cut="-2.8087930679321289e+00" cType="1" res="1.0194813512498513e-04" rms="4.1534009575843811e-01" purity="5.0000000000000000e-01" nType="0">
        <Node pos="l" depth="1" NCoef="0" IVar="9" Cut="-3.1254351139068604e+00" cType="1" res="-1.0793005116283894e-02" rms="3.9260104298591614e-01" purity="6.3864046335220337e-01" nType="0">
          <Node pos="l" depth="2" NCoef="0" IVar="-1" Cut="0.0000000000000000e+00" cType="1" res="7.6938075944781303e-03" rms="3.9054074883460999e-01" purity="6.6806465387344360e-01" nType="-99"/>
          <Node pos="r" depth="2" NCoef="0" IVar="-1" Cut="0.0000000000000000e+00" cType="1" res="-1.1705931276082993e-01" rms="3.9530342817306519e-01" purity="5.8225774765014648e-01" nType="-99"/>
        </Node>
        <Node pos="r" depth="1" NCoef="0" IVar="8" Cut="-4.9009644985198975e-01" cType="1" res="3.6162212491035461e-03" rms="4.2235383391380310e-01" purity="4.5528018474578857e-01" nType="0">
          <Node pos="l" depth="2" NCoef="0" IVar="-1" Cut="0.0000000000000000e+00" cType="1" res="-7.5114336796104908e-03" rms="4.1816207766532898e-01" purity="4.5731863379478455e-01" nType="-99"/>
          <Node pos="r" depth="2" NCoef="0" IVar="-1" Cut="0.0000000000000000e+00" cType="1" res="7.0208117365837097e-02" rms="4.3593513965606689e-01" purity="4.4818702340126038e-01" nType="-99"/>
        </Node>
      </Node>
    </BinaryTree>
    <BinaryTree type="DecisionTree" boostWeight="1.0000000000000000e+00" itree="41">
      <Node pos="s" depth="0" NCoef="0" IVar="6" Cut="1.1258613586425781e+01" cType="1" res="-7.7096819950384088e-06" rms="4.1501075029373169e-01" purity="5.0000000000000000e-01" nType="0">
        <Node pos="l" depth="1" NCoef="0" IVar="6" Cut="1.0736122131347656e+01" cType="1" res="4.1004237718880177e-03" rms="4.1139957308769226e-01" purity="4.9009034037590027e-01" nType="0">
          <Node pos="l" depth="2" NCoef="0" IVar="-1" Cut="0.0000000000000000e+00" cType="1" res="-1.2951697222888470e-02" rms="4.1076618432998657e-01" purity="4.9655950069427490e-01" nType="-99"/>
          <Node pos="r" depth="2" NCoef="0" IVar="-1" Cut="0.0000000000000000e+00" cType="1" res="5.8390527963638306e-02" rms="4.1214361786842346e-01" purity="4.7757723927497864e-01" nType="-99"/>
        </Node>
        <Node pos="r" depth="1" NCoef="0" IVar="10" Cut="-1.2996292114257812e+00" cType="1" res="-9.1917086392641068e-03" rms="4.2282792925834656e-01" purity="5.2215361595153809e-01" nType="0">
          <Node pos="l" depth="2" NCoef="0" IVar="-1" Cut="0.0000000000000000e+00" cType="1" res="-5.7992734014987946e-02" rms="4.1971752047538757e-01" purity="4.8005712032318115e-01" nType="-99"/>
          <Node pos="r" depth="2" NCoef="0" IVar="-1" Cut="0.0000000000000000e+00" cType="1" res="2.3294536396861076e-02" rms="4.2688468098640442e-01" purity="5.8551859855651855e-01" nType="-99"/>
        </Node>
      </Node>
    </BinaryTree>
    <BinaryTree type="DecisionTree" boostWeight="1.0000000000000000e+00" itree="42">
      <Node pos="s" depth="0" NCoef="0" IVar="0" Cut="4.6116870117187500e+03" cType="1" res="-3.1676070648245513e-05" rms="4.1472908854484558e-01" purity="5.0000000000000000e-01" nType="0">
        <Node pos="l" depth="1" NCoef="0" IVar="10" Cut="-7.7380645275115967e-01" cType="1" res="-3.9700879715383053e-03" rms="4.0937182307243347e-01" purity="5.3729003667831421e-01" nType="0">
          <Node pos="l" depth="2" NCoef="0" IVar="-1" Cut="0.0000000000000000e+00" cType="1" res="2.2336374968290329e-03" rms="4.0252250432968140e-01" purity="5.4625475406646729e-01" nType="-99"/>
          <Node pos="r" depth="2" NCoef="0" IVar="-1" Cut="0.0000000000000000e+00" cType="1" res="-7.9864069819450378e-02" rms="4.4179993867874146e-01" purity="4.9169147014617920e-01" nType="-99"/>
        </Node>
        <Node pos="r" depth="1" NCoef="0" IVar="7" Cut="-2.2413203716278076e+00" cType="1" res="1.0249353013932705e-02" rms="4.2822775244712830e-01" purity="4.0265622735023499e-01" nType="0">
          <Node pos="l" depth="2" NCoef="0" IVar="-1" Cut="0.0000000000000000e+00" cType="1" res="-3.7451881915330887e-02" rms="4.0958046913146973e-01" purity="2.9897335171699524e-01" nType="-99"/>
          <Node pos="r" depth="2" NCoef="0" IVar="-1" Cut="0.0000000000000000e+00" cType="1" res="6.2199886888265610e-02" rms="4.3824142217636108e-01" purity="4.6349561214447021e-01" nType="-99"/>
        </Node>
      </Node>
    </BinaryTree>
    <BinaryTree type="DecisionTree" boostWeight="1.0000000000000000e+00" itree="43">
      <Node pos="s" depth="0" NCoef="0" IVar="3" Cut="-3.6211511718750000e+04" cType="1" res="-4.1920164221664891e-05" rms="4.1452190279960632e-01" purity="5.0000000000000000e-01" nType="0">
        <Node pos="l" depth="1" NCoef="0" IVar="3" Cut="-3.6212066406250000e+04" cType="1" res="-2.0545234438031912e-03" rms="4.2065820097923279e-01" purity="4.6495145559310913e-01" nType="0">
          <Node pos="l" depth="2" NCoef="0" IVar="-1" Cut="0.0000000000000000e+00" cType="1" res="3.2762109767645597e-03" rms="4.2215552926063538e-01" purity="4.3076035380363464e-01" nType="-99"/>
          <Node pos="r" depth="2" NCoef="0" IVar="-1" Cut="0.0000000000000000e+00" cType="1" res="-7.0243187248706818e-02" rms="4.1056156158447266e-01" purity="6.7957127094268799e-01" nType="-99"/>
        </Node>
        <Node pos="r" depth="1" NCoef="0" IVar="6" Cut="1.1374811172485352e+01" cType="1" res="1.7446041107177734e-02" rms="3.5630878806114197e-01" purity="8.0454498529434204e-01" nType="0">
          <Node pos="l" depth="2" NCoef="0" IVar="-1" Cut="0.0000000000000000e+00" cType="1" res="1.2492785602807999e-01" rms="3.1866985559463501e-01" purity="8.4296929836273193e-01" nType="-99"/>
          <Node pos="r" depth="2" NCoef="0" IVar="-1" Cut="0.0000000000000000e+00" cType="1" res="1.6980428248643875e-02" rms="3.9066424965858459e-01" purity="7.6526975631713867e-01" nType="-99"/>
        </Node>
      </Node>
    </BinaryTree>
    <BinaryTree type="DecisionTree" boostWeight="1.0000000000000000e+00" itree="44">
      <Node pos="s" depth="0" NCoef="0" IVar="11" Cut="-1.0844416618347168e+00" cType="1" res="1.3049853441771120e-04" rms="4.1438809037208557e-01" purity="5.0000000000000000e-01" nType="0">
        <Node pos="l" depth="1" NCoef="0" IVar="12" Cut="-1.5044258832931519e+00" cType="1" res="8.8404258713126183e-03" rms="4.1108962893486023e-01" purity="6.3755702972412109e-01" nType="0">
          <Node pos="l" depth="2" NCoef="0" IVar="-1" Cut="0.0000000000000000e+00" cType="1" res="7.8615173697471619e-03" rms="4.0451985597610474e-01" purity="6.6753816604614258e-01" nType="-99"/>
          <Node pos="r" depth="2" NCoef="0" IVar="-1" Cut="0.0000000000000000e+00" cType="1" res="1.0571040213108063e-01" rms="4.4090402126312256e-01" purity="4.8889225721359253e-01" nType="-99"/>
        </Node>
        <Node pos="r" depth="1" NCoef="0" IVar="13" Cut="-7.4485888481140137e+00" cType="1" res="-3.9256270974874496e-03" rms="4.1585299372673035e-01" purity="4.3594107031822205e-01" nType="0">
          <Node pos="l" depth="2" NCoef="0" IVar="-1" Cut="0.0000000000000000e+00" cType="1" res="1.6391890123486519e-02" rms="4.1320309042930603e-01" purity="4.9309548735618591e-01" nType="-99"/>
          <Node pos="r" depth="2" NCoef="0" IVar="-1" Cut="0.0000000000000000e+00" cType="1" res="-3.0124254524707794e-02" rms="4.1744408011436462e-01" purity="3.9885783195495605e-01" nType="-99"/>
        </Node>
      </Node>
    </BinaryTree>
    <BinaryTree type="DecisionTree" boostWeight="1.0000000000000000e+00" itree="45">
      <Node pos="s" depth="0" NCoef="0" IVar="5" Cut="-1.0818856239318848e+01" cType="1" res="-3.9151083910837770e-05" rms="4.1421341896057129e-01" purity="5.0000000000000000e-01" nType="0">
        <Node pos="l" depth="1" NCoef="0" IVar="1" Cut="4.6252426757812500e+03" cType="1" res="-4.3075080029666424e-03" rms="4.1702073812484741e-01" purity="4.6289229393005371e-01" nType="0">
          <Node pos="l" depth="2" NCoef="0" IVar="-1" Cut="0.0000000000000000e+00" cType="1" res="-2.9694961849600077e-03" rms="4.2023527622222900e-01" purity="4.3697172403335571e-01" nType="-99"/>
          <Node pos="r" depth="2" NCoef="0" IVar="-1" Cut="0.0000000000000000e+00" cType="1" res="-1.5647549927234650e-01" rms="3.7937301397323608e-01" purity="7.3892635107040405e-01" nType="-99"/>
        </Node>
        <Node pos="r" depth="1" NCoef="0" IVar="2" Cut="2.7367203125000000e+04" cType="1" res="7.2888494469225407e-03" rms="4.0924507379531860e-01" purity="5.6370717287063599e-01" nType="0">
          <Node pos="l" depth="2" NCoef="0" IVar="-1" Cut="0.0000000000000000e+00" cType="1" res="5.0483528524637222e-02" rms="4.1789701581001282e-01" purity="5.2076667547225952e-01" nType="-99"/>
          <Node pos="r" depth="2" NCoef="0" IVar="-1" Cut="0.0000000000000000e+00" cType="1" res="-2.6533132418990135e-02" rms="3.9506348967552185e-01" purity="6.2975859642028809e-01" nType="-99"/>
        </Node>
      </Node>
    </BinaryTree>
    <BinaryTree type="DecisionTree" boostWeight="1.0000000000000000e+00" itree="46">
      <Node pos="s" depth="0" NCoef="0" IVar="2" Cut="2.7368070312500000e+04" cType="1" res="1.1036314390366897e-04" rms="4.1400730609893799e-01" purity="5.0000000000000000e-01" nType="0">
        <Node pos="l" depth="1" NCoef="0" IVar="1" Cut="4.6239106445312500e+03" cType="1" res="-2.3059791419655085e-03" rms="4.1911837458610535e-01" purity="4.6307173371315002e-01" nType="0">
          <Node pos="l" depth="2" NCoef="0" IVar="-1" Cut="0.0000000000000000e+00" cType="1" res="-2.7501236647367477e-02" rms="4.2561966180801392e-01" purity="3.3222988247871399e-01" nType="-99"/>
          <Node pos="r" depth="2" NCoef="0" IVar="-1" Cut="0.0000000000000000e+00" cType="1" res="1.1401690542697906e-02" rms="4.1364794969558716e-01" purity="5.6959259510040283e-01" nType="-99"/>
        </Node>
        <Node pos="r" depth="1" NCoef="0" IVar="1" Cut="4.6242626953125000e+03" cType="1" res="1.8212348222732544e-02" rms="3.7300238013267517e-01" purity="7.7664762735366821e-01" nType="0">
          <Node pos="l" depth="2" NCoef="0" IVar="-1" Cut="0.0000000000000000e+00" cType="1" res="1.2424219399690628e-01" rms="4.1289260983467102e-01" purity="7.0607417821884155e-01" nType="-99"/>
          <Node pos="r" depth="2" NCoef="0" IVar="-1" Cut="0.0000000000000000e+00" cType="1" res="-4.7639310359954834e-02" rms="3.2373622059822083e-01" purity="8.5046601295471191e-01" nType="-99"/>
        </Node>
      </Node>
    </BinaryTree>
